tree
version=v4
num_class=1
num_tree_per_iteration=1
label_index=0
max_feature_idx=183
objective=regression
feature_names=T2M__main T2M_MAX__main T2M_MIN__main T2MDEW__main T2MWET__main ALLSKY_SFC_SW_DWN__main CLRSKY_SFC_SW_DWN__main CLOUD_AMT__main RH2M__main QV2M__main PRECTOTCORR__main PS__main WS2M__main WS10M__main WD2M__main WD10M__main GWETTOP__main GWETROOT__main ALLSKY_SFC_SW_DIFF__main TOA_SW_DWN__main TS__main ALLSKY_SFC_PAR_TOT__main WS2M_MAX__main WS2M_MIN__main WS10M_MAX__main WS10M_MIN__main T2M__diff_n1 T2M_MAX__diff_n1 T2M_MIN__diff_n1 T2MDEW__diff_n1 T2MWET__diff_n1 ALLSKY_SFC_SW_DWN__diff_n1 CLRSKY_SFC_SW_DWN__diff_n1 CLOUD_AMT__diff_n1 RH2M__diff_n1 QV2M__diff_n1 PRECTOTCORR__diff_n1 PS__diff_n1 WS2M__diff_n1 WS10M__diff_n1 WD2M__diff_n1 WD10M__diff_n1 GWETTOP__diff_n1 GWETROOT__diff_n1 ALLSKY_SFC_SW_DIFF__diff_n1 TOA_SW_DWN__diff_n1 TS__diff_n1 ALLSKY_SFC_PAR_TOT__diff_n1 WS2M_MAX__diff_n1 WS2M_MIN__diff_n1 WS10M_MAX__diff_n1 WS10M_MIN__diff_n1 T2M__diff_n2 T2M_MAX__diff_n2 T2M_MIN__diff_n2 T2MDEW__diff_n2 T2MWET__diff_n2 ALLSKY_SFC_SW_DWN__diff_n2 CLRSKY_SFC_SW_DWN__diff_n2 CLOUD_AMT__diff_n2 RH2M__diff_n2 QV2M__diff_n2 PRECTOTCORR__diff_n2 PS__diff_n2 WS2M__diff_n2 WS10M__diff_n2 WD2M__diff_n2 WD10M__diff_n2 GWETTOP__diff_n2 GWETROOT__diff_n2 ALLSKY_SFC_SW_DIFF__diff_n2 TOA_SW_DWN__diff_n2 TS__diff_n2 ALLSKY_SFC_PAR_TOT__diff_n2 WS2M_MAX__diff_n2 WS2M_MIN__diff_n2 WS10M_MAX__diff_n2 WS10M_MIN__diff_n2 T2M__diff_n3 T2M_MAX__diff_n3 T2M_MIN__diff_n3 T2MDEW__diff_n3 T2MWET__diff_n3 ALLSKY_SFC_SW_DWN__diff_n3 CLRSKY_SFC_SW_DWN__diff_n3 CLOUD_AMT__diff_n3 RH2M__diff_n3 QV2M__diff_n3 PRECTOTCORR__diff_n3 PS__diff_n3 WS2M__diff_n3 WS10M__diff_n3 WD2M__diff_n3 WD10M__diff_n3 GWETTOP__diff_n3 GWETROOT__diff_n3 ALLSKY_SFC_SW_DIFF__diff_n3 TOA_SW_DWN__diff_n3 TS__diff_n3 ALLSKY_SFC_PAR_TOT__diff_n3 WS2M_MAX__diff_n3 WS2M_MIN__diff_n3 WS10M_MAX__diff_n3 WS10M_MIN__diff_n3 T2M__main__lag1 T2M__main__lag2 T2M__main__lag3 T2M_MAX__main__lag1 T2M_MAX__main__lag2 T2M_MAX__main__lag3 T2M_MIN__main__lag1 T2M_MIN__main__lag2 T2M_MIN__main__lag3 T2MDEW__main__lag1 T2MDEW__main__lag2 T2MDEW__main__lag3 T2MWET__main__lag1 T2MWET__main__lag2 T2MWET__main__lag3 ALLSKY_SFC_SW_DWN__main__lag1 ALLSKY_SFC_SW_DWN__main__lag2 ALLSKY_SFC_SW_DWN__main__lag3 CLRSKY_SFC_SW_DWN__main__lag1 CLRSKY_SFC_SW_DWN__main__lag2 CLRSKY_SFC_SW_DWN__main__lag3 CLOUD_AMT__main__lag1 CLOUD_AMT__main__lag2 CLOUD_AMT__main__lag3 RH2M__main__lag1 RH2M__main__lag2 RH2M__main__lag3 QV2M__main__lag1 QV2M__main__lag2 QV2M__main__lag3 PRECTOTCORR__main__lag1 PRECTOTCORR__main__lag2 PRECTOTCORR__main__lag3 PS__main__lag1 PS__main__lag2 PS__main__lag3 WS2M__main__lag1 WS2M__main__lag2 WS2M__main__lag3 WS10M__main__lag1 WS10M__main__lag2 WS10M__main__lag3 WD2M__main__lag1 WD2M__main__lag2 WD2M__main__lag3 WD10M__main__lag1 WD10M__main__lag2 WD10M__main__lag3 GWETTOP__main__lag1 GWETTOP__main__lag2 GWETTOP__main__lag3 GWETROOT__main__lag1 GWETROOT__main__lag2 GWETROOT__main__lag3 ALLSKY_SFC_SW_DIFF__main__lag1 ALLSKY_SFC_SW_DIFF__main__lag2 ALLSKY_SFC_SW_DIFF__main__lag3 TOA_SW_DWN__main__lag1 TOA_SW_DWN__main__lag2 TOA_SW_DWN__main__lag3 TS__main__lag1 TS__main__lag2 TS__main__lag3 ALLSKY_SFC_PAR_TOT__main__lag1 ALLSKY_SFC_PAR_TOT__main__lag2 ALLSKY_SFC_PAR_TOT__main__lag3 WS2M_MAX__main__lag1 WS2M_MAX__main__lag2 WS2M_MAX__main__lag3 WS2M_MIN__main__lag1 WS2M_MIN__main__lag2 WS2M_MIN__main__lag3 WS10M_MAX__main__lag1 WS10M_MAX__main__lag2 WS10M_MAX__main__lag3 WS10M_MIN__main__lag1 WS10M_MIN__main__lag2 WS10M_MIN__main__lag3 lat lon
feature_infos=[-43.310001373291016:37.560001373291016] [-30.479999542236328:48.830001831054688] [-63.349998474121094:28.110000610351562] [-43.490001678466797:24.680000305175781] [-43.400001525878906:26.719999313354492] [0:33.340000152587891] [0:34.950000762939453] [0.67000001668930054:96.379997253417969] [8.1899995803833008:99.389999389648438] [0.070000000298023224:20.610000610351562] [0:25.729999542236328] [67.970001220703125:102.86000061035156] [0.019999999552965164:8.5900001525878906] [0.49000000953674316:10.819999694824219] [0:360] [0:360] [0.029999999329447746:1] [0.14000000059604645:1] [0:19.629999160766602] [0:44.279998779296875] [-46.680000305175781:40.279998779296875] [0:14.899999618530273] [0.2199999988079071:26.909999847412109] [0:1.8799999952316284] [1.0900000333786011:32.630001068115234] [0:3.1400001049041748] [-6.1999998092651367:6.9600000381469727] [-3.5500011444091797:12.430000305175781] [-15.85999870300293:6.9799995422363281] [-7.0600004196166992:4.6299996376037598] [-6.630000114440918:5.7799997329711914] [-3.2800006866455078:3.2100000381469727] [-1.0100002288818359:1.2800006866455078] [-16.529994964599609:20.700000762939453] [-14.209999084472656:11.029998779296875] [-1.4700002670288086:2.3400001525878906] [-2.75:5.5499992370605469] [-1.6700057983398438:0.98000335693359375] [-2.7600002288818359:0.33000001311302185] [-2.429999828338623:0.38000011444091797] [-356.89999389648438:356.10000610351562] [-359.10000610351562:358.60000610351562] [-0.12000001966953278:0.19999998807907104] [-0.13000005483627319:0.22000002861022949] [-2.4699993133544922:5.7700004577636719] [-0.58000087738037109:0.61999988555908203] [-11.449999809265137:10.819999694824219] [-1.8199996948242188:1.5399994850158691] [-7.1500005722045898:3.1100006103515625] [-1.1599999666213989:0.96999996900558472] [-6.4600000381469727:3.75] [-1.3799999952316284:1.4599999189376831] [-2.8099994659423828:5.4000005722045898] [-8.0900001525878906:10.809999465942383] [-7.8500003814697266:9.6000003814697266] [-2.9800000190734863:4.4699993133544922] [-2.3899993896484375:4.429999828338623] [-6.3700008392333984:2.7800006866455078] [-3:2.1100006103515625] [-22.840003967285156:31.939998626708984] [-11.330001831054688:11.629997253417969] [-1.5999994277954102:1.5699996948242188] [-5.5399999618530273:11.589999198913574] [-1.5499954223632812:8.5800018310546875] [-1.8199999332427979:2.5099999904632568] [-1.4700000286102295:1.8799998760223389] [-356.69998168945312:354.5999755859375] [-359.20001220703125:358.39999389648438] [-0.21999996900558472:0.29000002145767212] [-0.20999997854232788:0.34000003337860107] [-3.6000003814697266:6.630000114440918] [-0.6100006103515625:0.29000091552734375] [-3.3999996185302734:5.2099990844726562] [-2.7800002098083496:1.429999828338623] [-7.2599997520446777:7.0900001525878906] [-1.1699999570846558:1.690000057220459] [-7.4800004959106445:5.4899997711181641] [-2.0699999332427979:2.8500001430511475] [-4.8299999237060547:4.1499996185302734] [-9.8100013732910156:4.7400002479553223] [-7.9699993133544922:5.5499992370605469] [-3.7000000476837158:4.9100008010864258] [-3.75:3.4200000762939453] [-2.6199989318847656:3.1400012969970703] [-2.7099990844726562:1.2399997711181641] [-24.380001068115234:18.090000152587891] [-10.530002593994141:14.120002746582031] [-2.1100006103515625:3.3899993896484375] [-8.4799995422363281:9.3199996948242188] [-6.3199996948242188:6.4300003051757812] [-2.8499999046325684:2.070000171661377] [-3.0099999904632568:2.2100000381469727] [-354.60000610351562:359] [-358.5:359.10000610351562] [-0.13000002503395081:0.25] [-0.15999996662139893:0.24000000953674316] [-2.2899999618530273:2.7699999809265137] [-0.6100006103515625:0.29000091552734375] [-6.7899990081787109:4.3400001525878906] [-4.0999999046325684:1.2600002288818359] [-5.320000171661377:5.9800000190734863] [-1.6100000143051147:0.99000000953674316] [-6.0099992752075195:6.6400003433227539] [-2.1100001335144043:1.6599999666213989] [-43.310001373291016:37.560001373291016] [-43.310001373291016:37.560001373291016] [-43.310001373291016:37.560001373291016] [-30.479999542236328:48.830001831054688] [-30.479999542236328:48.830001831054688] [-30.479999542236328:48.970001220703125] [-63.349998474121094:28.110000610351562] [-63.349998474121094:28.110000610351562] [-63.349998474121094:28.110000610351562] [-43.490001678466797:24.680000305175781] [-43.490001678466797:24.680000305175781] [-43.490001678466797:24.680000305175781] [-43.400001525878906:26.719999313354492] [-43.400001525878906:26.719999313354492] [-43.400001525878906:26.719999313354492] [0:33.340000152587891] [0:33.340000152587891] [0:33.340000152587891] [0:34.950000762939453] [0:34.950000762939453] [0:34.950000762939453] [0.67000001668930054:96.379997253417969] [0.67000001668930054:96.379997253417969] [0.67000001668930054:96.379997253417969] [8.1899995803833008:99.389999389648438] [8.1899995803833008:99.389999389648438] [8.1899995803833008:99.389999389648438] [0.070000000298023224:20.610000610351562] [0.070000000298023224:20.610000610351562] [0.070000000298023224:20.610000610351562] [0:25.729999542236328] [0:25.729999542236328] [0:25.729999542236328] [67.970001220703125:102.86000061035156] [67.970001220703125:102.86000061035156] [67.970001220703125:102.86000061035156] [0.019999999552965164:8.5900001525878906] [0.019999999552965164:8.5900001525878906] [0.019999999552965164:8.5900001525878906] [0.49000000953674316:10.819999694824219] [0.49000000953674316:10.819999694824219] [0.49000000953674316:10.819999694824219] [0:360] [0:360] [0:360] [0:360] [0:360] [0:360] [0.029999999329447746:1] [0.029999999329447746:1] [0.029999999329447746:1] [0.14000000059604645:1] [0.14000000059604645:1] [0.14000000059604645:1] [0:19.629999160766602] [0:19.629999160766602] [0:19.629999160766602] [0:44.279998779296875] [0:44.279998779296875] [0:44.279998779296875] [-46.680000305175781:40.279998779296875] [-46.680000305175781:40.279998779296875] [-46.680000305175781:40.279998779296875] [0:14.899999618530273] [0:14.899999618530273] [0:14.899999618530273] [0.2199999988079071:26.909999847412109] [0.2199999988079071:26.909999847412109] [0.2199999988079071:26.909999847412109] [0:1.8799999952316284] [0:1.8799999952316284] [0:1.8799999952316284] [1.0900000333786011:32.630001068115234] [1.0900000333786011:32.630001068115234] [1.0900000333786011:32.630001068115234] [0:3.1400001049041748] [0:3.1400001049041748] [0:3.1400001049041748] [-39.202894999999998:68.976585] [-86.922895999999994:132.566947]
tree_sizes=6410 6616 6603 6637 6613 6622 6647 6642 6650 6635 6639 6683 6662 6674 6648 6683 6674 6679 6686 6685 6652 6672 6665 6664 6699 6676 6667 6696 6697 6698 6696 6721 6705 6718 6712 6730 6693 6717 6725 6731 6751 6759 6727 6735 6734 6766 6753 6752 6770 6761 6750 6768 6756 6754 6758 6788 6780 6800 6766 6782 6787 6813 6793 6787 6802 6808 6783 6792 6836 6850 6823 6837 6831 6849 6876 6842 6866 6866 6879 6859 6862 6878 6894 6884 6902 6902 6906 6933 6907 6888 6933 6924 6917 6884 6932 6936 6927 6948 6952 6934 6920 6920 6939 6939 6968 6989 6963 6953 6962 6958 6928 6981 6955 6990 6955 6987 6963 6976 6960 6982 6952 6989 6978 6970 7024 7002 6988 7002 7002 7021 7010 6996 7023 6948 7007 7014 7037 7012 7027 6993 7019 7018 7044 7006 7018 7045 6992 7048 7021 7060 7033 7069 7071 7052 7008 7072 7029 7065 7053 7058 7048 7075 7073 7057 7051 7040 7033 7071 7053 7078 7031 7059 7103 7031 7103 7068 7057 7092 7054 7079 7051 7046 7066 7074 7074 7095 7074 7049 7056 7087 7093 7098 7061 7065 7107 7058 7045 7113 7070 7082 7080 7076 7083 7119 7100 7091 7071 7095 7117 7051 7120 7077 7086 7107 7083 7069

Tree=0
num_leaves=64
num_cat=0
split_feature=5 19 5 163 163 2 162 21 163 6 105 19 0 163 19 182 145 19 19 163 182 124 162 19 19 124 5 89 6 120 8 4 19 0 121 29 19 6 72 19 19 5 19 19 16 19 19 21 57 161 30 19 19 106 37 11 19 6 1 45 89 5 162
split_gain=423206 50541.6 39443.7 25911.2 17236.6 7416.52 7239.84 5979.52 7020.73 4084.81 3904.86 3278.93 2766.09 2719.63 1667.51 1641.77 1603.62 1316.78 1101.41 1051.96 1028.85 918.605 756.945 722.684 703.708 673.667 667.444 602.787 507.052 500.811 485.078 433.499 404.355 399.924 391.841 381.329 358.522 347.001 308.413 299.996 277.836 268.514 261.345 252.215 239.698 225.645 217.849 203.563 171.7 162.416 159.893 157.495 155.727 142.604 140.974 131.95 131.42 126.105 110.757 108.559 98.7419 96.5138 96.0938
threshold=12.434999942779543 34.315000534057624 6.3350000381469735 34.789999008178718 34.145000457763679 10.275000095367433 34.954999923706062 0.59499999880790722 22.704999923706058 19.435000419616703 17.304999351501468 21.569999694824222 11.275000095367433 38.635000228881843 20.695000648498539 57.795225000000009 2.7150000333786015 38.635000228881843 38.844999313354499 25.414999961853031 -16.127278499999999 18.994999885559086 23.724999427795414 37.155000686645515 6.5000000000000009 4.4649999141693124 15.484999656677248 -0.93499755859374989 14.305000305175783 2.185000061988831 90.424999237060561 11.894999980926515 29.875000000000004 14.684999942779543 0.9350000023841859 0.29000000655651098 42.924999237060554 7.055000066757203 0.38999962806701666 9.5250000953674334 30.384999275207523 25.585000038146976 31.204999923706058 36.664999008178718 0.085000000894069686 29.164999961853031 33.254999160766609 3.2250000238418584 -0.020000249147415158 37.375000000000007 -2.3849998712539668 15.045000076293947 41.004999160766609 -5.1249999999999991 -0.13500213623046872 88.005001068115249 20.064999580383304 21.07499980926514 -3.8499999046325679 0.39499950408935552 -0.22499847412109372 0.41499999165534979 39.444999694824226
decision_type=2 2 2 2 2 2 2 2 2 2 2 2 2 2 2 2 2 2 2 2 2 2 2 2 2 2 2 2 2 2 2 2 2 2 2 2 2 2 2 2 2 2 2 2 2 2 2 2 2 2 2 2 2 2 2 2 2 2 2 2 2 2 2
left_child=2 3 7 9 14 12 20 29 24 21 18 35 32 17 25 27 30 43 -8 45 52 34 -22 -15 48 51 38 -10 47 61 -7 -13 -5 -23 -2 55 -19 -17 57 53 -21 -20 -18 59 -28 -11 60 -27 -9 -24 -29 -4 -3 -26 -31 -6 -49 -14 -52 -12 -46 -1 -25
right_child=1 6 4 5 11 16 10 8 15 19 13 31 26 23 -16 37 42 36 41 40 22 33 49 62 39 28 44 50 -30 54 -32 -33 -34 -35 -36 -37 -38 -39 -40 -41 -42 -43 -44 -45 46 -47 -48 56 -50 -51 58 -53 -54 -55 -56 -57 -58 -59 -60 -61 -62 -63 -64
leaf_value=26.328541574006756 27.912226914410724 28.207772156958256 27.348376219682152 26.97422905526259 26.794509734397067 27.632789427174508 27.605400476232695 26.557836796770829 26.839082471227439 27.922173097068555 27.825041238582866 26.936036900928027 27.132457468066264 27.702369207548628 27.700232480921709 26.223652660325403 27.409504695461351 28.101523729090786 27.808729028626495 27.764721161845241 28.199670345576539 27.330838930237498 28.050952006721168 27.970349775970789 26.953365817890926 27.119750223117997 27.504199146097548 26.401583485987842 27.453504693522511 26.317972465829811 27.82276859490354 27.195049702225703 27.253487031227451 27.595947729732952 27.695732479790436 26.455178791304935 28.271346198123521 26.422288011916365 27.364147868254889 27.096469976895911 27.897499142783104 28.024532469982837 27.54709421098919 27.99186374528724 27.229675335405467 28.029551932853927 27.424931415232265 27.227085460804744 26.743915589039844 28.116470578132432 26.584336803121868 27.498494008813871 28.306738081030446 26.828052480298414 26.164233815606913 26.637983435399814 27.390107480825915 27.300232480495961 26.497166893104538 27.972397862994725 27.342832477453996 26.476646091233082 27.875910851734208
leaf_weight=38.499999344348907 25.199999570846558 84.699998557567596 33.59999942779541 81.899998605251312 15.399999737739561 100.79999828338623 87.499998509883881 16.099999725818634 13.999999761581419 67.19999885559082 39.89999932050705 79.099998652935028 55.999999046325684 68.599998831748962 27.999999523162842 72.799998760223389 88.199998497962952 240.09999591112137 101.4999982714653 74.199998736381531 170.09999710321426 21.699999630451202 265.29999548196793 36.399999380111694 33.59999942779541 43.399999260902405 33.59999942779541 34.299999415874481 25.199999570846558 17.499999701976776 50.399999141693115 20.29999965429306 15.399999737739561 41.299999296665192 122.49999791383743 28.699999511241913 35.699999392032623 31.499999463558197 27.299999535083771 16.799999713897705 83.999998569488525 16.799999713897705 56.699999034404755 170.09999710321426 29.399999499320984 179.89999693632126 65.799998879432678 105.69999819993973 53.89999908208847 146.99999749660492 48.299999177455902 36.399999380111694 74.899998724460602 69.999998807907104 100.79999828338623 107.09999817609787 13.999999761581419 13.999999761581419 148.39999747276306 18.199999690055847 55.999999046325684 15.399999737739561 103.59999823570251
leaf_count=55 36 121 48 117 22 144 125 23 20 96 57 113 80 98 40 104 126 343 145 106 243 31 379 52 48 62 48 49 36 25 72 29 22 59 175 41 51 45 39 24 120 24 81 243 42 257 94 151 77 210 69 52 107 100 144 153 20 20 212 26 80 22 148
internal_value=27.5167 27.8431 26.7451 27.6085 27.0687 27.3947 28.0256 26.5011 26.5829 27.8431 27.9317 26.7659 27.2483 27.9872 27.3337 26.4498 27.5822 28.05 27.7399 27.9359 28.1417 27.6645 28.1109 27.8353 26.8272 27.294 27.3276 26.5205 27.2448 26.2445 27.6961 26.9889 27.0184 27.5046 27.7327 26.6192 28.1235 26.2836 27.2216 26.9005 27.8352 27.8394 27.4633 27.9611 27.3834 28.0003 27.3566 27.2125 26.7011 28.0743 26.5012 27.4264 28.2542 26.8687 26.187 26.6577 27.2462 27.166 26.5186 27.8712 27.3039 26.3709 27.9005
internal_weight=4200.7 2951.9 1248.8 1291.5 536.9 675.5 1660.4 711.9 539.7 616 918.4 250.6 379.4 712.6 286.3 349.3 296.1 504 205.8 405.3 742 210.7 582.4 208.6 190.4 258.3 282.1 245 188.3 172.2 151.2 99.4 97.3 63 147.7 151.2 275.8 104.3 97.3 120.4 158.2 118.3 144.9 228.2 184.8 247.1 151.2 163.1 70 412.3 231 70 159.6 103.6 118.3 122.5 119.7 70 196.7 58.1 85.4 53.9 140
internal_count=6001 4217 1784 1845 767 965 2372 1017 771 880 1312 358 542 1018 409 499 423 720 294 579 1060 301 832 298 272 369 403 350 269 246 216 142 139 90 211 216 394 149 139 172 226 169 207 326 264 353 216 233 100 589 330 100 228 148 169 175 171 100 281 83 122 77 200
is_linear=0
shrinkage=1


Tree=1
num_leaves=64
num_cat=0
split_feature=5 19 5 163 163 162 2 21 163 6 105 19 20 163 182 145 6 19 19 163 182 121 0 6 11 162 124 19 5 120 19 8 0 121 6 163 19 19 19 19 37 5 129 19 19 19 89 19 19 19 19 121 57 19 161 137 37 106 45 109 12 37 5
split_gain=378307 45836.2 33992.6 22726.8 14239.8 6816.04 6689.44 5645.41 6684.4 3809.98 3506.67 2789.24 2537.87 2396.28 1592.49 1364.75 1310.6 1155.21 994.773 960.441 911.378 902.011 779.787 723.787 709.215 698.154 677.312 592.751 543.878 494.563 418.44 404.463 359.072 318.768 317.299 312.756 306.788 265.385 264.208 261.392 259.345 247.697 199.14 229.879 194.788 193.169 187.508 180.96 180.443 151.318 149.068 143.954 136.166 135.764 134.941 134.778 130.396 128.472 107.825 105.941 105.111 95.6413 94.3707
threshold=12.434999942779543 34.315000534057624 6.555000066757203 34.789999008178718 34.104999542236335 34.954999923706062 10.275000095367433 0.59499999880790722 22.704999923706058 19.314999580383304 18.164999961853031 21.569999694824222 10.429999828338625 38.635000228881843 57.795225000000009 2.5649999380111699 14.425000190734865 38.635000228881843 38.844999313354499 25.414999961853031 -16.127278499999999 16.134999275207523 15.144999980926515 8.1649999618530291 87.784999847412124 23.724999427795414 4.6250000000000009 37.155000686645515 15.574999809265138 2.185000061988831 6.5000000000000009 89.915000915527358 14.684999942779543 0.9350000023841859 7.055000066757203 41.504999160766609 42.924999237060554 31.625000000000004 31.335000038146976 36.664999008178718 -0.25999832153320307 25.585000038146976 27.185000419616703 33.079999923706062 20.695000648498539 29.164999961853031 -0.88500213623046864 20.064999580383304 28.175000190734867 37.565000534057624 41.094999313354499 9.8949999809265154 -1.0000000180025095e-35 15.045000076293947 38.555000305175788 93.625000000000014 -0.13500213623046872 -5.1249999999999991 0.39499950408935552 38.905000686645515 1.3650000095367434 1.0000000180025095e-35 0.41499999165534979
decision_type=2 2 2 2 2 2 2 2 2 2 2 2 2 2 2 2 2 2 2 2 2 2 2 2 2 2 2 2 2 2 2 2 2 2 2 2 2 2 2 2 2 2 2 2 2 2 2 2 2 2 2 2 2 2 2 2 2 2 2 2 2 2 2
left_child=2 3 7 9 16 20 12 29 23 21 18 35 48 17 24 31 26 39 61 45 50 33 60 30 -10 -22 53 -15 40 62 52 -8 -23 -2 -16 46 -19 59 -17 58 -14 -20 -30 -44 -18 -11 -6 51 -5 -27 -3 -28 -9 -4 -42 -26 -31 -32 -12 -21 -13 -7 -1
right_child=1 5 4 6 11 10 15 8 14 19 13 22 28 27 34 38 44 36 41 37 25 32 -24 -25 55 49 47 -29 42 56 57 -33 -34 -35 -36 -37 -38 -39 -40 -41 54 -43 43 -45 -46 -47 -48 -49 -50 -51 -52 -53 -54 -55 -56 -57 -58 -59 -60 -61 -62 -63 -64
leaf_value=-1.1246118677818058 0.37746679042010295 0.66378265835124461 -0.15760632127704488 -0.51316898987234005 -0.6575025650980959 0.13130531527648187 0.11843311870746441 -0.90708233957284912 -0.62869413629079096 0.388760840627347 0.29108125949611996 -0.48650618635824894 -0.16373478793646248 0.18493765516529456 -1.2275747967722419 -0.091931140830788183 -0.030409019288752816 0.55803002434907056 0.27940013770943833 0.29068919289022271 0.6524769368026746 -0.18734840056193064 -0.14212996818559456 -0.33189036338483202 -0.91795355760787689 0.48177573388716843 -0.26149695824469665 0.36525378161038796 -0.019731757082798774 -1.1361393667880586 -0.53421732866633298 0.29573826724276703 0.06385533721408454 0.17223599068334172 -1.0324053356278609 -1.0051449691971843 0.72095396666716538 0.40210392454725369 0.04122664787591742 0.45703982798840354 -0.36551785977995727 0.4858983752710202 -0.21022428280555802 -0.089637653705141679 0.17530266223420571 0.49004442654412861 -0.8258822792873618 -0.11652013654291493 -0.32509356671498851 0.55154981296936578 0.761494691809675 -0.37760324105836368 -0.73268085580635112 -0.017575170845395196 -0.19081105723229574 -0.99352287654984917 -1.2791772214627262 -0.648024361587338 0.43678396570576616 0.17776079074483689 -0.596678776474869 0.025249200781118232 -0.98545731305638429
leaf_weight=32.199999451637268 22.399999618530273 94.499998390674591 33.59999942779541 74.199998736381531 19.599999666213989 51.099999129772186 86.79999852180481 14.69999974966049 17.499999701976776 64.399998903274536 41.999999284744263 41.299999296665192 37.099999368190765 68.599998831748962 71.399998784065247 84.699998557567596 21.699999630451202 237.29999595880508 107.09999817609787 86.79999852180481 177.09999698400497 21.699999630451202 13.999999761581419 17.499999701976776 109.89999812841415 104.99999821186066 95.199998378753662 135.79999768733978 34.999999403953552 18.899999678134918 35.699999392032623 51.099999129772186 41.299999296665192 121.79999792575836 29.399999499320984 21.699999630451202 32.899999439716339 49.699999153614044 66.499998867511749 163.09999722242355 52.499999105930328 16.799999713897705 81.199998617172241 76.999998688697815 24.499999582767487 174.99999701976776 105.69999819993973 16.099999725818634 15.399999737739561 298.89999490976334 66.499998867511749 37.099999368190765 46.89999920129776 35.699999392032623 13.999999761581419 127.39999783039093 101.4999982714653 81.199998617172241 18.199999690055847 27.299999535083771 45.499999225139618 36.399999380111694 19.599999666213989
leaf_count=46 32 135 48 106 28 73 124 21 25 92 60 59 53 98 102 121 31 339 153 124 253 31 20 25 157 150 136 194 50 27 51 73 59 174 42 31 47 71 95 233 75 24 116 110 35 250 151 23 22 427 95 53 67 51 20 182 145 116 26 39 65 52 28
internal_value=0.00334859 0.312121 -0.730707 0.0882912 -0.418787 0.486421 -0.111525 -0.951222 -0.873201 0.309418 0.394657 -0.690984 -0.247624 0.448698 -1.00242 0.0703813 -0.163196 0.508324 0.216252 0.398966 0.598875 0.135161 -0.488407 -0.638755 -0.935871 0.569705 -0.214527 0.304737 -0.177219 -1.20114 -0.66884 0.184135 -0.0226704 0.204117 -1.17065 -0.829894 0.577868 0.305673 -0.0333664 0.424174 -0.269649 0.3074 -0.127655 -0.151532 0.0786805 0.462799 -0.799544 -0.274795 -0.480844 0.533411 0.704142 -0.294056 -0.774299 -0.0854691 -0.328737 -0.958525 -1.25672 -0.613269 0.335131 0.26367 -0.544258 0.087186 -1.07196
internal_weight=4172.7 2937.2 1235.5 1285.9 511.7 1651.3 675.5 723.8 551.6 610.4 909.3 247.8 386.4 697.9 355.6 289.1 263.9 493.5 211.4 403.2 742 207.2 100.8 196 254.8 581 217.7 204.4 296.8 172.2 178.5 137.9 63 144.2 100.8 147 270.2 163.8 151.2 223.3 103.6 123.9 193.2 158.2 46.2 239.4 125.3 148.4 89.6 403.9 161 132.3 61.6 69.3 66.5 237.3 120.4 116.9 60.2 114.1 86.8 87.5 51.8
internal_count=5961 4196 1765 1837 731 2359 965 1034 788 872 1299 354 552 997 508 413 377 705 302 576 1060 296 144 280 364 830 311 292 424 246 255 197 90 206 144 210 386 234 216 319 148 177 276 226 66 342 179 212 128 577 230 189 88 99 95 339 172 167 86 163 124 125 74
is_linear=0
shrinkage=0.05


Tree=2
num_leaves=64
num_cat=0
split_feature=5 19 5 163 163 162 2 21 163 105 6 6 163 19 20 182 145 19 19 182 163 6 6 11 162 121 124 19 5 8 120 19 124 6 6 0 19 37 5 19 19 19 16 19 37 6 19 90 57 0 19 89 182 30 19 19 161 105 11 156 131 6 45
split_gain=343348 38343 33895.8 18860.1 13610.7 6003.15 5349.77 5020.79 5967.15 3075.31 2897.63 2806.41 2264.86 1916.88 1783.4 1338.66 1229.53 1046.38 920.821 834.908 738.152 681.53 630.485 625.519 623.39 594.7 579.536 548.843 434.224 426.452 404.743 402.817 318.397 296.313 282.976 276.133 276.077 259.794 251.218 201.956 200.183 198.998 184.786 189.401 183.494 165.159 163.036 159.305 154.686 153.811 144.846 136.396 134.614 133.621 132.58 130.117 128.396 119.235 108.27 100.07 91.9415 83.7379 82.1164
threshold=12.734999656677248 34.315000534057624 6.555000066757203 34.789999008178718 35.065000534057624 34.954999923706062 10.275000095367433 0.59499999880790722 22.704999923706058 17.304999351501468 19.634999275207523 14.690000057220461 38.815000534057624 20.695000648498539 10.429999828338625 57.795225000000009 2.7150000333786015 38.635000228881843 38.844999313354499 -16.127278499999999 25.625000000000004 8.1649999618530291 19.435000419616703 87.58499908447267 23.724999427795414 16.134999275207523 4.4649999141693124 37.155000686645515 15.484999656677248 89.915000915527358 2.185000061988831 6.5000000000000009 2.8349999189376835 14.125000000000002 7.055000066757203 14.684999942779543 42.924999237060554 0.42499923706054693 25.585000038146976 31.204999923706058 31.625000000000004 36.664999008178718 0.074999999254941954 33.254999160766609 -0.25999832153320307 22.48499965667725 29.164999961853031 0.90000006556510936 -0.020000249147415158 13.305000305175783 15.045000076293947 -0.22499847412109372 61.778613000000007 -2.3849998712539668 41.094999313354499 37.565000534057624 38.555000305175788 -15.65499973297119 88.005001068115249 0.18500000238418582 2.0349999666213994 16.224999427795414 0.39499950408935552
decision_type=2 2 2 2 2 2 2 2 2 2 2 2 2 2 2 2 2 2 2 2 2 2 2 2 2 2 2 2 2 2 2 2 2 2 2 2 2 2 2 2 2 2 2 2 2 2 2 2 2 2 2 2 2 2 2 2 2 2 2 10 2 2 2
left_child=2 3 7 10 13 19 14 30 21 18 25 37 17 26 45 23 29 41 -7 54 46 31 49 -10 -21 32 50 -14 44 -8 -1 48 -2 47 -17 -27 59 58 -20 -18 -22 62 -30 51 -16 -5 -12 -28 -9 -13 -4 -44 -32 -25 -3 -26 -46 -33 -6 -19 -55 -15 -11
right_child=1 5 4 6 11 9 16 8 15 12 20 22 27 61 28 34 39 36 38 24 40 -23 -24 53 55 35 33 -29 42 -31 52 57 -34 -35 -36 -37 -38 -39 -40 -41 -42 -43 43 -45 56 -47 -48 -49 -50 -51 -52 -53 -54 60 -56 -57 -58 -59 -60 -61 -62 -63 -64
leaf_value=-1.0229726628677214 0.36319261326206548 0.63012774465105525 -0.1488185035981196 -0.48249792690576787 -0.64948495199825007 0.085071496158567461 0.10715168750379339 -0.86192233379724303 -0.59508191565812063 0.2845599307501061 0.3672064560035922 -0.53330517091644547 0.17288465144825158 0.12495130695775856 -0.15787809541595368 -1.162329405095814 -0.088720348249793302 0.59742383508712515 0.2669743461113922 0.61912099805918364 0.25662701402729654 -0.32688261833508225 -0.14753118408630891 -1.0041796397280343 0.4590017528650755 -0.16710634175549818 -0.24846456640455858 0.34692926099037519 -0.012940761824674137 0.28551126420409145 -1.0724902676257111 -0.51029727961187132 0.17033430159661264 -0.11072190739770445 -0.9753479808005171 0.080970154158497287 0.68554094867518778 -0.95506950651895584 0.46187128274562161 0.03252562408411204 0.38099810753521945 0.43208690709526665 -0.26706972964356135 -0.079513440065314772 -0.3472565854176527 -0.29096171670235427 0.4659833094065815 -0.37792798689148682 -0.69276545024086378 -0.38042496990824226 -0.0063603502402330044 -0.1423082864182223 -1.2165662905580052 -0.84437295026299619 0.72084328399085451 0.52384517130428288 -0.17728353619004128 -0.61877649137158108 -0.78145518997347319 0.5156504383592464 -0.91664985106076269 0.27824144922395178 0.41482091928926401
leaf_weight=51.799999117851257 25.899999558925629 92.399998426437378 34.999999403953552 57.399999022483826 18.199999690055847 86.099998533725739 102.89999824762344 18.199999690055847 16.799999713897705 39.199999332427979 55.299999058246613 86.79999852180481 71.399998784065247 24.499999582767487 32.199999451637268 68.599998831748962 83.999998569488525 46.199999213218689 105.69999819993973 177.79999697208405 97.999998331069946 18.899999678134918 13.999999761581419 32.899999439716339 106.3999981880188 15.399999737739561 123.89999788999557 123.89999788999557 32.199999451637268 49.699999153614044 19.599999666213989 36.399999380111694 123.1999979019165 34.299999415874481 28.699999511241913 41.299999296665192 32.899999439716339 20.29999965429306 19.599999666213989 58.099999010562897 48.299999177455902 181.2999969124794 35.699999392032623 65.799998879432678 45.499999225139618 13.999999761581419 170.79999709129333 29.399999499320984 52.499999105930328 20.29999965429306 36.399999380111694 56.699999034404755 93.79999840259552 61.599998950958252 71.399998784065247 283.49999517202377 14.69999974966049 83.299998581409454 106.3999981880188 196.69999665021896 153.99999737739563 13.999999761581419 17.499999701976776
leaf_count=74 37 132 50 82 26 123 147 26 24 56 79 124 102 35 46 98 120 66 151 254 140 27 20 47 152 22 177 177 46 71 28 52 176 49 41 59 47 29 28 83 69 259 51 94 65 20 244 42 75 29 52 81 134 88 102 405 21 119 152 281 220 20 25
internal_value=0.00145989 0.306045 -0.67279 0.0943305 -0.380854 0.463305 -0.0907037 -0.89597 -0.825835 0.378338 0.30199 -0.640731 0.428238 -0.148494 -0.221656 -0.94854 0.0666883 0.48333 0.210958 0.570225 0.385199 -0.613254 -0.46308 -0.890359 0.541532 0.151421 -0.197428 0.2833 -0.165282 0.165241 -1.13877 -0.641681 0.203836 -0.243569 -1.10718 0.0135914 0.549615 -0.789202 0.297461 -0.0391469 0.297687 0.406519 -0.122122 -0.144344 -0.25422 -0.444942 0.441824 -0.273293 -0.736311 -0.504328 -0.0761928 -0.190512 -1.19166 -0.910322 0.66967 0.50615 -0.305752 -0.585789 -0.762179 0.531204 -0.895999 0.180693 0.324764
internal_weight=4179.7 2879.1 1300.6 1227.1 563.5 1652 648.9 737.1 571.9 920.5 578.2 266 709.1 297.5 354.2 362.6 294.7 513.8 211.4 731.5 372.4 209.3 121.1 265.3 567.7 205.8 259 195.3 282.8 152.6 165.2 190.4 149.1 187.6 97.3 56.7 275.8 144.9 125.3 142.1 146.3 238 190.4 158.2 92.4 71.4 226.1 153.3 70.7 107.1 71.4 92.4 113.4 248.5 163.8 389.9 60.2 119.7 124.6 242.9 215.6 38.5 56.7
internal_count=5971 4113 1858 1753 805 2360 927 1053 817 1315 826 380 1013 425 506 518 421 734 302 1045 532 299 173 379 811 294 370 279 404 218 236 272 213 268 139 81 394 207 179 203 209 340 272 226 132 102 323 219 101 153 102 132 162 355 234 557 86 171 178 347 308 55 81
is_linear=0
shrinkage=0.05


Tree=3
num_leaves=64
num_cat=0
split_feature=21 19 5 163 163 162 21 163 2 105 19 6 19 6 0 182 163 19 19 182 163 124 19 162 11 124 163 106 5 120 19 19 124 87 19 6 107 19 6 57 129 19 5 37 19 0 163 19 161 19 89 182 19 26 19 37 121 56 131 37 19 19 11
split_gain=308954 34154.8 32698.3 17635.5 13591 5637.17 4842.18 5311.62 4416.57 2809.12 2487.22 2440.04 1971.21 1862.99 1521.97 1187.95 1096.39 1078.63 845.729 741.104 666.978 632.823 629.973 574.479 566.324 563.667 445.481 431.559 396.906 363.337 330.867 316.333 288.338 286.988 282.554 277.916 255.411 255.201 218.397 217.097 197.419 213.166 196.959 191.893 187.664 184.393 179.852 152.704 131.827 129.319 128.641 128.397 126.239 121.145 119.832 115.089 107.53 92.2122 88.6715 87.0862 85.1676 83.4742 78.4453
threshold=5.8250000476837167 34.315000534057624 6.555000066757203 34.789999008178718 34.104999542236335 34.954999923706062 0.59499999880790722 22.704999923706058 10.275000095367433 17.304999351501468 21.569999694824222 19.73499965667725 36.07500076293946 14.425000190734865 12.055000305175783 57.795225000000009 37.895000457763679 39.854999542236335 38.844999313354499 -16.127278499999999 25.414999961853031 4.4649999141693124 7.9949998855590829 23.724999427795414 87.58499908447267 18.675000190734867 39.215000152587898 21.525000572204593 14.734999656677248 2.185000061988831 29.875000000000004 38.555000305175788 2.8349999189376835 -0.17499971389770505 21.069999694824222 8.1649999618530291 29.814999580383304 30.554999351501468 5.2950000762939462 -0.010000124573707579 25.875000000000004 33.254999160766609 25.585000038146976 0.42499923706054693 31.625000000000004 14.684999942779543 33.694999694824226 20.064999580383304 37.375000000000007 29.164999961853031 -0.22499847412109372 61.778613000000007 15.045000076293947 -2.7250003814697261 40.82500076293946 -0.25999832153320307 10.284999847412111 -0.22000014781951902 1.985000014305115 1.0000000180025095e-35 36.664999008178718 27.545000076293949 93.465000152587905
decision_type=2 2 2 2 2 2 2 2 2 2 2 2 2 2 2 2 2 2 2 2 2 2 2 2 2 2 2 2 2 2 2 2 2 2 2 2 2 2 2 2 2 2 2 2 2 2 2 2 2 2 2 2 2 2 2 2 2 2 2 2 2 2 2
left_child=2 3 6 11 13 19 29 22 14 18 33 25 -11 21 30 24 36 26 59 54 49 52 39 -21 -9 32 31 -12 55 -1 -5 60 -2 -6 -15 -24 -10 61 -17 -8 -30 50 -20 -35 -22 -27 -19 56 -25 -13 -42 -31 -4 -26 -3 -16 62 -39 -55 -7 -14 -18 -23
right_child=1 5 4 8 10 9 7 15 16 12 27 20 17 34 28 38 37 46 42 23 44 47 35 48 53 45 -28 -29 40 51 -32 -33 -34 43 -36 -37 -38 57 -40 -41 41 -43 -44 -45 -46 -47 -48 -49 -50 -51 -52 -53 -54 58 -56 -57 -58 -59 -60 -61 -62 -63 -64
leaf_value=-0.9759440052386239 0.348793682050273 0.58850847343271295 -0.1417675820719784 -0.45849801588291056 -0.57379854459322188 0.12028099745932225 -0.81876854142512734 -0.56809868247336459 0.26227315921452304 0.15881211655079464 -0.49374069096633449 0.35316148004438269 0.33016983892755808 -0.0067651967418418477 -0.15722464612083176 -1.1317094576850266 -0.17813760740894019 0.64445510425612107 0.25529931139888046 0.58813618529404887 0.24328197122471701 -0.19550818574643711 -0.52591813826623901 0.46022461426851796 -0.95544914838420003 -0.1207374950943248 0.30762789033387616 -0.25863301242776399 -0.0028625439571253759 -1.0202225177666548 -0.23230325719804862 0.47583141552180952 0.17189438340000041 -0.74947257315403537 0.19057209692418275 -0.29574013880100547 0.11244142013957355 0.08223074513138548 -0.98024703040263184 -0.63152559860629331 -0.25898854498922314 -0.0740474703814792 0.4391973732062302 -0.90732076731494793 0.36201048928079832 0.077953214324229456 0.51768571509098515 -0.10096039417589538 0.52059293592951172 0.44357257726486377 -0.14508389356915513 -1.1558870770974572 -0.011122748664318619 -0.79942101051406533 0.67445294193630456 -0.31322909323316422 -0.33455311811537025 -0.013562554360553411 -0.87418679593403048 0.019638466137226286 0.4028354556178797 -0.058810130551635059 -0.28505900422112351
leaf_weight=52.499999105930328 29.399999499320984 75.599998712539673 34.999999403953552 58.099999010562897 19.599999666213989 51.099999129772186 18.199999690055847 16.799999713897705 49.699999153614044 73.49999874830246 108.49999815225601 51.099999129772186 51.799999117851257 34.299999415874481 16.799999713897705 47.599999189376831 19.599999666213989 48.299999177455902 109.19999814033508 180.59999692440033 93.099998414516449 51.099999129772186 70.699998795986176 265.29999548196793 34.299999415874481 15.399999737739561 101.4999982714653 23.799999594688416 31.499999463558197 20.999999642372131 22.399999618530273 173.59999704360962 106.3999981880188 100.79999828338623 38.499999344348907 16.099999725818634 66.499998867511749 47.599999189376831 47.599999189376831 103.59999823570251 36.399999380111694 77.699998676776886 16.799999713897705 23.799999594688416 51.799999117851257 48.299999177455902 66.499998867511749 15.399999737739561 137.19999766349792 174.99999701976776 77.699998676776886 102.89999824762344 39.199999332427979 54.599999070167542 87.499998509883881 39.89999932050705 41.299999296665192 53.199999094009399 144.89999753236771 37.099999368190765 181.99999690055847 58.099999010562897 46.89999920129776
leaf_count=75 42 108 50 83 28 73 26 24 71 105 155 73 74 49 24 68 28 69 156 258 133 73 101 379 49 22 145 34 45 30 32 248 152 144 55 23 95 68 68 148 52 111 24 34 74 69 95 22 196 250 111 147 56 78 125 57 59 76 207 53 260 83 67
internal_value=0.00130497 0.290517 -0.635734 0.0903929 -0.354788 0.438496 -0.858015 -0.785416 -0.0865824 0.355064 -0.608007 0.293643 0.40372 -0.122719 -0.203954 -0.905619 0.0569957 0.432581 0.196695 0.5404 0.36947 -0.192789 -0.586153 0.514046 -0.8485 0.152631 0.401351 -0.451446 -0.148868 -1.08618 -0.395557 0.424701 0.210192 -0.751647 0.0975959 -0.483224 0.176526 -0.0208163 -1.05598 -0.659504 -0.118871 -0.137923 0.279819 -0.779623 0.285726 0.0299181 0.571022 -0.250366 0.480802 0.423139 -0.181422 -1.13289 -0.0727477 -0.868648 0.634616 -0.267006 -0.266883 0.0316732 -0.853725 0.0779472 0.386736 -0.0889108 -0.238365
internal_weight=4192.3 2883.3 1309 1225.7 578.2 1657.6 730.8 554.4 655.2 911.4 276.5 570.5 697.2 301.7 360.5 345.8 294.7 623.7 214.2 746.2 371 228.9 208.6 583.1 250.6 199.5 508.9 132.3 280 176.4 80.5 407.4 135.8 144.2 72.8 86.8 116.2 178.5 95.2 121.8 223.3 191.8 126 124.6 144.9 63.7 114.8 154.7 402.5 226.1 114.1 123.9 74.2 233.8 163.1 56.7 139.3 100.8 199.5 88.2 233.8 77.7 98
internal_count=5989 4119 1870 1751 826 2368 1044 792 936 1302 395 815 996 431 515 494 421 891 306 1066 530 327 298 833 358 285 727 189 400 252 115 582 194 206 104 124 166 255 136 174 319 274 180 178 207 91 164 221 575 323 163 177 106 334 233 81 199 144 285 126 334 111 140
is_linear=0
shrinkage=0.05


Tree=4
num_leaves=64
num_cat=0
split_feature=5 19 5 163 124 110 21 163 160 6 182 163 6 2 145 182 163 163 121 19 106 161 19 11 6 89 19 123 19 120 8 19 6 19 0 124 6 160 161 123 0 72 121 37 6 163 19 105 19 19 19 19 30 6 57 132 163 37 12 106 19 6 5
split_gain=281623 32891.3 25538.5 16095.4 10340.3 5092.07 4405.84 4737.76 3915.88 2700.24 1947.65 1801.76 1727.59 1365.53 1337.19 1091.08 910.197 673.326 664.457 661.887 609.565 568.268 701.66 528.324 525.394 459.803 401.236 387.096 356.229 349.376 342.011 337.698 330.518 320.763 320.163 311.517 429.686 286.303 343.839 262.15 254.613 251.906 241.193 240.723 219.502 215.958 208.797 207.714 171.061 151.726 150.233 148.755 119.568 114.694 113.14 108.508 107.263 106.423 100.941 93.505 82.8918 80.1824 79.436
threshold=12.434999942779543 34.315000534057624 6.555000066757203 34.789999008178718 26.035000801086429 11.894999980926515 0.59499999880790722 22.704999923706058 6.5150001049041757 19.314999580383304 54.640390500000009 39.375000000000007 14.690000057220461 -0.57499998807907093 2.5649999380111699 57.795225000000009 7.1749999523162851 31.430000305175785 16.134999275207523 40.045000076293952 14.320000171661379 41.504999160766609 39.694999694824226 87.694999694824233 8.1649999618530291 -0.92999649047851551 32.795000076293952 23.144999504089359 38.114999771118171 2.185000061988831 89.915000915527358 29.875000000000004 11.805000305175783 6.5000000000000009 13.305000305175783 22.835000038146976 13.034999847412111 4.6649999618530282 39.545000076293952 25.535000801086429 14.684999942779543 -0.10000133514404295 1.1749999523162844 0.42499923706054693 7.055000066757203 25.625000000000004 38.004999160766609 18.164999961853031 36.07500076293946 27.095000267028812 38.48500061035157 30.175000190734867 -2.3849998712539668 19.204999923706058 -0.020000249147415158 1.075000047683716 33.694999694824226 1.0000000180025095e-35 1.2649999856948855 -0.51999998092651356 41.004999160766609 14.125000000000002 0.41499999165534979
decision_type=2 2 2 2 2 2 2 2 2 2 2 2 2 2 2 2 2 2 2 2 2 2 2 2 2 2 2 2 2 2 2 2 2 2 2 2 2 2 2 2 2 2 2 2 2 2 2 2 2 2 2 2 2 2 2 2 2 2 2 2 2 2 2
left_child=2 3 6 9 16 13 29 24 21 18 11 19 43 31 30 23 32 45 42 20 -10 25 -23 -9 33 60 27 -15 39 62 -7 -5 -4 54 -14 36 -18 -27 -39 -22 -20 -16 -2 -6 -17 49 58 -37 -41 -11 -12 -43 -25 -29 -8 -35 59 -31 -13 -21 -3 -34 -1
right_child=1 8 4 5 12 14 7 15 10 17 50 46 34 26 41 44 35 -19 40 56 28 22 -24 52 -26 37 -28 53 -30 57 -32 -33 61 55 -36 47 -38 38 -40 48 -42 51 -44 -45 -46 -47 -48 -49 -50 -51 -52 -53 -54 -55 -56 -57 -58 -59 -60 -61 -62 -63 -64
leaf_value=-0.96848536213903413 0.32328364578197183 0.56647909985067846 -0.10900563403057989 -0.44203107872023645 -0.68713449079058875 0.097048796394113526 -0.77781566457207429 -0.5393203963436467 0.25268168070405422 0.31864371704177002 0.043867859672101217 0.26165834625232492 -0.48551013561540313 -0.084718851891287542 0.034810644324400876 -1.0533918869230687 -0.23565635130664694 0.18985250281877997 -0.16445829261658257 0.49772230820766805 0.41168567802728762 0.081509890763454176 0.47792432820799102 -0.9072831552037578 -0.28457016175324285 0.54074265824644663 -0.083889346316470645 -0.34418187284779334 0.4576586673964933 -1.0266123604153898 0.2537286410996144 -0.20168742848220314 0.0084448658192809011 -0.45338961624059709 -0.25865099201113062 -0.49712437556682953 -0.040940179863648174 0.47813932107763801 0.22156001834460698 0.20274008259134516 0.0530493033369413 -0.13176676754420855 0.14865961658905222 -0.862042958651 -0.89379378472593052 0.30995382537653599 0.2867198418444652 -0.25009841647183889 0.348872505866617 0.41805606743184498 0.18354882995654567 -0.027372792291538203 -0.8091704615564016 -0.23235942081834052 -0.62689010902325837 -0.55912518036819825 0.46504820680937509 -1.1187682783475004 0.13055869036034554 0.6223850294308777 0.64553186578005795 0.14443921863077741 -0.8357802828569687
leaf_weight=34.299999415874481 23.799999594688416 60.899998962879181 51.099999129772186 74.199998736381531 113.39999806880951 90.299998462200165 16.799999713897705 17.499999701976776 76.299998700618744 48.299999177455902 38.499999344348907 18.899999678134918 66.499998867511749 38.499999344348907 74.899998724460602 65.099998891353607 102.19999825954437 60.19999897480011 20.29999965429306 29.399999499320984 219.09999626874924 16.099999725818634 36.399999380111694 36.399999380111694 16.799999713897705 243.59999585151672 88.899998486042023 34.999999403953552 197.39999663829803 54.599999070167542 56.699999034404755 18.199999690055847 20.999999642372131 34.999999403953552 20.29999965429306 13.999999761581419 39.199999332427979 193.89999669790268 13.999999761581419 23.099999606609344 39.89999932050705 67.899998843669891 116.89999800920486 23.799999594688416 32.199999451637268 100.09999829530716 52.499999105930328 21.699999630451202 150.49999743700027 186.89999681711197 38.499999344348907 68.599998831748962 211.39999639987946 66.499998867511749 47.599999189376831 79.099998652935028 55.299999058246613 73.49999874830246 65.799998879432678 30.799999475479126 72.799998760223389 22.399999618530273 16.799999713897705
leaf_count=49 34 87 73 106 162 129 24 25 109 69 55 27 95 55 107 93 146 86 29 42 313 23 52 52 24 348 127 50 282 78 81 26 30 50 29 20 56 277 20 33 57 97 167 34 46 143 75 31 215 267 55 98 302 95 68 113 79 105 94 44 104 32 24
internal_value=0.000308806 0.268632 -0.633092 0.0784238 -0.355545 -0.0879132 -0.819704 -0.750424 0.417196 0.267993 0.35526 0.375497 -0.60703 -0.232453 0.0416643 -0.857357 -0.148134 0.34382 0.118719 0.404822 0.38567 0.513941 0.356357 -0.804832 -0.551887 0.528078 -0.166962 -0.219714 0.402865 -1.03539 0.157482 -0.394691 -0.0228297 -0.577046 -0.432454 -0.214996 -0.181676 0.50396 0.460861 0.375322 -0.0202963 -0.0388714 0.178198 -0.717476 -1.00058 0.371463 0.208374 -0.346971 0.329427 0.397641 0.113708 -0.0793021 -0.823582 -0.270919 -0.666262 -0.526691 0.515322 -1.07949 0.159812 0.561503 0.609524 0.0786355 -0.924856
internal_weight=4142.6 2909.9 1232.7 1276.1 495.6 679.7 737.1 557.9 1633.8 596.4 996.1 919.1 224 321.3 358.4 362.6 271.6 395.5 200.9 781.9 666.4 637.7 52.5 265.3 195.3 585.2 228.9 140 590.1 179.2 147 92.4 94.5 178.5 86.8 177.1 141.4 451.5 207.9 392.7 60.2 211.4 140.7 137.2 97.3 335.3 137.2 35.7 173.6 235.2 77 136.5 247.8 101.5 64.4 114.1 115.5 128.1 84.7 60.2 133.7 43.4 51.1
internal_count=5918 4157 1761 1823 708 971 1053 797 2334 852 1423 1313 320 459 512 518 388 565 287 1117 952 911 75 379 279 836 327 200 843 256 210 132 135 255 124 253 202 645 297 561 86 302 201 196 139 479 196 51 248 336 110 195 354 145 92 163 165 183 121 86 191 62 73
is_linear=0
shrinkage=0.05


Tree=5
num_leaves=64
num_cat=0
split_feature=5 19 5 163 163 162 2 21 163 19 105 6 19 20 19 163 182 19 166 19 182 163 162 19 163 123 11 124 120 19 5 19 19 163 6 19 6 6 121 5 37 6 57 89 163 19 129 19 0 163 124 161 19 137 19 90 37 19 89 6 0 56 5
split_gain=254677 29153.3 25527.8 14338.3 10340.2 4561.5 4051.97 3838.05 4328.12 2361.72 2136.38 2106.48 1565.04 1429.57 1252.03 1009.73 994.438 806.995 661.983 657.573 634.755 613.47 496.986 493.584 434.409 422.451 414.732 385.389 334.388 287.003 285.594 267.2 251.554 250.876 244.257 225.998 219.473 217.948 185.726 178.103 169.89 164.416 163.495 158.203 155.597 148.923 133.063 141.589 129.341 121.024 120.042 118.396 110.842 107.257 104.464 102.986 91.9202 83.6511 82.6434 79.3597 79.1223 78.4033 76.9207
threshold=12.734999656677248 34.315000534057624 6.555000066757203 34.789999008178718 34.104999542236335 34.954999923706062 10.275000095367433 0.59499999880790722 22.704999923706058 21.569999694824222 17.304999351501468 19.204999923706058 36.664999008178718 11.614999771118166 20.695000648498539 37.895000457763679 57.795225000000009 39.854999542236335 24.345000267028812 38.844999313354499 -16.127278499999999 31.430000305175785 23.724999427795414 8.3550000190734881 39.215000152587898 14.704999923706056 87.58499908447267 4.4649999141693124 2.185000061988831 29.755000114440922 15.484999656677248 30.554999351501468 36.014999389648445 41.504999160766609 14.305000305175783 29.615000724792484 7.055000066757203 22.48499965667725 0.9350000023841859 25.585000038146976 -0.25999832153320307 8.1649999618530291 -0.2150001525878906 -0.88500213623046864 33.694999694824226 38.555000305175788 25.135000228881839 33.395000457763679 15.144999980926515 41.004999160766609 19.115000724792484 37.414999008178718 15.045000076293947 93.625000000000014 40.82500076293946 0.90000006556510936 -0.11499786376953124 27.545000076293949 -0.22499847412109372 19.054999351501468 1.485000014305115 -0.18999910354614255 0.41499999165534979
decision_type=2 2 2 2 2 2 2 2 2 2 2 2 2 2 2 2 2 2 2 2 2 2 2 2 2 2 2 2 2 2 2 2 2 2 2 2 2 2 2 2 2 2 2 2 2 2 2 2 2 2 2 2 2 2 2 2 2 2 2 2 2 2 2
left_child=2 3 7 11 14 20 13 28 23 33 19 25 32 29 27 37 26 24 49 -7 54 35 -22 42 45 38 -10 52 62 -5 40 57 -12 43 55 60 -18 -8 -2 -21 -15 -25 -9 -6 -19 -14 -32 58 -27 -11 -37 -24 -4 -28 -3 -29 -30 -17 -48 -42 -13 -33 -1
right_child=1 5 4 6 9 10 15 8 16 18 12 21 17 30 -16 31 36 44 -20 39 22 -23 51 41 -26 48 53 34 56 -31 46 61 -34 -35 -36 50 -38 -39 -40 -41 59 -43 -44 -45 -46 -47 47 -49 -50 -51 -52 -53 -54 -55 -56 -57 -58 -59 -60 -61 -62 -63 -64
leaf_value=-0.92033659303031701 0.30383514513007481 0.53188000707523864 -0.12928114066085539 -0.41898577681438848 -0.52410556856970958 0.074343522653060976 0.094026746532824973 -0.72522700999850909 -0.51314434857273694 -0.35549849242433856 0.13529246952937837 0.33280454125714848 0.36495818042010636 -0.12024498389901878 0.15497192010945229 -0.16929807599691771 -0.99955064295957163 0.58384444127877555 -0.062637766985174023 0.23003832944492278 0.53204004365201152 0.17848693386274014 0.41366111014527568 -0.46306154210899342 0.27762373513923894 -0.11251568372787209 -0.74322161609809001 -0.20607170606618827 -0.92461331998517249 -0.21149308701060648 -0.00660864547032744 0.077816386738156745 0.27425495580698689 -0.81834581341830459 -0.061311095645641314 0.40080565127966489 -0.83809799373277161 0.22773390316474923 0.14038327137808845 0.3934940324862593 -0.33833544896407003 -0.28517524762111474 -0.56129445257930455 -0.67427503463130756 0.46813550980328822 0.43001497586709547 -0.22688193569744577 -0.061306351358972777 0.05453045622235219 -0.46492944571721995 0.32145458862352722 0.47028614776294558 -0.0097999113289768975 -0.81126813211894011 0.61160861077008921 -0.31213750853251154 -1.0445799486460159 -0.054615990914939683 -0.12668571854301522 -0.2146249401449962 0.24324968384023735 -0.011691727495233487 -0.79471350060396384
leaf_weight=34.299999415874481 20.999999642372131 74.899998724460602 37.799999356269836 65.099998891353607 20.999999642372131 82.599998593330383 55.299999058246613 17.499999701976776 15.399999737739561 38.499999344348907 60.899998962879181 50.399999141693115 180.59999692440033 32.899999439716339 35.699999392032623 21.699999630451202 69.999998807907104 50.399999141693115 13.999999761581419 111.2999981045723 188.29999679327011 59.499998986721039 261.0999955534935 50.399999141693115 97.999998331069946 17.499999701976776 104.29999822378159 125.29999786615372 18.899999678134918 22.399999618530273 31.499999463558197 53.89999908208847 69.999998807907104 26.5999995470047 26.5999995470047 172.89999705553055 30.099999487400055 67.899998843669891 100.79999828338623 19.599999666213989 21.699999630451202 17.499999701976776 116.19999802112579 106.3999981880188 68.599998831748962 171.49999707937241 29.399999499320984 64.399998903274536 34.299999415874481 73.49999874830246 65.799998879432678 142.79999756813049 39.89999932050705 130.19999778270721 90.999998450279236 27.999999523162842 102.89999824762344 59.499998986721039 68.599998831748962 32.199999451637268 48.299999177455902 44.799999237060547 18.899999678134918
leaf_count=49 30 107 54 93 30 118 79 25 22 55 87 72 258 47 51 31 100 72 20 159 269 85 373 72 140 25 149 179 27 32 45 77 100 38 38 247 43 97 144 28 31 25 166 152 98 245 42 92 49 105 94 204 57 186 130 40 147 85 98 46 69 64 27
internal_value=0.00251855 0.262181 -0.579449 0.078673 -0.330002 0.398505 -0.0779527 -0.776267 -0.71154 -0.547332 0.323262 0.262973 0.36549 -0.189407 -0.122526 0.0574395 -0.817837 0.401346 -0.386793 0.184808 0.489172 0.326514 0.464956 -0.526998 0.370731 0.117699 -0.764496 -0.160984 -0.980286 -0.365868 -0.1344 -0.0180817 0.209604 -0.678682 -0.201176 0.352618 -0.951002 0.167718 0.168565 0.254513 -0.20978 -0.417215 -0.582752 -0.649522 0.517142 0.396646 -0.100656 -0.118898 -0.00190405 -0.427313 0.378932 0.433681 -0.0679259 -0.781003 0.575613 -0.225444 -1.02596 -0.0852638 -0.156745 -0.26443 0.28898 0.0371886 -0.875707
internal_weight=4213.3 2913.4 1299.9 1241.8 573.3 1671.6 671.3 726.6 551.6 280 913.5 570.5 700 368.2 293.3 303.1 350 569.1 126 213.5 758.1 396.9 592.2 201.6 450.1 173.6 249.9 257.6 175 87.5 280.7 179.9 130.9 154 179.9 337.4 100.1 123.2 121.8 130.9 86.8 67.9 133.7 127.4 119 352.1 193.9 162.4 51.8 112 238.7 403.9 77.7 234.5 165.9 153.3 121.8 81.2 98 53.9 98.7 98.7 53.2
internal_count=6019 4162 1857 1774 819 2388 959 1038 788 400 1305 815 1000 526 419 433 500 813 180 305 1083 567 846 288 643 248 357 368 250 125 401 257 187 220 257 482 143 176 174 187 124 97 191 182 170 503 277 232 74 160 341 577 111 335 237 219 174 116 140 77 141 141 76
is_linear=0
shrinkage=0.05


Tree=6
num_leaves=64
num_cat=0
split_feature=5 19 5 163 163 110 162 19 163 6 104 163 6 20 145 182 19 19 19 163 182 124 11 162 19 121 19 162 19 19 124 6 0 1 163 6 19 121 4 6 10 5 163 6 19 5 19 19 5 161 19 81 26 160 34 122 19 110 37 114 19 37 162
split_gain=230599 28350.3 19748.5 14488 9456.81 4126.77 3969.34 3353.14 3837.98 2295.47 2018.72 1478.76 1441.12 1265.23 1056.35 998.522 798.084 701.687 603.273 546.306 529.798 510.331 457.353 440.858 425.473 400.9 366.077 351.821 317.173 302.874 300.436 252.4 244.997 224.038 208.378 189.444 187.704 186.641 177.394 174.91 168.961 168.165 165.375 161.828 161.811 135.133 130.962 109.826 107.14 99.4385 98.3163 96.6632 95.4084 89.8748 88.827 87.3691 80.9045 73.1938 73.1693 72.5396 69.9896 69.4649 69.1565
threshold=12.204999923706056 34.315000534057624 6.3350000381469735 34.789999008178718 34.104999542236335 11.894999980926515 34.954999923706062 3.304999947547913 22.704999923706058 19.314999580383304 19.404999732971195 38.635000228881843 14.690000057220461 10.429999828338625 2.4250000715255742 57.795225000000009 20.695000648498539 38.635000228881843 38.844999313354499 25.414999961853031 -16.127278499999999 18.675000190734867 87.58499908447267 23.724999427795414 32.795000076293952 5.5950000286102304 37.155000686645515 33.694999694824226 7.9949998855590829 31.204999923706058 4.4649999141693124 14.305000305175783 14.684999942779543 29.005000114440922 41.504999160766609 30.675000190734867 30.384999275207523 0.9350000023841859 10.715000152587892 5.2950000762939462 0.45499999821186071 25.585000038146976 38.004999160766609 19.204999923706058 36.664999008178718 7.8650000095367441 27.095000267028812 37.565000534057624 0.41499999165534979 41.895000457763679 28.175000190734867 -0.77000004053115834 -2.7250003814697261 3.7250000238418584 0.78000068664550792 14.655000209808351 40.82500076293946 15.655000209808351 1.0000000180025095e-35 -2.1650000810623165 15.045000076293947 1.0000000180025095e-35 38.004999160766609
decision_type=2 2 2 2 2 2 2 2 2 2 2 2 2 2 2 2 2 2 2 2 2 2 2 2 2 2 2 2 2 2 2 2 2 2 2 2 2 2 2 2 2 2 2 2 2 2 2 2 2 2 2 2 2 2 2 2 2 2 2 2 2 2 2
left_child=2 3 7 9 16 13 20 25 28 21 18 17 34 50 33 22 30 44 58 46 56 37 -10 -22 27 48 -13 -15 54 42 60 45 -23 -7 51 -19 -21 -2 -14 -17 -30 -20 -16 -29 -12 53 -11 -25 -1 -37 -5 -6 -24 -32 -9 -47 -3 -44 -8 -54 -4 -27 -31
right_child=1 6 4 5 12 14 10 8 15 19 11 26 38 24 29 39 -18 35 41 36 23 32 52 47 -26 61 -28 43 40 62 31 -33 -34 -35 -36 49 -38 -39 -40 -41 -42 -43 57 -45 -46 55 -48 -49 -50 -51 -52 -53 59 -55 -56 -57 -58 -59 -60 -61 -62 -63 -64
leaf_value=-0.87438502733996826 0.29110691500317903 0.50516763423455846 -0.12207160152433674 -0.40052419605340489 -0.51504214062648968 0.22683063361845623 0.10498393568554794 -0.57045396358390155 -0.48146794033454443 0.2850457443649495 0.25808030380658259 0.14194349173040888 -0.44064192670825425 -0.074640901505481042 0.0020300376695076552 -0.96867634299983407 0.13192100547044766 0.42025095592449574 0.21556286367865751 0.18124883585422244 0.50626663435278851 -0.14822927822995716 -0.81966069459337332 0.36916042832544727 -0.07580385329514229 -0.93475895793254526 0.2821010506194277 -0.3389295535470811 -0.47734492238184922 0.088773846313459359 -0.2422656219526009 -0.046316521875806177 0.057533027682724017 0.089909304066922782 -0.77600928541524938 0.55351372137033239 0.28908273957597769 0.13316650247899453 -0.27276659388273877 -0.83687287265439303 -0.3253159777093384 0.37377376558712505 -0.16519745368837727 -0.21253855559751136 0.35400005121075234 -0.15305468043484605 0.37591949599479291 0.42793911278719982 -0.73846663803005708 0.44085891581287506 -0.25627550621161305 -0.64392838102429684 -0.68310288557472898 -0.38795773792194876 -0.44781836727377977 -0.26120739342838345 0.57767862967596029 -0.079361741713726508 0.01059000140347427 -0.74857234991107025 -0.017092344705944989 -1.0108427533225119 -0.0032014875851000442
leaf_weight=37.099999368190765 22.399999618530273 69.999998807907104 30.099999487400055 75.599998712539673 16.799999713897705 49.699999153614044 54.599999070167542 94.499998390674591 18.199999690055847 49.699999153614044 58.799998998641968 69.999998807907104 69.999998807907104 36.399999380111694 44.099999248981476 55.299999058246613 25.899999558925629 186.89999681711197 97.299998342990875 74.899998724460602 179.19999694824219 21.699999630451202 33.59999942779541 109.19999814033508 95.199998378753662 52.499999105930328 139.29999762773514 37.099999368190765 48.299999177455902 39.199999332427979 43.399999260902405 25.199999570846558 43.399999260902405 74.899998724460602 28.699999511241913 51.799999117851257 87.499998509883881 113.39999806880951 20.29999965429306 46.199999213218689 29.399999499320984 20.29999965429306 41.299999296665192 79.799998641014099 174.29999703168869 72.099998772144318 195.99999666213989 291.89999502897263 23.799999594688416 31.499999463558197 13.999999761581419 108.49999815225601 60.899998962879181 13.999999761581419 17.499999701976776 25.199999570846558 85.399998545646667 62.299998939037323 32.899999439716339 138.59999763965607 33.59999942779541 69.999998807907104 42.699999272823334
leaf_count=53 32 100 43 108 24 71 78 135 26 71 84 100 100 52 63 79 37 267 139 107 256 31 48 156 136 75 199 53 69 56 62 36 62 107 41 74 125 162 29 66 42 29 59 114 249 103 280 417 34 45 20 155 87 20 25 36 122 89 47 198 48 100 61
internal_value=-0.00104344 0.239097 -0.573394 0.064518 -0.336191 -0.0919576 0.376499 -0.741289 -0.678806 0.242397 0.307134 0.346918 -0.561492 -0.216906 0.027311 -0.776326 -0.131957 0.393366 0.168905 0.310505 0.463023 0.104043 -0.722867 0.441066 -0.158826 -0.926112 0.235226 -0.210384 -0.497442 -0.0362985 -0.160013 -0.193055 -0.0110544 0.144524 -0.654483 0.448201 0.239349 0.159219 -0.402903 -0.908683 -0.41982 0.242873 -0.0790614 -0.252651 0.329804 -0.216958 0.357538 0.411937 -0.821267 0.510913 -0.377985 -0.626648 -0.741715 -0.2778 -0.551292 -0.181065 0.545016 -0.11358 0.0694918 -0.728587 -0.0666979 -0.978235 0.0408209
internal_weight=4194.4 2954.7 1239.7 1301.3 513.8 692.3 1653.4 725.9 542.5 609 917.7 712.6 244.3 338.1 354.2 352.8 269.5 503.3 205.1 408.1 735.7 200.9 251.3 580.3 248.5 183.4 209.3 153.3 189.7 229.6 243.6 179.9 65.1 124.6 154 270.2 162.4 135.8 90.3 101.5 77.7 117.6 147.7 116.9 233.1 154.7 245.7 401.1 60.9 83.3 89.6 125.3 233.1 57.4 112 97.3 155.4 103.6 87.5 199.5 63.7 122.5 81.9
internal_count=5992 4221 1771 1859 734 989 2362 1037 775 870 1311 1018 349 483 506 504 385 719 293 583 1051 287 359 829 355 262 299 219 271 328 348 257 93 178 220 386 232 194 129 145 111 168 211 167 333 221 351 573 87 119 128 179 333 82 160 139 222 148 125 285 91 175 117
is_linear=0
shrinkage=0.05


Tree=7
num_leaves=64
num_cat=0
split_feature=5 19 5 163 163 162 2 21 163 105 6 6 19 0 124 19 182 19 163 19 163 1 182 19 162 19 124 163 19 120 0 89 19 19 182 10 124 5 37 56 19 1 0 57 163 16 5 19 115 19 19 182 163 30 19 11 19 37 37 74 5 139 9
split_gain=204074 23514.6 21053.1 11463.6 7753.4 3637.66 3339.87 3126.1 3835.32 1900.11 1705.65 1539.67 1341.69 1240.51 911.274 1151.56 763.77 746.091 706.052 520.421 491.561 485.052 473.66 415.153 392.979 378.853 370.675 294.201 288.544 272.933 268.951 249.28 220.512 214.695 218.934 198.599 188.546 174.912 165.866 154.418 149.82 145.423 142.014 138.295 120.865 120.736 119.625 114.868 111.439 101.079 96.9782 95.9438 91.0364 85.7995 85.4916 76.787 74.9736 69.0395 65.8859 63.8946 62.8427 59.7112 57.7388
threshold=12.894999980926515 34.315000534057624 6.555000066757203 34.789999008178718 37.664999008178718 34.954999923706062 11.194999694824221 0.59499999880790722 22.704999923706058 17.695000648498539 19.435000419616703 14.690000057220461 36.07500076293946 13.494999885559084 22.835000038146976 15.284999847412111 57.795225000000009 39.854999542236335 37.895000457763679 38.844999313354499 25.414999961853031 29.69999980926514 -16.127278499999999 7.9949998855590829 23.724999427795414 29.875000000000004 18.675000190734867 39.215000152587898 20.695000648498539 2.185000061988831 10.234999656677248 -0.92000198364257801 38.555000305175788 23.224999427795414 57.795225000000009 0.45499999821186071 2.8349999189376835 5.6150000095367441 0.42499923706054693 -0.19000029563903806 30.384999275207523 29.814999580383304 14.684999942779543 -0.075000762939453111 33.694999694824226 0.074999999254941954 25.98499965667725 33.694999694824226 -13.234999656677244 27.714999198913578 37.565000534057624 61.778613000000007 39.694999694824226 -2.3849998712539668 36.664999008178718 98.509998321533217 41.094999313354499 1.0000000180025095e-35 1.0000000180025095e-35 1.2299997806549074 0.41499999165534979 96.954998016357436 1.1150000095367434
decision_type=2 2 2 2 2 2 2 2 2 2 2 2 2 2 2 2 2 2 2 2 2 2 2 2 2 2 2 2 2 2 2 2 2 2 2 2 2 2 2 2 2 2 2 2 2 2 2 2 2 2 2 2 2 2 2 2 2 2 2 2 2 2 2
left_child=2 3 7 10 14 22 13 29 23 19 26 38 -11 25 15 48 31 27 41 58 49 55 56 43 -24 -5 36 32 -17 60 -16 -10 54 -15 45 -25 -2 57 -6 -20 -22 -8 -28 -9 -19 -35 -21 52 -4 -12 -26 -31 -47 -33 -14 -13 -3 -18 -7 -45 -1 -32 -55
right_child=1 5 4 6 11 9 18 8 16 12 20 21 17 33 30 28 37 44 39 46 40 -23 24 35 50 -27 42 -29 -30 51 61 53 -34 34 -36 -37 -38 -39 -40 -41 -42 -43 -44 59 -46 47 -48 -49 -50 -51 -52 -53 -54 62 -56 -57 -58 -59 -60 -61 -62 -63 -64
leaf_value=-0.83088574802680959 0.28103190713323711 0.48847942098687458 -0.14060278780416449 -0.37655011109351144 -0.59039838812755541 0.099751233652964677 0.21509988463008833 -0.67038699152292669 -0.48758881241234397 0.12846766377998689 0.28274106268782384 -0.36824411172698657 0.25987409392706384 -0.28399376274279919 -0.454630006731509 -0.025530736233927789 -0.84724296492527873 0.52559191254252535 0.054471893527871663 0.20606257369511313 0.17412480412423278 -0.087640399381780615 0.48057919980601832 -0.45465237581894774 0.35194384125028244 -0.1760575551826197 -0.12343936110910343 0.25115493886090529 0.14446328151629426 -0.82574315569076928 -0.14570498948786922 -0.77964620990353595 0.38802241696398071 -0.00036566116473327128 -0.27041278618425618 -0.30459608337021016 0.12883340330695067 -0.6961747534580538 -0.73913934808355319 -0.043685982645796977 0.27225950600255516 0.10148648314295157 0.053294169031870113 -0.52624013113923507 0.42396420143045915 -0.097104401484158276 0.35528649588397798 -0.03519131068173742 -0.22739873643259895 0.36003257008823686 0.40698109717517927 -0.9434379764391605 -0.17897318127888143 -0.64831653506511955 0.33070542276624959 -0.46178310022665947 0.56002926395352315 -0.9387918529985948 0.010646768219490774 -0.41836393221740437 -0.7187155891381376 -0.26721118075997669 -0.70905274308418687
leaf_weight=30.799999475479126 25.199999570846558 86.099998533725739 78.399998664855957 72.099998772144318 114.79999804496765 52.499999105930328 55.299999058246613 15.399999737739561 13.999999761581419 74.199998736381531 55.999999046325684 58.799998998641968 55.299999058246613 16.799999713897705 18.899999678134918 76.299998700618744 53.199999094009399 48.299999177455902 66.499998867511749 104.99999821186066 73.49999874830246 13.999999761581419 183.39999687671661 50.399999141693115 107.79999816417694 34.999999403953552 15.399999737739561 102.89999824762344 37.099999368190765 20.999999642372131 13.999999761581419 32.899999439716339 176.3999969959259 34.299999415874481 17.499999701976776 39.199999332427979 105.69999819993973 14.69999974966049 22.399999618530273 100.79999828338623 82.599998593330383 57.399999022483826 43.399999260902405 93.099998414516449 74.199998736381531 110.59999811649323 15.399999737739561 49.699999153614044 69.999998807907104 172.89999705553055 310.79999470710754 98.699998319149017 48.999999165534973 53.89999908208847 185.49999684095383 34.999999403953552 63.699998915195465 33.59999942779541 34.299999415874481 16.099999725818634 20.999999642372131 36.399999380111694 142.79999756813049
leaf_count=44 36 123 112 103 164 75 79 22 20 106 80 84 79 24 27 109 76 69 95 150 105 20 262 72 154 50 22 147 53 30 20 47 252 49 25 56 151 21 32 144 118 82 62 133 106 158 22 71 100 247 444 141 70 77 265 50 91 48 49 23 30 52 204
internal_value=0.00281608 0.235544 -0.516366 0.0704487 -0.29034 0.357676 -0.0708968 -0.694545 -0.637281 0.291228 0.234003 -0.503578 0.329777 -0.166456 -0.132553 -0.0898762 -0.740435 0.353022 0.0604971 0.157867 0.294467 -0.362172 0.439345 -0.471089 0.419547 -0.31103 0.11129 0.326875 0.0300846 -0.881296 -0.293779 -0.69242 0.345551 -0.110739 -0.099591 -0.389003 0.158134 -0.85567 -0.614683 -0.00466925 0.226053 0.157235 0.00700682 -0.530117 0.464035 -0.0873193 0.225149 -0.101569 -0.181544 0.341123 0.392808 -0.92279 -0.12224 -0.70491 0.314439 -0.403147 0.518905 -0.882681 0.0645406 -0.510335 -0.785411 -0.233459 -0.69241
internal_weight=4222.4 2915.5 1306.9 1239.7 576.1 1675.8 665 730.8 559.3 924 574.7 245 716.8 385 331.1 261.8 345.1 642.6 280 207.2 385 107.8 751.8 214.2 602 107.1 189.7 520.1 113.4 171.5 69.3 243.6 417.2 277.9 261.1 89.6 130.9 101.5 137.2 167.3 156.1 112.7 58.8 124.6 122.5 243.6 120.4 209.3 148.4 228.9 418.6 119.7 159.6 229.6 240.8 93.8 149.8 86.8 86.8 109.2 51.8 50.4 196.7
internal_count=6032 4165 1867 1771 823 2394 950 1044 799 1320 821 350 1024 550 473 374 493 918 400 296 550 154 1074 306 860 153 271 743 162 245 99 348 596 397 373 128 187 145 196 239 223 161 84 178 175 348 172 299 212 327 598 171 228 328 344 134 214 124 124 156 74 72 281
is_linear=0
shrinkage=0.05


Tree=8
num_leaves=64
num_cat=0
split_feature=5 19 5 163 163 162 2 21 163 182 6 19 163 2 19 182 163 182 163 182 6 19 124 162 121 11 19 5 104 162 120 89 5 124 6 162 0 19 19 19 16 19 56 0 162 0 21 183 37 124 161 6 163 91 89 37 30 37 19 37 122 74 122
split_gain=188372 21059.7 18510.5 10616.2 7117.02 3287.19 3106.23 2983.05 3352.32 1729.96 1610.56 1582.79 1352.63 1207.83 952.316 772.231 650.45 649.255 450.699 433.43 432.586 417.216 367.24 355.791 353.982 348.311 316.737 306.673 264.754 244.937 238.451 178.327 177.269 171.416 169.67 162.474 156.89 153.502 149.772 141.396 136.828 143.115 133.599 133.106 128.07 117.916 116.933 114.045 98.3207 97.6829 93.9403 92.8326 86.1204 83.6042 82.9615 74.8892 73.9275 71.3166 68.9578 66.8751 63.7065 56.0614 53.4401
threshold=12.734999656677248 34.315000534057624 6.555000066757203 34.789999008178718 34.104999542236335 34.954999923706062 11.194999694824221 0.59499999880790722 22.704999923706058 50.909911500000007 19.435000419616703 21.569999694824222 38.815000534057624 -0.74500000476837147 20.695000648498539 57.795225000000009 37.895000457763679 -5.9363879999999991 31.430000305175785 -16.127278499999999 19.314999580383304 8.3550000190734881 4.4649999141693124 23.724999427795414 16.275000572204593 87.58499908447267 37.895000457763679 14.734999656677248 26.704999923706058 36.295000076293952 2.185000061988831 -0.93499755859374989 5.6150000095367441 2.8349999189376835 14.425000190734865 37.414999008178718 -10.15499973297119 29.615000724792484 29.615000724792484 32.764999389648445 0.074999999254941954 33.635000228881843 -0.19000029563903806 14.684999942779543 38.114999771118171 13.305000305175783 0.6850000023841859 106.56525350000001 -0.25999832153320307 19.115000724792484 37.375000000000007 11.805000305175783 39.854999542236335 0.54499995708465587 -0.23500061035156247 1.0000000180025095e-35 -2.3849998712539668 0.52000045776367199 41.094999313354499 0.42499923706054693 23.605000495910648 1.2299997806549074 14.655000209808351
decision_type=2 2 2 2 2 2 2 2 2 2 2 2 2 2 2 2 2 2 2 2 2 2 2 2 2 2 2 2 2 2 2 2 2 2 2 2 2 2 2 2 2 2 2 2 2 2 2 2 2 2 2 2 2 2 2 2 2 2 2 2 2 2 2
left_child=2 3 7 10 14 19 13 30 21 12 24 31 17 37 22 25 39 44 38 58 45 46 51 -21 33 -10 52 48 35 -11 -1 -6 59 -2 53 -19 -23 -5 -12 -8 -29 54 -18 -26 -7 -13 -9 -33 -15 -40 -25 -4 -14 62 -42 -32 -27 -28 -3 -17 -41 -48 -24
right_child=1 5 4 6 11 9 16 8 15 29 18 20 26 27 -16 32 42 28 -20 23 -22 36 34 50 43 56 57 40 -30 -31 55 47 -34 -35 -36 -37 -38 -39 49 60 41 -43 -44 -45 -46 -47 61 -49 -50 -51 -52 -53 -54 -55 -56 -57 -58 -59 -60 -61 -62 -63 -64
leaf_value=-0.75551242281656972 0.26709141363004413 0.46368420104085317 -0.086401751341374816 -0.36030469444237828 -0.43054173930273293 0.47670718394988509 0.0833255945012987 -0.62494633807931077 -0.43816431655482424 0.030480069702005064 0.25077869662153879 -0.39679443495648664 0.17971135779464109 -0.12635134970272066 0.13666923848191267 -0.8047808163170741 0.047476352504559706 0.3134047473526575 0.15461320941697773 0.45578604105842146 -0.081061379603211553 -0.39674239577724335 -0.16221591655897033 0.35428031729380222 -0.11907374635890121 -0.73976467634179399 0.2854946460027194 0.00052136075149043207 0.35337263418549425 0.16696597295898286 -0.83331717176496944 -0.65699370095264975 -0.65321153176677649 0.12241973824525919 -0.048224713375884881 0.22176544468550438 -0.22695523854195168 -0.17878700884388191 0.34488431846984352 0.27480425293950628 -0.18683423310416586 -0.038263526026957755 -0.045894015229093754 0.048546317959993111 0.38986380739855925 -0.27116687882330937 -0.49713482938071857 -0.55991720837898196 -0.26151389818182336 0.27424619021532215 0.40562373291682463 0.032900349368610353 0.089110792090099214 -0.27454405297699547 -0.10634953105957774 -0.91260163541691086 -0.65821623772134386 0.20176101389861448 0.53138995224050034 -0.89200593817147755 0.16546330875263726 -0.39742973364723683 -0.24150591517487319
leaf_weight=56.699999034404755 25.199999570846558 85.399998545646667 46.199999213218689 69.299998819828033 17.499999701976776 74.899998724460602 48.999999165534973 16.799999713897705 17.499999701976776 54.599999070167542 98.699998319149017 86.79999852180481 57.399999022483826 20.29999965429306 35.699999392032623 53.89999908208847 65.099998891353607 101.4999982714653 60.899998962879181 186.1999968290329 14.69999974966049 53.89999908208847 95.899998366832733 258.99999558925629 16.099999725818634 32.199999451637268 77.699998676776886 35.699999392032623 184.79999685287476 82.599998593330383 51.099999129772186 52.499999105930328 14.69999974966049 109.19999814033508 21.699999630451202 92.399998426437378 18.199999690055847 13.999999761581419 166.59999716281891 18.199999690055847 46.199999213218689 57.399999022483826 93.099998414516449 44.799999237060547 97.999998331069946 23.799999594688416 113.39999806880951 71.399998784065247 39.89999932050705 69.299998819828033 135.79999768733978 25.199999570846558 48.299999177455902 28.699999511241913 104.29999822378159 71.399998784065247 202.9999965429306 37.799999356269836 67.19999885559082 37.099999368190765 49.699999153614044 16.099999725818634 27.299999535083771
leaf_count=81 36 122 66 99 25 107 70 24 25 78 141 124 82 29 51 77 93 145 87 266 21 77 137 370 23 46 111 51 264 118 73 75 21 156 31 132 26 20 238 26 66 82 133 64 140 34 162 102 57 99 194 36 69 41 149 102 290 54 96 53 71 23 39
internal_value=-0.00258062 0.222039 -0.501763 0.0676299 -0.280327 0.339754 -0.0698388 -0.662099 -0.606739 0.276265 0.221712 -0.465286 0.305313 -0.161129 -0.104592 -0.700836 0.0586183 0.347203 0.279724 0.418508 -0.335891 -0.452325 -0.139748 0.398812 0.104233 -0.653368 0.200854 -0.114882 0.310549 0.11265 -0.840289 -0.579949 -0.814317 0.149546 -0.179006 0.269735 -0.353884 -0.329798 0.302495 0.148057 -0.0899085 -0.105437 -0.0074717 0.00423297 0.427484 -0.369761 -0.500839 -0.601051 -0.215936 0.324133 0.371941 -0.0442951 0.138311 -0.197689 -0.131056 -0.879529 -0.669381 0.258091 0.4935 -0.840342 0.194771 -0.484739 -0.179786
internal_weight=4200 2896.6 1303.4 1253 547.4 1643.6 662.2 756 576.8 910 590.8 266.7 772.8 387.1 280.7 358.4 275.1 551.6 395.5 733.6 125.3 218.4 245 581 195.3 252.7 221.2 303.8 378.7 137.2 179.2 141.4 105.7 134.4 173.6 193.9 72.1 83.3 334.6 116.9 243.6 207.9 158.2 60.9 172.9 110.6 146.3 123.9 60.2 235.9 394.8 71.4 105.7 151.9 150.5 122.5 235.2 115.5 152.6 91 67.9 129.5 123.2
internal_count=6000 4138 1862 1790 782 2348 946 1080 824 1300 844 381 1104 553 401 512 393 788 565 1048 179 312 350 830 279 361 316 434 541 196 256 202 151 192 248 277 103 119 478 167 348 297 226 87 247 158 209 177 86 337 564 102 151 217 215 175 336 165 218 130 97 185 176
is_linear=0
shrinkage=0.05


Tree=9
num_leaves=64
num_cat=0
split_feature=5 19 5 163 163 110 19 163 123 19 19 6 110 19 0 9 182 6 19 182 19 6 163 63 121 11 112 124 5 163 19 6 89 161 19 163 1 19 106 19 0 19 89 5 19 114 182 182 161 121 106 105 29 106 37 12 19 6 19 183 19 165 106
split_gain=169212 19330.9 14966.9 9632.64 6365.83 2855.19 2404.6 3046.64 2265.68 1899.67 1587.4 1254.86 1203.37 827.155 805.561 765.734 666.342 592.413 523.358 428.446 329.223 327.959 323.649 318.265 313.546 312.894 310.7 294.581 242.948 235.276 188.787 182.858 180.885 163.884 161.605 161.448 145.979 143.577 141.266 138.532 110.195 101.607 93.0852 87.1666 84.893 83.1696 81.6543 89.9984 79.242 77.0198 76.7835 74.8405 74.0022 69.6455 67.9095 66.4811 65.3646 61.0482 60.7803 60.2827 58.5572 57.4512 56.5774
threshold=12.434999942779543 34.315000534057624 6.555000066757203 34.789999008178718 34.104999542236335 11.590000152587892 3.304999947547913 22.704999923706058 24.304999351501468 40.045000076293952 29.724999427795414 14.690000057220461 10.260000228881838 36.07500076293946 11.275000095367433 15.984999656677248 57.795225000000009 14.425000190734865 20.695000648498539 54.640390500000009 38.635000228881843 8.1649999618530291 25.204999923706058 -0.020000457763671872 5.5950000286102304 87.58499908447267 12.305000305175783 4.4649999141693124 14.734999656677248 39.215000152587898 38.555000305175788 7.055000066757203 -0.92999649047851551 33.694999694824226 29.875000000000004 33.694999694824226 5.8949999809265146 6.5000000000000009 20.675000190734867 26.714999198913578 10.234999656677248 20.064999580383304 -0.86499786376953114 0.41499999165534979 30.175000190734867 13.219999790191652 54.640390500000009 -28.551129999999997 34.034999847412116 9.8949999809265154 0.66999998688697826 16.809999465942386 -2.1100001335144039 -6.1150000095367423 -0.14500045776367185 2.3449999094009404 37.93499946594239 10.404999732971193 36.664999008178718 108.25753650000001 41.094999313354499 2.0799999237060551 24.025000572204593
decision_type=2 2 2 2 2 2 2 2 2 2 2 2 2 2 2 2 2 2 2 2 2 2 2 2 2 2 2 2 2 2 2 2 2 2 2 2 2 2 2 2 2 2 2 2 2 2 2 2 2 2 2 2 2 2 2 2 2 2 2 2 2 2 2
left_child=2 3 6 10 17 14 24 21 22 12 18 36 20 -14 34 23 25 27 40 39 -10 37 32 45 43 -9 55 57 54 30 58 -18 60 -34 -5 -11 -6 -8 -12 51 -2 49 -38 -1 -25 -7 47 -30 -17 -29 -19 -20 -27 -39 -16 -13 -24 -4 -15 -44 -3 -54 -41
right_child=1 8 4 5 11 15 7 16 9 35 38 26 13 29 28 48 31 50 19 -21 -22 -23 56 44 -26 52 -28 41 46 -31 -32 -33 33 -35 -36 -37 42 53 -40 62 -42 -43 59 -45 -46 -47 -48 -49 -50 -51 -52 -53 61 -55 -56 -57 -58 -59 -60 -61 -62 -63 -64
leaf_value=-0.75129923423160572 0.056203320059054346 0.43833648677223502 -0.10499105376841433 -0.33926749144926416 -0.67420859320398108 -0.0050279661806027394 -0.50568915856144381 -0.41416774189190203 0.053021567010929298 0.46668925760150759 0.32738016038928985 -0.32846836607214791 0.11712615531978139 0.23670799379890731 -0.15392732603437942 0.26157988303665591 -0.81666946214659952 0.12041648776298841 0.11906760097183414 0.26619547120460552 0.18568430772909025 -0.21387013097099117 0.32134144366512896 -0.10760000537655826 -0.83682588747085951 -0.70378271334408993 -0.10609395386651506 -0.17258973420683407 -0.1898763439180115 0.22634504129549748 0.35144703398419264 -0.677379437129488 0.43102484857674495 0.36326884145668392 -0.15432951585445262 0.36865861888867668 -0.42923365396462626 -0.34558390948555812 0.24859873735221349 0.20353466235798875 -0.12355035416184992 -0.066806538724726819 -0.5885831165465425 -0.633955908399921 -0.028243768330038152 0.071504761077817877 -0.19391131248777219 -0.072697773201390675 0.1369980098424842 -0.25613719326612988 -0.014572581987664632 0.042840340148445233 -0.58726642762329151 -0.4325679318370651 -0.27069938722499848 -0.42225807274367377 0.38281712612398938 -0.011603808208140871 0.29710510226043579 -0.51451927340419179 0.51285601027264849 -0.64391192800508112 0.12639483007255967
leaf_weight=36.399999380111694 14.69999974966049 60.19999897480011 34.999999403953552 75.599998712539673 21.699999630451202 64.399998903274536 57.399999022483826 16.799999713897705 82.599998593330383 92.399998426437378 165.19999718666077 55.299999058246613 74.199998736381531 54.599999070167542 20.29999965429306 16.099999725818634 72.099998772144318 23.799999594688416 96.599998354911804 68.599998831748962 107.79999816417694 17.499999701976776 149.09999746084213 70.699998795986176 121.09999793767929 35.699999392032623 13.999999761581419 93.099998414516449 18.899999678134918 97.999998331069946 177.09999698400497 34.999999403953552 177.09999698400497 179.89999693632126 13.999999761581419 76.999998688697815 18.199999690055847 31.499999463558197 86.79999852180481 55.999999046325684 20.29999965429306 16.799999713897705 54.599999070167542 27.999999523162842 64.399998903274536 79.099998652935028 20.999999642372131 123.1999979019165 61.599998950958252 39.199999332427979 18.899999678134918 48.299999177455902 65.799998879432678 85.399998545646667 32.199999451637268 28.699999511241913 60.899998962879181 34.999999403953552 175.69999700784683 55.299999058246613 46.89999920129776 139.99999761581421 41.299999296665192
leaf_count=52 21 86 50 108 31 92 82 24 118 132 236 79 106 78 29 23 103 34 138 98 154 25 213 101 173 51 20 133 27 140 253 50 253 257 20 110 26 45 124 80 29 24 78 40 92 113 30 176 88 56 27 69 94 122 46 41 87 50 251 79 67 200 59
internal_value=-0.00528535 0.206146 -0.490313 0.0593335 -0.281636 -0.0721257 -0.633496 -0.581586 0.32073 0.270539 0.204801 -0.463278 0.237189 0.273015 -0.184363 0.0240149 -0.666292 -0.109707 0.135247 0.155889 0.128132 -0.420211 0.390673 -0.0146949 -0.789421 -0.622814 -0.324168 -0.142911 -0.131996 0.295902 0.312634 -0.77115 0.413978 0.396881 -0.310371 0.42213 -0.554285 -0.440928 0.300244 0.124646 -0.0480538 -0.182636 -0.53397 -0.70028 -0.0697722 0.0371584 -0.101883 -0.0882831 0.162812 -0.197345 0.0606672 0.0936585 -0.637329 -0.409129 -0.225548 -0.360513 0.339169 -0.0582974 0.282786 -0.551315 0.470969 -0.625801 0.170792
internal_weight=4125.1 2872.8 1252.3 1259.3 509.6 661.5 742.7 557.2 1613.5 939.4 597.8 247.8 770 579.6 305.2 356.3 365.4 261.8 345.8 310.8 190.4 191.8 674.1 278.6 185.5 258.3 98 219.1 215.6 505.4 407.4 107.1 464.1 357 89.6 169.4 149.8 174.3 252 242.2 35 149.1 128.1 64.4 135.1 143.5 163.1 142.1 77.7 132.3 42.7 144.9 241.5 116.9 52.5 84 210 70 230.3 109.9 107.1 205.8 97.3
internal_count=5893 4104 1789 1799 728 945 1061 796 2305 1342 854 354 1100 828 436 509 522 374 494 444 272 274 963 398 265 369 140 313 308 722 582 153 663 510 128 242 214 249 360 346 50 213 183 92 193 205 233 203 111 189 61 207 345 167 75 120 300 100 329 157 153 294 139
is_linear=0
shrinkage=0.05


Tree=10
num_leaves=64
num_cat=0
split_feature=5 19 5 163 163 2 162 21 163 6 105 19 2 6 182 163 19 163 163 123 19 182 162 32 19 5 124 6 163 120 6 58 19 19 19 106 19 117 135 6 19 37 121 19 182 57 163 161 163 37 124 137 5 37 19 19 6 112 5 6 161 6 19
split_gain=152432 18299 13779.2 9042.07 5565.59 2750.9 2698.97 2324.74 2697.7 1488.92 1388.67 1042.02 1002.93 803.378 640.288 573.377 557.658 514.222 426.036 401.362 371.011 332.198 292.097 287.884 276.27 250.047 239.081 279.603 211.531 210.822 188.854 159.915 159.399 158.617 156.118 152.709 148.074 145.588 139.316 135.931 134.633 132.938 123.79 118.886 117.855 98.0917 91.9072 83.5607 75.6191 73.7656 73.6592 73.4385 68.4442 65.8485 62.8172 58.6935 56.1706 55.3116 55.1538 53.8554 53.7385 52.5846 51.6904
threshold=12.434999942779543 34.315000534057624 6.555000066757203 34.789999008178718 37.604999542236335 10.275000095367433 34.954999923706062 0.59499999880790722 22.704999923706058 19.054999351501468 17.304999351501468 36.07500076293946 -0.57499998807907093 14.690000057220461 57.795225000000009 37.895000457763679 39.854999542236335 7.1749999523162851 31.430000305175785 14.704999923706056 39.194999694824226 -16.127278499999999 23.724999427795414 -1.0000000180025095e-35 7.9949998855590829 13.765000343322756 22.835000038146976 13.034999847412111 39.23500061035157 2.185000061988831 11.805000305175783 0.069999933242797865 30.554999351501468 38.555000305175788 29.875000000000004 21.525000572204593 29.615000724792484 10.534999847412111 0.89499998092651378 5.2950000762939462 32.764999389648445 0.42499923706054693 0.9350000023841859 24.164999961853031 57.795225000000009 -0.075000762939453111 33.694999694824226 37.375000000000007 39.395000457763679 1.0000000180025095e-35 19.115000724792484 93.625000000000014 25.585000038146976 1.0000000180025095e-35 40.82500076293946 36.664999008178718 8.9149999618530291 -14.184999942779539 8.1849999427795428 22.564999580383304 37.414999008178718 4.4449999332427987 27.545000076293949
decision_type=2 2 2 2 2 2 2 2 2 2 2 2 2 2 2 2 2 2 2 2 2 2 2 2 2 2 2 2 2 2 2 2 2 2 2 2 2 2 2 2 2 2 2 2 2 2 2 2 2 2 2 2 2 2 2 2 2 2 2 2 2 2 2
left_child=2 3 7 9 17 12 21 29 24 19 20 -12 34 41 23 40 28 30 36 42 49 54 -23 -10 45 -14 27 58 33 -1 -4 44 62 55 -5 -15 57 -28 -26 -16 -7 -6 -2 -21 48 -9 -18 -24 -27 -8 -38 -25 -22 -31 -3 60 61 -11 -19 -50 -13 -53 -17
right_child=1 6 4 5 13 15 10 8 14 18 11 16 25 35 39 32 46 26 -20 43 52 22 47 51 38 31 37 -29 -30 53 -32 -33 -34 -35 -36 -37 50 -39 -40 -41 -42 -43 -44 -45 -46 -47 -48 -49 59 -51 -52 56 -54 -55 -56 -57 -58 -59 -60 -61 -62 -63 -64
leaf_value=-0.67771083828750966 0.23510127595665242 0.40964046514151842 -0.081583361646803729 -0.32270981867293086 -0.50616078344687032 0.074147951430741252 0.096652806894141047 -0.57900435888774671 -0.39536770948968125 0.25756128394886807 0.11004993373879253 0.29273455225212419 -0.23514204102144995 -0.36838710154062637 -0.79088925448297187 -0.14423006238080313 0.45512404235181558 -0.20883015621596601 0.13627800661807329 -0.11738023271475401 0.18570528542282444 0.4121438091656997 0.31912885357050014 -0.5738903386347125 -0.37664256309577016 -0.079741449983921811 -0.36983139476646193 -0.024477280385062 0.20810113520453888 -0.75180152084997987 0.06582672199449778 -0.01208815120426132 0.029369197978537723 0.33189238371123619 -0.14551186018715834 -0.207469122026122 0.31017211585409682 -0.19424432811415188 -0.23374553949541071 -0.67641613021220559 0.17953513921072004 -0.63628141100344937 0.10647412593179789 0.028764416894987939 -0.23588283191208892 -0.4380519942457527 0.36507152668189202 0.36662458917887292 -0.1694633401815287 0.00615814366157829 0.24777219885923063 -0.60997224230567648 0.30029706258784283 -0.82599577875269026 0.47412135773298375 0.28256825558427306 -0.57084408627161298 0.18682051288510509 -0.13553763314885153 -0.058610163669248372 0.18915145385137694 -0.68058106820921882 -0.04423192888986411
leaf_weight=55.299999058246613 22.399999618530273 73.49999874830246 51.099999129772186 80.49999862909317 111.99999809265137 56.699999034404755 74.899998724460602 13.999999761581419 17.499999701976776 56.699999034404755 78.399998664855957 18.899999678134918 34.999999403953552 59.499998986721039 55.999999046325684 16.799999713897705 47.599999189376831 56.699999034404755 70.699998795986176 23.099999606609344 84.699998557567596 182.69999688863754 261.0999955534935 104.99999821186066 60.19999897480011 137.899997651577 18.199999690055847 43.399999260902405 83.999998569488525 51.099999129772186 37.799999356269836 49.699999153614044 102.89999824762344 171.49999707937241 14.69999974966049 19.599999666213989 172.89999705553055 33.59999942779541 23.799999594688416 48.299999177455902 65.099998891353607 23.799999594688416 113.39999806880951 34.999999403953552 17.499999701976776 104.29999822378159 69.999998807907104 143.49999755620956 50.399999141693115 32.199999451637268 65.099998891353607 50.399999141693115 15.399999737739561 72.099998772144318 77.699998676776886 184.09999686479568 31.499999463558197 53.89999908208847 46.89999920129776 13.999999761581419 37.099999368190765 55.299999058246613 55.999999046325684
leaf_count=79 32 105 73 115 160 81 107 20 25 81 112 27 50 85 80 24 68 81 101 33 121 261 373 150 86 197 26 62 120 73 54 71 147 245 21 28 247 48 34 69 93 34 162 50 25 149 100 205 72 46 93 72 22 103 111 263 45 77 67 20 53 79 80
internal_value=-0.00165005 0.194414 -0.464964 0.0551609 -0.262668 -0.0680145 0.305864 -0.601476 -0.551881 0.19521 0.247674 0.281692 -0.1537 -0.455183 -0.633237 0.0471058 0.303637 -0.118867 0.248192 0.080638 0.134128 0.376685 0.359669 -0.591212 -0.405496 -0.109414 -0.163568 -0.131018 0.28041 -0.758817 -0.0189051 -0.0930856 -0.0106885 0.295167 -0.295348 -0.328514 0.270889 -0.255937 -0.336155 -0.737878 0.130476 -0.528965 0.127691 -0.0293413 -0.1114 -0.454733 0.401521 0.335974 -0.100632 0.0694453 0.293104 -0.605363 0.203335 -0.795222 0.442776 0.268934 -0.629448 0.223086 -0.17565 -0.145365 0.224111 -0.646913 -0.0673084
internal_weight=4195.1 2947.7 1247.4 1310.4 502.6 697.2 1637.3 744.8 566.3 613.2 898.8 691.6 399.7 214.9 364 297.5 613.2 287.7 419.3 193.9 207.2 738.5 587.3 259.7 202.3 304.5 198.8 147 495.6 178.5 88.9 269.5 175.7 411.6 95.2 79.1 348.6 51.8 84 104.3 121.8 135.8 135.8 58.1 219.8 118.3 117.6 404.6 202.3 107.1 238 242.2 100.1 123.2 151.2 240.1 137.2 110.6 103.6 64.4 56 105.7 72.8
internal_count=5993 4211 1782 1872 718 996 2339 1064 809 876 1284 988 571 307 520 425 876 411 599 277 296 1055 839 371 289 435 284 210 708 255 127 385 251 588 136 113 498 74 120 149 174 194 194 83 314 169 168 578 289 153 340 346 143 176 216 343 196 158 148 92 80 151 104
is_linear=0
shrinkage=0.05


Tree=11
num_leaves=64
num_cat=0
split_feature=21 19 5 163 124 162 21 163 2 19 105 19 19 163 0 182 9 19 124 106 19 182 19 162 11 19 19 182 6 19 19 120 183 19 71 6 124 6 182 19 163 16 37 19 79 108 106 161 45 37 19 5 161 105 57 37 163 111 117 19 161 19 5
split_gain=135328 14952.2 14837.9 7646.57 6039.72 2355.4 2104.4 2294.85 2076.51 1421.57 1211.14 1054.43 952.461 891.339 760.711 548.258 471.077 462.872 400.668 385.414 344.141 315.774 275.318 248.402 230.454 228.322 220.989 198.746 182.441 173.29 172.666 169.898 159.737 157.107 135.865 133.411 119.13 116.503 109.699 104.512 104.014 100.92 97.0261 93.4377 91.6674 80.0371 74.6553 72.5394 69.4746 66.1207 65.1759 64.4981 64.0071 60.4877 59.6192 56.2371 56.1382 53.2474 53.0026 51.966 48.1064 45.4733 44.5543
threshold=5.8250000476837167 34.315000534057624 6.555000066757203 34.789999008178718 22.835000038146976 34.954999923706062 0.59499999880790722 22.704999923706058 10.960000038146974 19.329999923706058 17.695000648498539 29.724999427795414 15.284999847412111 38.635000228881843 12.055000305175783 54.640390500000009 16.07499980926514 39.174999237060554 2.8349999189376835 20.474999427795414 39.174999237060554 -16.127278499999999 6.5000000000000009 23.724999427795414 87.58499908447267 20.695000648498539 35.854999542236335 57.795225000000009 9.1500000953674334 20.695000648498539 23.224999427795414 2.185000061988831 24.217304000000006 29.875000000000004 -1.0000000180025095e-35 8.1649999618530291 19.115000724792484 16.224999427795414 50.909911500000007 26.714999198913578 33.694999694824226 0.085000000894069686 1.0000000180025095e-35 33.694999694824226 1.0000000180025095e-35 -7.0550000667572013 -6.1150000095367423 37.565000534057624 -1.0000000180025095e-35 -0.11999893188476561 24.899999618530277 25.884999275207523 34.034999847412116 16.809999465942386 -1.0000000180025095e-35 1.0000000180025095e-35 39.694999694824226 10.034999847412111 -1.1850000023841856 41.094999313354499 17.305000305175785 31.430000305175785 0.41499999165534979
decision_type=2 2 2 2 2 2 2 2 2 2 2 2 2 2 2 2 2 2 2 2 2 2 2 2 2 2 2 2 2 2 2 2 2 2 2 2 2 2 2 2 2 2 2 2 2 2 2 2 2 2 2 2 2 2 2 2 2 2 2 2 2 2 2
left_child=2 3 6 11 12 21 31 22 14 38 20 18 45 17 33 24 32 34 -2 37 55 59 54 -23 -9 -14 -15 30 42 -20 -16 62 -10 -5 -12 46 -13 -11 -6 53 -19 -32 -17 56 -21 -4 -24 -25 -36 -33 -27 -22 -18 -31 -8 -7 -43 -41 -26 -3 -60 -34 -1
right_child=1 5 4 8 9 10 7 15 16 19 13 36 25 26 27 28 52 40 29 44 51 23 35 47 58 50 -28 -29 -30 39 41 49 61 -35 48 -37 -38 -39 -40 57 -42 43 -44 -45 -46 -47 -48 -49 -50 -51 -52 -53 -54 -55 -56 -57 -58 -59 60 -61 -62 -63 -64
leaf_value=-0.67988657216983972 0.23911204654916396 0.39716109477150513 -0.11161255166288636 -0.30357053265371703 -0.46057597007435602 0.088690022039352237 -0.55070741637617215 -0.37547625405603885 0.046173709136650101 -0.40630227270992036 0.15716871024469742 0.29566621991553305 -0.015859834048825652 0.091254287017676045 -0.23377028386542259 -0.66881367855207907 0.23905983650786258 0.40939195148944379 -0.046252202825596882 -0.22240832205592265 0.1763349778129441 0.39107345814568606 -0.30328713797308954 0.30496490366213347 -0.52217827764963931 0.082192079215995889 0.21168475355147054 -0.2348949298980085 -0.55766737621601548 0.11024777336064627 0.0047786863816169246 -0.67150341435230365 -0.070573393792099509 -0.15135749000223023 0.18050280684499492 -0.20594493574418477 0.22460833097024135 -0.30586892879560124 -0.55330825558210095 0.1898984678852865 0.33607406515455196 -0.082673668652025911 -0.76709065688478628 -0.025271341860450831 -0.074976601344800026 -0.18488806876760883 -0.38940063090240329 0.34984788277494883 0.28192320464319964 -0.77046961481601628 0.21141591346972183 0.28484137202742049 0.12967034299291585 0.038710478216393548 -0.44358907378344625 0.0068281757074761589 -0.14572250478135695 0.11219954582902077 -0.59682302829487921 0.45695801112410017 -0.52755652982660473 0.0074661333304384282 -0.58162083542094245
leaf_weight=31.499999463558197 68.599998831748962 79.099998652935028 67.899998843669891 63.699998915195465 58.099999010562897 65.799998879432678 17.499999701976776 18.199999690055847 114.79999804496765 46.199999213218689 27.299999535083771 163.09999722242355 88.199998497962952 49.699999153614044 17.499999701976776 84.699998557567596 17.499999701976776 72.099998772144318 18.199999690055847 42.699999272823334 91.699998438358307 180.59999692440033 34.999999403953552 261.79999554157257 58.799998998641968 32.199999451637268 163.09999722242355 23.099999606609344 28.699999511241913 86.79999852180481 37.099999368190765 20.29999965429306 55.999999046325684 23.099999606609344 18.199999690055847 14.69999974966049 92.399998426437378 76.999998688697815 70.699998795986176 50.399999141693115 146.99999749660492 107.79999816417694 35.699999392032623 50.399999141693115 13.999999761581419 82.599998593330383 89.599998474121094 137.19999766349792 233.79999601840973 100.09999829530716 13.999999761581419 16.099999725818634 56.699999034404755 44.799999237060547 50.399999141693115 30.799999475479126 52.499999105930328 39.199999332427979 98.699998319149017 67.19999885559082 33.59999942779541 27.999999523162842 18.199999690055847
leaf_count=45 98 113 97 91 83 94 25 26 164 66 39 233 126 71 25 121 25 103 26 61 131 258 50 374 84 46 233 33 41 124 53 29 80 33 26 21 132 110 101 72 210 154 51 72 20 118 128 196 334 143 20 23 81 64 72 44 75 56 141 96 48 40 26
internal_value=-0.000747552 0.193382 -0.417426 0.0601591 -0.231453 0.291722 -0.567478 -0.521103 -0.0569521 -0.384671 0.238393 0.194873 -0.0654359 0.269222 -0.133289 -0.597681 0.0479617 0.305798 0.132578 -0.293883 0.131125 0.358989 -0.388644 0.34242 -0.545485 0.0313063 0.183558 -0.0942306 -0.67095 0.102051 -0.0819827 -0.721678 0.00783543 -0.263062 0.26312 -0.348404 0.269969 -0.343531 -0.511478 0.114253 0.360201 -0.0712633 -0.697954 -0.0846527 -0.186005 -0.151829 -0.365211 0.320398 0.274598 -0.753783 0.121351 0.19254 0.15547 0.0858947 -0.471197 0.0625891 -0.103323 0.155905 -0.561677 0.424628 -0.579232 -0.0445602 -0.643902
internal_weight=4182.5 2853.2 1329.3 1211.7 593.6 1641.5 735.7 565.6 648.2 308.7 915.6 563.5 284.9 711.2 375.2 358.4 273 498.4 308 179.9 204.4 725.9 207.2 579.6 209.3 134.4 212.8 288.4 149.1 239.4 265.3 170.1 198.8 86.8 279.3 139.3 255.5 123.2 128.8 221.2 219.1 247.8 120.4 210.7 56.7 150.5 124.6 399 252 120.4 46.2 107.8 74.2 131.6 67.9 96.6 160.3 89.6 191.1 146.3 132.3 84 49.7
internal_count=5975 4076 1899 1731 848 2345 1051 808 926 441 1308 805 407 1016 536 512 390 712 440 257 292 1037 296 828 299 192 304 412 213 342 379 243 284 124 399 199 365 176 184 316 313 354 172 301 81 215 178 570 360 172 66 154 106 188 97 138 229 128 273 209 189 120 71
is_linear=0
shrinkage=0.05


Tree=12
num_leaves=64
num_cat=0
split_feature=21 19 21 163 123 162 2 21 163 19 182 19 163 19 20 182 163 182 163 163 182 162 19 87 19 182 120 19 19 37 19 19 109 19 19 19 37 162 123 1 162 109 58 16 19 163 11 37 19 182 37 45 155 57 112 163 6 19 6 19 78 150 19
split_gain=125453 13747 12679.8 7085.67 5774.57 2165.29 1978.49 1792.42 1945.68 1505.92 1082.92 970.615 837.462 828.969 687.428 557.337 450.009 449.427 362.452 343.354 287.459 234.98 188.24 177.878 174.451 173.863 163.235 161.062 160.455 148.957 146.269 146.114 135.025 133.563 127.741 122.367 119.49 111.021 110.96 103.816 98.687 98.0282 93.0811 88.8453 89.8253 85.1113 71.8079 71.3199 68.521 67.7379 65.6774 65.0228 54.8862 54.8233 54.3172 52.8936 49.9543 47.9322 47.9231 46.1734 43.9642 43.3423 40.7443
threshold=5.8250000476837167 34.315000534057624 2.6650000810623173 34.789999008178718 16.435000419616703 34.954999923706062 10.960000038146974 0.59499999880790722 22.704999923706058 19.329999923706058 51.990584000000005 29.724999427795414 39.375000000000007 15.284999847412111 12.015000343322756 57.795225000000009 37.895000457763679 -5.9363879999999991 40.764999389648445 3.8549998998641972 -16.127278499999999 23.724999427795414 6.5000000000000009 -0.21999955177307126 20.695000648498539 57.795225000000009 2.185000061988831 26.714999198913578 36.664999008178718 0.49499893188476568 29.755000114440922 23.224999427795414 27.105000495910648 30.554999351501468 38.48500061035157 38.004999160766609 0.42499923706054693 25.159999847412113 14.704999923706056 29.814999580383304 38.114999771118171 14.059999942779543 -1.0000000180025095e-35 0.085000000894069686 33.694999694824226 41.125000000000007 87.915000915527358 -0.030002593994140622 37.565000534057624 61.778613000000007 -0.11499786376953124 0.39499950408935552 0.58499997854232799 -0.020000249147415158 15.704999923706056 39.694999694824226 5.6949999332427987 40.82500076293946 0.56499999761581432 27.545000076293949 0.76499986648559581 218.44999694824222 24.899999618530277
decision_type=2 2 2 2 2 2 2 2 2 2 2 2 2 2 2 2 2 2 2 2 2 2 2 2 2 2 2 2 2 2 2 2 2 2 2 2 2 2 2 2 2 2 2 2 2 2 2 2 2 2 2 2 10 2 2 2 2 2 2 2 2 2 2
left_child=2 3 7 11 13 20 14 26 22 36 12 19 17 41 30 23 39 40 29 -2 57 -22 53 -10 61 31 58 38 51 -11 -5 -16 -30 59 -12 60 46 -13 -21 -8 -7 47 -24 -33 55 -20 -6 -4 -23 -28 -25 -19 -29 -9 -34 -45 -17 -3 -1 -18 -14 -15 -40
right_child=1 5 4 6 9 10 16 8 15 18 34 37 35 24 25 56 33 28 45 27 21 48 42 50 -26 -27 49 52 32 -31 -32 43 54 -35 -36 -37 -38 -39 62 -41 -42 -43 -44 44 -46 -47 -48 -49 -50 -51 -52 -53 -54 -55 -56 -57 -58 -59 -60 -61 -62 -63 -64
leaf_value=-0.64595520524170702 0.22880813718009776 0.36983231321339521 -0.17176249168578184 -0.29253771908072373 -0.38486889316790429 0.38765265698463364 0.17116234412356238 -0.52201724373755987 -0.36415620129715043 -0.054071726197293224 0.024257435356700739 0.28091687240673779 0.069476140716271798 -0.056832783234627628 -0.22363840424398701 -0.71398469711208656 -0.14101233828940288 0.15400762378290406 -0.40496648082349379 0.10125008161687765 0.37212494355411929 0.26872813599383855 -0.26032654014381956 -0.56611923540925291 0.11327580602878698 -0.22417565775010326 -0.62923579655046513 0.12150438582031604 0.19582407470881755 -0.23083100238958809 -0.14878115852625542 0.0025310664629266343 0.30478373476068865 0.029343024795207697 0.12929960724950715 0.19029422804719764 -0.57292810058923116 0.21094126393581455 -0.026762559700705065 0.076661567374771047 0.31134880802424897 -0.27144737608610764 -0.36456176437935484 -0.081418098774718659 -0.024939823411579576 -0.30816881298029108 -0.48501553330312597 -0.099845929129427649 0.3161545036706917 -0.73033586333572564 -0.5077085176145778 0.2637962638275328 0.2015152550001699 -0.41918004293996475 0.25882860208800285 -0.14261430319061116 -0.63726993488022154 0.42657155889881126 -0.54961124572773057 -0.039975678218481893 0.14441826343089192 0.014770175330166647 0.057589282808715184
leaf_weight=37.799999356269836 65.099998891353607 64.399998903274536 68.599998831748962 63.699998915195465 21.699999630451202 64.399998903274536 52.499999105930328 16.799999713897705 13.999999761581419 14.69999974966049 49.699999153614044 174.29999703168869 48.299999177455902 35.699999392032623 16.799999713897705 53.89999908208847 13.999999761581419 58.799998998641968 34.299999415874481 95.899998366832733 185.49999684095383 102.19999825954437 27.299999535083771 153.99999737739563 38.499999344348907 23.099999606609344 19.599999666213989 55.299999058246613 68.599998831748962 62.999998927116394 24.499999582767487 34.999999403953552 95.199998378753662 101.4999982714653 69.299998819828033 69.299998819828033 34.299999415874481 83.999998569488525 30.099999487400055 65.099998891353607 123.89999788999557 14.69999974966049 99.399998307228088 104.99999821186066 49.699999153614044 67.19999885559082 102.19999825954437 69.299998819828033 298.89999490976334 107.09999817609787 69.999998807907104 17.499999701976776 34.999999403953552 56.699999034404755 198.09999662637711 53.199999094009399 34.999999403953552 88.199998497962952 19.599999666213989 58.799998998641968 32.899999439716339 51.799999117851257 27.299999535083771
leaf_count=54 93 92 98 91 31 92 75 24 20 21 71 249 69 51 24 77 20 84 49 137 265 146 39 220 55 33 28 79 98 90 35 50 136 145 99 99 49 120 43 93 177 21 142 150 71 96 146 99 427 153 100 25 50 81 283 76 50 126 28 84 47 74 39
internal_value=-0.00299381 0.183164 -0.404864 0.0568786 -0.238804 0.278149 -0.0541138 -0.548695 -0.501784 -0.377914 0.225889 0.186644 0.247401 -0.0703346 -0.130734 -0.57696 0.0432692 0.272843 -0.278664 0.126803 0.341494 0.325591 -0.37903 -0.537059 0.0245816 -0.0927245 -0.683006 0.0995433 0.245082 -0.19739 -0.252605 -0.0810321 0.258975 -0.00772476 0.0854291 0.141491 -0.490339 0.258161 0.06834 0.118849 0.337445 -0.148706 -0.342102 -0.0711688 -0.0835762 -0.34088 -0.467476 -0.135622 0.30407 -0.714696 -0.547866 0.179189 0.152516 -0.442686 0.273745 -0.101997 -0.683782 0.402627 -0.613057 -0.0594058 0.0998406 -0.0144438 0.013356
internal_weight=4192.3 2865.1 1327.2 1229.9 616 1635.2 662.9 711.2 527.1 337.4 896 567 777 278.6 371 326.9 291.9 626.5 179.2 308.7 739.2 586.6 200.2 238 126 282.8 184.1 243.6 438.2 77.7 88.2 259.7 361.9 174.3 119 150.5 158.2 258.3 153.3 117.6 188.3 152.6 126.7 242.9 207.9 101.5 123.9 137.9 401.1 126.7 224 76.3 90.3 73.5 293.3 158.2 88.9 152.6 57.4 72.8 81.2 87.5 57.4
internal_count=5989 4093 1896 1757 880 2336 947 1016 753 482 1280 810 1110 398 530 467 417 895 256 441 1056 838 286 340 180 404 263 348 626 111 126 371 517 249 170 215 226 369 219 168 269 218 181 347 297 145 177 197 573 181 320 109 129 105 419 226 127 218 82 104 116 125 82
is_linear=0
shrinkage=0.05


Tree=13
num_leaves=64
num_cat=0
split_feature=5 19 5 163 163 162 21 163 2 105 6 6 163 2 19 182 178 19 19 6 163 6 182 162 11 19 124 124 6 182 120 163 19 8 71 73 19 37 19 37 19 19 124 163 37 182 0 19 45 11 4 124 19 37 6 106 162 19 165 161 11 38 57
split_gain=114201 12329.9 11458.3 6405.99 4377.6 2009.38 1835.39 2103.51 1748.63 1006.61 982.173 876.512 792.374 684.746 526.441 437.055 377.51 356.975 304.339 298.079 283.466 280.88 278.737 226.031 203.44 187.392 186.619 182.828 165.427 145.586 136.282 130.362 130.329 123.49 107.561 99.2195 94.6828 91.8403 86.7102 79.8531 79.4141 77.1152 77.0573 70.0101 68.3438 63.888 60.9697 60.6688 59.2134 58.9246 58.748 58.5095 56.121 54.0424 52.9639 52.8451 51.3747 50.7348 47.0342 49.8984 45.1999 42.1053 41.2827
threshold=12.894999980926515 34.315000534057624 6.7449998855590829 34.789999008178718 35.065000534057624 34.954999923706062 0.59499999880790722 22.704999923706058 11.194999694824221 17.304999351501468 19.204999923706058 14.690000057220461 38.635000228881843 -0.74500000476837147 20.695000648498539 54.640390500000009 7.5050001144409189 39.174999237060554 39.23500061035157 8.1649999618530291 31.430000305175785 19.314999580383304 -16.127278499999999 23.724999427795414 87.58499908447267 36.014999389648445 19.115000724792484 4.4649999141693124 8.9149999618530291 57.795225000000009 2.185000061988831 39.375000000000007 6.5000000000000009 90.424999237060561 -1.0000000180025095e-35 -0.35000026226043696 29.615000724792484 0.42499923706054693 30.175000190734867 1.0000000180025095e-35 42.924999237060554 29.755000114440922 2.8349999189376835 30.73499965667725 -0.13000106811523435 61.778613000000007 14.684999942779543 20.064999580383304 -1.0000000180025095e-35 98.509998321533217 11.795000076293947 19.115000724792484 31.335000038146976 1.0000000180025095e-35 11.805000305175783 -6.1150000095367423 29.07499980926514 41.094999313354499 2.0799999237060551 17.780000686645511 97.155002593994155 -0.095000028610229478 -0.020000249147415158
decision_type=2 2 2 2 2 2 2 2 2 2 2 2 2 2 2 2 2 2 2 2 2 2 2 2 2 2 2 2 2 2 2 2 2 2 2 2 2 2 2 2 2 2 2 2 2 2 2 2 2 2 2 2 2 2 2 2 2 2 2 2 2 2 2
left_child=2 3 6 10 14 22 30 19 13 18 26 37 17 41 27 24 33 34 53 32 36 49 57 -24 -9 -14 42 54 39 31 -1 44 62 -10 -11 -29 61 -6 -33 -17 -19 -5 -2 56 -15 -32 -28 60 -36 -13 -20 -38 -18 -7 -4 -34 -25 -3 -26 -60 -37 -12 -8
right_child=1 5 4 8 11 9 7 15 16 12 20 21 25 29 -16 28 52 40 50 -21 -22 -23 23 43 58 -27 46 35 -30 -31 45 38 55 -35 48 47 51 -39 -40 -41 -42 -43 -44 -45 -46 -47 -48 -49 -50 -51 -52 -53 -54 -55 -56 -57 -58 -59 59 -61 -62 -63 -64
