tree
version=v4
num_class=1
num_tree_per_iteration=1
label_index=0
max_feature_idx=183
objective=regression
feature_names=T2M__main T2M_MAX__main T2M_MIN__main T2MDEW__main T2MWET__main ALLSKY_SFC_SW_DWN__main CLRSKY_SFC_SW_DWN__main CLOUD_AMT__main RH2M__main QV2M__main PRECTOTCORR__main PS__main WS2M__main WS10M__main WD2M__main WD10M__main GWETTOP__main GWETROOT__main ALLSKY_SFC_SW_DIFF__main TOA_SW_DWN__main TS__main ALLSKY_SFC_PAR_TOT__main WS2M_MAX__main WS2M_MIN__main WS10M_MAX__main WS10M_MIN__main T2M__diff_n1 T2M_MAX__diff_n1 T2M_MIN__diff_n1 T2MDEW__diff_n1 T2MWET__diff_n1 ALLSKY_SFC_SW_DWN__diff_n1 CLRSKY_SFC_SW_DWN__diff_n1 CLOUD_AMT__diff_n1 RH2M__diff_n1 QV2M__diff_n1 PRECTOTCORR__diff_n1 PS__diff_n1 WS2M__diff_n1 WS10M__diff_n1 WD2M__diff_n1 WD10M__diff_n1 GWETTOP__diff_n1 GWETROOT__diff_n1 ALLSKY_SFC_SW_DIFF__diff_n1 TOA_SW_DWN__diff_n1 TS__diff_n1 ALLSKY_SFC_PAR_TOT__diff_n1 WS2M_MAX__diff_n1 WS2M_MIN__diff_n1 WS10M_MAX__diff_n1 WS10M_MIN__diff_n1 T2M__diff_n2 T2M_MAX__diff_n2 T2M_MIN__diff_n2 T2MDEW__diff_n2 T2MWET__diff_n2 ALLSKY_SFC_SW_DWN__diff_n2 CLRSKY_SFC_SW_DWN__diff_n2 CLOUD_AMT__diff_n2 RH2M__diff_n2 QV2M__diff_n2 PRECTOTCORR__diff_n2 PS__diff_n2 WS2M__diff_n2 WS10M__diff_n2 WD2M__diff_n2 WD10M__diff_n2 GWETTOP__diff_n2 GWETROOT__diff_n2 ALLSKY_SFC_SW_DIFF__diff_n2 TOA_SW_DWN__diff_n2 TS__diff_n2 ALLSKY_SFC_PAR_TOT__diff_n2 WS2M_MAX__diff_n2 WS2M_MIN__diff_n2 WS10M_MAX__diff_n2 WS10M_MIN__diff_n2 T2M__diff_n3 T2M_MAX__diff_n3 T2M_MIN__diff_n3 T2MDEW__diff_n3 T2MWET__diff_n3 ALLSKY_SFC_SW_DWN__diff_n3 CLRSKY_SFC_SW_DWN__diff_n3 CLOUD_AMT__diff_n3 RH2M__diff_n3 QV2M__diff_n3 PRECTOTCORR__diff_n3 PS__diff_n3 WS2M__diff_n3 WS10M__diff_n3 WD2M__diff_n3 WD10M__diff_n3 GWETTOP__diff_n3 GWETROOT__diff_n3 ALLSKY_SFC_SW_DIFF__diff_n3 TOA_SW_DWN__diff_n3 TS__diff_n3 ALLSKY_SFC_PAR_TOT__diff_n3 WS2M_MAX__diff_n3 WS2M_MIN__diff_n3 WS10M_MAX__diff_n3 WS10M_MIN__diff_n3 T2M__main__lag1 T2M__main__lag2 T2M__main__lag3 T2M_MAX__main__lag1 T2M_MAX__main__lag2 T2M_MAX__main__lag3 T2M_MIN__main__lag1 T2M_MIN__main__lag2 T2M_MIN__main__lag3 T2MDEW__main__lag1 T2MDEW__main__lag2 T2MDEW__main__lag3 T2MWET__main__lag1 T2MWET__main__lag2 T2MWET__main__lag3 ALLSKY_SFC_SW_DWN__main__lag1 ALLSKY_SFC_SW_DWN__main__lag2 ALLSKY_SFC_SW_DWN__main__lag3 CLRSKY_SFC_SW_DWN__main__lag1 CLRSKY_SFC_SW_DWN__main__lag2 CLRSKY_SFC_SW_DWN__main__lag3 CLOUD_AMT__main__lag1 CLOUD_AMT__main__lag2 CLOUD_AMT__main__lag3 RH2M__main__lag1 RH2M__main__lag2 RH2M__main__lag3 QV2M__main__lag1 QV2M__main__lag2 QV2M__main__lag3 PRECTOTCORR__main__lag1 PRECTOTCORR__main__lag2 PRECTOTCORR__main__lag3 PS__main__lag1 PS__main__lag2 PS__main__lag3 WS2M__main__lag1 WS2M__main__lag2 WS2M__main__lag3 WS10M__main__lag1 WS10M__main__lag2 WS10M__main__lag3 WD2M__main__lag1 WD2M__main__lag2 WD2M__main__lag3 WD10M__main__lag1 WD10M__main__lag2 WD10M__main__lag3 GWETTOP__main__lag1 GWETTOP__main__lag2 GWETTOP__main__lag3 GWETROOT__main__lag1 GWETROOT__main__lag2 GWETROOT__main__lag3 ALLSKY_SFC_SW_DIFF__main__lag1 ALLSKY_SFC_SW_DIFF__main__lag2 ALLSKY_SFC_SW_DIFF__main__lag3 TOA_SW_DWN__main__lag1 TOA_SW_DWN__main__lag2 TOA_SW_DWN__main__lag3 TS__main__lag1 TS__main__lag2 TS__main__lag3 ALLSKY_SFC_PAR_TOT__main__lag1 ALLSKY_SFC_PAR_TOT__main__lag2 ALLSKY_SFC_PAR_TOT__main__lag3 WS2M_MAX__main__lag1 WS2M_MAX__main__lag2 WS2M_MAX__main__lag3 WS2M_MIN__main__lag1 WS2M_MIN__main__lag2 WS2M_MIN__main__lag3 WS10M_MAX__main__lag1 WS10M_MAX__main__lag2 WS10M_MAX__main__lag3 WS10M_MIN__main__lag1 WS10M_MIN__main__lag2 WS10M_MIN__main__lag3 lat lon
feature_infos=[-43.310001373291016:37.560001373291016] [-30.479999542236328:48.830001831054688] [-63.349998474121094:28.110000610351562] [-43.490001678466797:24.680000305175781] [-43.400001525878906:26.719999313354492] [0:33.340000152587891] [0:34.950000762939453] [0.67000001668930054:96.379997253417969] [8.1899995803833008:99.389999389648438] [0.070000000298023224:20.610000610351562] [0:25.729999542236328] [67.970001220703125:102.86000061035156] [0.019999999552965164:8.5900001525878906] [0.49000000953674316:10.819999694824219] [0:360] [0:360] [0.029999999329447746:1] [0.14000000059604645:1] [0:19.629999160766602] [0:44.279998779296875] [-46.680000305175781:40.279998779296875] [0:14.899999618530273] [0.2199999988079071:26.909999847412109] [0:1.8799999952316284] [1.0900000333786011:32.630001068115234] [0:3.1400001049041748] [-6.1999998092651367:6.9600000381469727] [-3.5500011444091797:12.430000305175781] [-15.85999870300293:6.9799995422363281] [-7.0600004196166992:4.6299996376037598] [-6.630000114440918:5.7799997329711914] [-3.2800006866455078:3.2100000381469727] [-1.0100002288818359:1.2800006866455078] [-16.529994964599609:20.700000762939453] [-14.209999084472656:11.029998779296875] [-1.4700002670288086:2.3400001525878906] [-2.75:5.5499992370605469] [-1.6700057983398438:0.98000335693359375] [-2.7600002288818359:0.33000001311302185] [-2.429999828338623:0.38000011444091797] [-356.89999389648438:356.10000610351562] [-359.10000610351562:358.60000610351562] [-0.12000001966953278:0.19999998807907104] [-0.13000005483627319:0.22000002861022949] [-2.4699993133544922:5.7700004577636719] [-0.58000087738037109:0.61999988555908203] [-11.449999809265137:10.819999694824219] [-1.8199996948242188:1.5399994850158691] [-7.1500005722045898:3.1100006103515625] [-1.1599999666213989:0.96999996900558472] [-6.4600000381469727:3.75] [-1.3799999952316284:1.4599999189376831] [-2.8099994659423828:5.4000005722045898] [-8.0900001525878906:10.809999465942383] [-7.8500003814697266:9.6000003814697266] [-2.9800000190734863:4.4699993133544922] [-2.3899993896484375:4.429999828338623] [-6.3700008392333984:2.7800006866455078] [-3:2.1100006103515625] [-22.840003967285156:31.939998626708984] [-11.330001831054688:11.629997253417969] [-1.5999994277954102:1.5699996948242188] [-5.5399999618530273:11.589999198913574] [-1.5499954223632812:8.5800018310546875] [-1.8199999332427979:2.5099999904632568] [-1.4700000286102295:1.8799998760223389] [-356.69998168945312:354.5999755859375] [-359.20001220703125:358.39999389648438] [-0.21999996900558472:0.29000002145767212] [-0.20999997854232788:0.34000003337860107] [-3.6000003814697266:6.630000114440918] [-0.6100006103515625:0.29000091552734375] [-3.3999996185302734:5.2099990844726562] [-2.7800002098083496:1.429999828338623] [-7.2599997520446777:7.0900001525878906] [-1.1699999570846558:1.690000057220459] [-7.4800004959106445:5.4899997711181641] [-2.0699999332427979:2.8500001430511475] [-4.8299999237060547:4.1499996185302734] [-9.8100013732910156:4.7400002479553223] [-7.9699993133544922:5.5499992370605469] [-3.7000000476837158:4.9100008010864258] [-3.75:3.4200000762939453] [-2.6199989318847656:3.1400012969970703] [-2.7099990844726562:1.2399997711181641] [-24.380001068115234:18.090000152587891] [-10.530002593994141:14.120002746582031] [-2.1100006103515625:3.3899993896484375] [-8.4799995422363281:9.3199996948242188] [-6.3199996948242188:6.4300003051757812] [-2.8499999046325684:2.070000171661377] [-3.0099999904632568:2.2100000381469727] [-354.60000610351562:359] [-358.5:359.10000610351562] [-0.13000002503395081:0.25] [-0.15999996662139893:0.24000000953674316] [-2.2899999618530273:2.7699999809265137] [-0.6100006103515625:0.29000091552734375] [-6.7899990081787109:4.3400001525878906] [-4.0999999046325684:1.2600002288818359] [-5.320000171661377:5.9800000190734863] [-1.6100000143051147:0.99000000953674316] [-6.0099992752075195:6.6400003433227539] [-2.1100001335144043:1.6599999666213989] [-43.310001373291016:37.560001373291016] [-43.310001373291016:37.560001373291016] [-43.310001373291016:37.560001373291016] [-30.479999542236328:48.830001831054688] [-30.479999542236328:48.830001831054688] [-30.479999542236328:48.970001220703125] [-63.349998474121094:28.110000610351562] [-63.349998474121094:28.110000610351562] [-63.349998474121094:28.110000610351562] [-43.490001678466797:24.680000305175781] [-43.490001678466797:24.680000305175781] [-43.490001678466797:24.680000305175781] [-43.400001525878906:26.719999313354492] [-43.400001525878906:26.719999313354492] [-43.400001525878906:26.719999313354492] [0:33.340000152587891] [0:33.340000152587891] [0:33.340000152587891] [0:34.950000762939453] [0:34.950000762939453] [0:34.950000762939453] [0.67000001668930054:96.379997253417969] [0.67000001668930054:96.379997253417969] [0.67000001668930054:96.379997253417969] [8.1899995803833008:99.389999389648438] [8.1899995803833008:99.389999389648438] [8.1899995803833008:99.389999389648438] [0.070000000298023224:20.610000610351562] [0.070000000298023224:20.610000610351562] [0.070000000298023224:20.610000610351562] [0:25.729999542236328] [0:25.729999542236328] [0:25.729999542236328] [67.970001220703125:102.86000061035156] [67.970001220703125:102.86000061035156] [67.970001220703125:102.86000061035156] [0.019999999552965164:8.5900001525878906] [0.019999999552965164:8.5900001525878906] [0.019999999552965164:8.5900001525878906] [0.49000000953674316:10.819999694824219] [0.49000000953674316:10.819999694824219] [0.49000000953674316:10.819999694824219] [0:360] [0:360] [0:360] [0:360] [0:360] [0:360] [0.029999999329447746:1] [0.029999999329447746:1] [0.029999999329447746:1] [0.14000000059604645:1] [0.14000000059604645:1] [0.14000000059604645:1] [0:19.629999160766602] [0:19.629999160766602] [0:19.629999160766602] [0:44.279998779296875] [0:44.279998779296875] [0:44.279998779296875] [-46.680000305175781:40.279998779296875] [-46.680000305175781:40.279998779296875] [-46.680000305175781:40.279998779296875] [0:14.899999618530273] [0:14.899999618530273] [0:14.899999618530273] [0.2199999988079071:26.909999847412109] [0.2199999988079071:26.909999847412109] [0.2199999988079071:26.909999847412109] [0:1.8799999952316284] [0:1.8799999952316284] [0:1.8799999952316284] [1.0900000333786011:32.630001068115234] [1.0900000333786011:32.630001068115234] [1.0900000333786011:32.630001068115234] [0:3.1400001049041748] [0:3.1400001049041748] [0:3.1400001049041748] [-39.202894999999998:68.976585] [-86.922895999999994:132.566947]
tree_sizes=6397 6618 6633 6629 6632 6617 6646 6650 6641 6650 6645 6653 6670 6635 6654 6644 6674 6654 6669 6659 6670 6662 6674 6711 6668 6677 6700 6710 6705 6708 6729 6708 6736 6727 6718 6732 6747 6762 6745 6757 6755 6745 6761 6772 6754 6763 6773 6768 6749 6756 6780 6773 6760 6763 6772 6773 6760 6775 6770 6782 6794 6785 6790 6799 6800 6796 6801 6779 6828 6798 6832 6810 6830 6821 6805 6803 6805 6849 6803 6849 6815 6862 6854 6837 6858 6858 6861 6846 6859 6865 6830 6873 6920 6873 6892 6884 6880 6906 6881 6917 6877 6901 6924 6885 6877 6919 6898 6933 6916 6917 6912 6928 6912 6956 6927 6919 6943 6917 6945 6930 6961 6952 6931 6939 6974 6927 6940 6989 6963 6955 6948 7007 6928 6952 6933 6973 6934 6973 6987 6940 6972 6968 6957 6975 6967 6982 6966 6956 6953 6982 6965 6964 6977 6955 6972 6973 6976 6975 6946 6932 6972 6985 6986 6990 6978 6975 6981

Tree=0
num_leaves=64
num_cat=0
split_feature=5 5 6 163 163 2 162 21 163 19 182 19 6 163 0 163 6 182 19 124 4 5 124 19 19 89 19 163 20 2 112 120 5 183 6 69 11 130 121 57 161 6 137 39 123 6 19 163 182 4 3 17 10 107 6 11 6 124 12 19 183 124 11
split_gain=213981 23233.1 21657.3 13264.3 11883 5825.38 4616.54 3203.18 4492.85 2865.04 1732.88 1693.14 1648.84 1583.6 1344.99 1252.23 983.016 865.389 772.574 739.98 662.399 576.798 501.264 435.083 392.305 365.393 345.182 339.637 337.026 330.2 306.622 249.108 234.082 218.62 207.513 180.837 176.375 183.082 170.7 157.336 153.727 152.373 151.035 149.866 127.42 159.731 125.908 125.689 123.19 138.693 116.978 116.265 115.661 109.443 105.812 97.568 96.0368 86.5557 83.9393 80.3381 78.4837 76.6927 73.7384
threshold=12.734999656677248 6.3350000381469735 25.365000724792484 34.789999008178718 34.145000457763679 13.829999923706056 34.954999923706062 0.59499999880790722 22.704999923706058 41.614999771118171 -16.127278499999999 21.569999694824222 19.435000419616703 30.675000190734867 12.824999809265138 23.714999198913578 14.425000190734865 57.795225000000009 32.764999389648445 4.4649999141693124 5.9449999332427987 15.765000343322756 18.994999885559086 8.3550000190734881 36.664999008178718 -0.93499755859374989 29.875000000000004 37.414999008178718 -15.624999999999998 16.494999885559086 9.6100001335144061 2.185000061988831 21.204999923706058 35.93288350000001 31.265000343322757 0.0099999979138374346 95.615001678466811 85.009998321533217 0.9350000023841859 -0.2150001525878906 41.895000457763679 7.055000066757203 93.625000000000014 -0.44999992847442621 16.295000076293949 10.690000057220461 33.694999694824226 39.545000076293952 57.795225000000009 19.015000343322757 1.9750000238418581 0.57499998807907116 1.0349999666213991 28.045000076293949 17.345000267028812 95.655002593994155 15.394999980926515 26.244999885559086 2.2549999952316289 23.224999427795414 106.56525350000001 20.925000190734867 88.005001068115249
decision_type=2 2 2 2 2 2 2 2 2 2 2 2 2 2 2 2 2 2 2 2 2 2 2 2 2 2 2 2 2 2 2 2 2 2 2 8 2 2 2 2 2 2 2 2 2 2 2 2 2 2 2 10 2 2 2 2 2 2 2 2 2 2 2
left_child=1 7 3 12 16 14 10 31 23 13 34 35 22 43 26 51 19 25 -7 -3 28 53 38 39 -15 -10 -5 -20 -12 -26 58 -1 36 57 -4 62 -17 61 -2 -9 -11 -19 -27 -8 45 -21 -35 -29 49 -22 -31 -14 -25 -16 -24 -30 -18 -23 -13 -55 -40 -38 -6
right_child=2 4 6 5 11 18 9 8 17 40 20 30 15 24 21 32 56 41 27 44 48 33 54 52 29 42 -28 47 55 50 -32 -33 -34 46 -36 -37 37 -39 60 -41 -42 -43 -44 -45 -46 -47 -48 -49 -50 -51 -52 -53 -54 59 -56 -57 -58 -59 -60 -61 -62 -63 -64
leaf_value=18.825037537474593 19.963419388422551 19.658478840042246 20.220146041657397 19.279035999232104 19.136852483711529 19.663905501625088 19.618682012891149 18.987378834519035 19.176488857287158 20.224959629668611 20.355831448634834 19.24481930137582 20.090598984425338 19.811543429367852 19.311000741847348 19.937349936356718 19.685891012430293 18.716734024426216 19.929917846363637 19.44314300080487 20.064572662823238 19.679268955145915 19.607727468345189 19.251150605104641 19.872693925173238 18.961410375411869 19.481476928400578 19.811561240829338 20.170673434732759 20.046125936986819 19.4036172063091 18.695351263896864 19.953746830298346 19.519000884076519 20.338732355630366 18.915918526189312 19.907664363715632 19.663434498920122 19.766666252333533 19.148657088680473 20.112618848548266 18.848361064472453 18.879360596123913 19.753261062576932 19.375782306185336 19.55342714818379 19.62405364269253 19.707050159784337 19.961144628617003 19.981939914611193 19.958834820337273 20.018590484759638 19.414638829132478 19.362530494878822 19.742026333505969 20.088136805369686 19.810881691324091 19.582062912074178 19.147024563494533 19.485733214132885 19.851767965560455 19.814651210268316 19.018546534109106
leaf_weight=53.89999908208847 25.199999570846558 69.999998807907104 116.89999800920486 74.199998736381531 15.399999737739561 113.39999806880951 30.799999475479126 17.499999701976776 13.999999761581419 53.89999908208847 18.899999678134918 60.899998962879181 100.09999829530716 60.899998962879181 14.69999974966049 44.099999248981476 32.199999451637268 72.799998760223389 56.699999034404755 83.999998569488525 240.09999591112137 58.099999010562897 30.799999475479126 47.599999189376831 116.89999800920486 95.899998366832733 29.399999499320984 128.09999781847 74.899998724460602 43.399999260902405 25.899999558925629 118.29999798536301 87.499998509883881 116.19999802112579 53.89999908208847 44.799999237060547 32.899999439716339 16.099999725818634 43.399999260902405 111.2999981045723 69.999998807907104 31.499999463558197 135.09999769926071 62.999998927116394 32.199999451637268 53.89999908208847 37.799999356269836 37.099999368190765 48.299999177455902 64.399998903274536 331.79999434947968 127.39999783039093 13.999999761581419 16.799999713897705 27.999999523162842 68.599998831748962 29.399999499320984 37.799999356269836 34.299999415874481 62.299998939037323 72.099998772144318 67.899998843669891 90.999998450279236
leaf_count=77 36 100 167 106 22 162 44 25 20 77 27 87 143 87 21 63 46 104 81 120 343 83 44 68 167 137 42 183 107 62 37 169 125 166 77 64 47 23 62 159 100 45 193 90 46 77 54 53 69 92 474 182 20 24 40 98 42 54 49 89 103 97 130
internal_value=19.6518 19.1145 19.8888 19.7526 19.3512 19.6125 20.0252 18.9237 18.9836 19.9412 20.1196 19.1118 19.9149 19.899 19.4944 19.9655 19.5674 18.8771 19.7701 19.5216 20.0738 19.542 19.7943 19.179 19.9313 18.9285 19.3365 19.8243 20.1574 19.9461 19.2511 18.7359 19.8879 19.5817 20.2576 19.0002 19.8521 19.82 19.8455 19.1267 20.1615 18.7565 18.9134 19.7091 19.4653 19.4862 19.5448 19.7881 20.0353 20.0471 19.9689 20.0503 19.2883 19.4363 19.6717 20.1312 19.7455 19.641 19.2096 19.4596 19.8198 19.845 19.0357
internal_weight=4200.7 1285.9 2914.8 1458.1 574 782.6 1456.7 711.9 539.7 770.7 686 272.3 675.5 646.8 447.3 476 301.7 349.3 335.3 240.1 515.2 343.7 199.5 190.4 553 245 103.6 221.9 162.4 492.1 121.1 172.2 248.5 249.9 170.8 151.2 161 116.9 140.7 128.8 123.9 104.3 231 93.8 170.1 137.9 154 165.2 352.8 304.5 375.2 227.5 61.6 93.8 58.8 143.5 61.6 95.9 95.2 79.1 115.5 100.8 106.4
internal_count=6001 1837 4164 2083 820 1118 2081 1017 771 1101 980 389 965 924 639 680 431 499 479 343 736 491 285 272 790 350 148 317 232 703 173 246 355 357 244 216 230 167 201 184 177 149 330 134 243 197 220 236 504 435 536 325 88 134 84 205 88 137 136 113 165 144 152
is_linear=0
shrinkage=1


Tree=1
num_leaves=64
num_cat=0
split_feature=5 6 5 163 163 0 162 5 160 19 6 182 2 121 19 163 19 20 163 137 182 105 5 163 108 182 162 0 6 130 6 19 120 121 19 89 183 129 163 6 17 89 19 6 58 121 123 19 161 183 3 5 182 89 6 163 6 19 6 133 12 18 6
split_gain=191414 20951.6 18262 12263.6 9455.33 6201.64 3799.67 3038.55 2975.9 2394.62 1837.38 1549.72 1314.27 1259.77 1213.16 1164.29 1143.48 1002.89 784.631 662.452 603.5 549.158 463.304 400.859 389.94 369.714 357.985 356.103 294.429 294.016 278.135 269.503 268.925 245.193 232.098 210.85 197.024 189.046 186.227 181.064 180.706 162.602 159.229 151.82 142.794 130.436 125.135 123.292 121.007 114.649 112.04 110.727 109.401 102.3 102.258 100.342 95.5035 94.9668 94.0191 84.951 83.7982 82.0166 71.8714
threshold=12.434999942779543 25.515000343322757 6.555000066757203 34.789999008178718 34.104999542236335 21.525000572204593 34.954999923706062 3.0849999189376835 5.4649999141693124 41.614999771118171 19.435000419616703 -16.127278499999999 11.659999847412111 2.1750000715255742 32.764999389648445 23.714999198913578 21.569999694824222 10.429999828338625 7.1749999523162851 71.970001220703139 61.778613000000007 13.355000019073488 15.574999809265138 39.524999618530281 25.569999694824222 57.795225000000009 23.724999427795414 15.144999980926515 14.425000190734865 95.555000305175795 21.175000190734867 8.3550000190734881 2.185000061988831 7.7950000762939462 36.664999008178718 -0.90999984741210926 24.217304000000006 30.085000038146976 37.414999008178718 15.805000305175783 0.57499998807907116 -0.93499755859374989 33.254999160766609 31.265000343322757 -1.0000000180025095e-35 0.9350000023841859 16.295000076293949 28.175000190734867 41.895000457763679 106.56525350000001 1.9750000238418581 16.644999504089359 57.795225000000009 0.69499969482421886 33.23500061035157 39.23500061035157 7.055000066757203 39.475000381469734 10.690000057220461 2.9550000429153447 2.2549999952316289 3.0149999856948857 21.605000495910648
decision_type=2 2 2 2 2 2 2 2 2 2 2 2 2 2 2 2 2 2 2 2 2 2 2 2 2 2 2 2 2 2 2 2 2 2 2 2 2 2 2 2 10 2 2 2 2 2 2 2 2 2 2 2 2 2 2 2 2 2 2 2 2 2 2
left_child=2 3 7 10 18 17 11 13 31 12 21 43 29 -1 36 51 41 47 53 54 33 45 52 38 -17 35 -21 60 46 57 -26 59 -22 -15 -14 -10 -7 -24 -16 -23 -28 -6 -39 -3 -35 -2 58 -5 -11 -43 -36 -12 55 -4 -13 -19 -27 -8 -20 -9 -18 -33 -38
right_child=1 6 4 5 16 14 9 8 25 48 15 19 34 20 23 24 27 22 28 26 32 39 37 -25 30 56 40 -29 -30 -31 -32 61 -34 44 50 -37 62 42 -40 -41 -42 49 -44 -45 -46 -47 -48 -49 -50 -51 -52 -53 -54 -55 -56 -57 -58 -59 -60 -61 -62 -63 -64
leaf_value=-0.47606075581150303 0.29821138629351701 0.54907361787668207 0.065227271799516318 -0.35645875483905987 -0.46771379520454348 0.03922872256603907 0.12746007743814644 -0.42035537304209891 -0.48581788750909277 0.54504655480347475 0.34083903121789355 0.68445844502159314 0.16948164849841096 -0.60046863413296614 0.2607574015515583 -0.027611890266825308 -0.3811678919536936 -0.14485644431606801 -0.18597753197668757 0.45139117716769772 -0.77639771640788835 -0.079255782064274957 0.0076387453601169889 0.053912829056238988 0.15726275748716495 -0.89317494999858926 0.39450375109339947 -0.14913086847119447 0.028072177954892509 0.0025341081804553058 0.27590474015953181 -0.37721925599992384 -0.91222219766977841 -0.85319213140338046 0.37517877813010281 -0.68482877939160747 -0.10386674454824588 -0.16419474286431784 0.15905520975574494 0.076839382679747159 0.31924462422979039 -0.67842606663712468 -0.059941842278328918 0.65446778067616085 -0.7325340612331277 0.16798491215037092 -0.2671641229248749 -0.20099511272093884 0.44340989184000218 -0.58224676653351704 0.29263853714803628 0.41141315843407122 -0.32020094631315893 -0.050450257601223625 0.51986957219708685 -0.25492548881286209 -0.75844215367706891 0.20762874084124605 -0.095830779357559626 -0.52550904032928969 -0.48165733320762022 -0.24645976827716756 -0.01059335776310821
leaf_weight=30.099999487400055 23.799999594688416 121.09999793767929 67.899998843669891 74.199998736381531 19.599999666213989 99.399998307228088 85.399998545646667 32.199999451637268 14.69999974966049 51.099999129772186 93.099998414516449 19.599999666213989 35.699999392032623 26.5999995470047 68.599998831748962 13.999999761581419 52.499999105930328 44.799999237060547 72.099998772144318 149.7999974489212 50.399999141693115 26.5999995470047 38.499999344348907 68.599998831748962 67.899998843669891 23.799999594688416 163.09999722242355 13.999999761581419 20.999999642372131 35.699999392032623 181.2999969124794 65.099998891353607 131.59999775886536 34.999999403953552 46.89999920129776 140.69999760389328 48.999999165534973 80.49999862909317 130.89999777078629 61.599998950958252 156.09999734163284 53.199999094009399 67.19999885559082 47.599999189376831 81.899998605251312 100.09999829530716 27.999999523162842 15.399999737739561 68.599998831748962 74.199998736381531 333.19999432563782 137.899997651577 22.399999618530273 26.5999995470047 18.199999690055847 38.499999344348907 29.399999499320984 65.099998891353607 48.299999177455902 47.599999189376831 34.299999415874481 14.69999974966049 35.699999392032623
leaf_count=43 34 173 97 106 28 142 122 46 21 73 133 28 51 38 98 20 75 64 103 214 72 38 55 98 97 34 233 20 30 51 259 93 188 50 67 201 70 115 187 88 223 76 96 68 117 143 40 22 98 106 476 197 32 38 26 55 42 93 69 68 49 21 51
internal_value=0.00248597 0.222122 -0.519663 0.0949236 -0.291038 -0.0349461 0.36232 -0.681292 -0.580615 0.282549 0.248219 0.447548 0.241936 -0.785537 0.0903105 0.30105 -0.512842 -0.183415 -0.0827652 0.403854 -0.814156 0.125119 -0.138501 0.158175 0.229153 -0.704951 0.387625 -0.383135 -0.147159 0.131537 0.243578 -0.418105 -0.874609 -0.737482 0.291375 -0.666003 -0.00851884 -0.0910402 0.194026 0.0297631 0.357699 -0.601783 -0.116762 0.578811 -0.768659 0.193 -0.171956 -0.329738 0.486799 -0.62241 0.302823 0.38297 -0.222107 0.0326662 0.605212 -0.195729 -0.818717 0.162138 -0.149814 -0.483079 -0.420877 -0.353132 -0.0645532
internal_weight=4172.7 2937.2 1235.5 1540 511.7 833.7 1397.2 723.8 368.2 721.7 706.3 675.5 602 355.6 452.2 494.2 247.8 381.5 263.9 506.8 325.5 212.1 291.9 268.1 263.2 208.6 469 100.8 169.4 186.2 249.2 159.6 182 143.5 415.8 155.4 184.1 186.2 199.5 88.2 319.2 147 147.7 168.7 116.9 123.9 148.4 89.6 119.7 127.4 380.1 231 105.7 94.5 37.8 83.3 53.2 150.5 120.4 79.8 86.8 79.8 84.7
internal_count=5961 4196 1765 2200 731 1191 1996 1034 526 1031 1009 965 860 508 646 706 354 545 377 724 465 303 417 383 376 298 670 144 242 266 356 228 260 205 594 222 263 266 285 126 456 210 211 241 167 177 212 128 171 182 543 330 151 135 54 119 76 215 172 114 124 114 121
is_linear=0
shrinkage=0.05


Tree=2
num_leaves=64
num_cat=0
split_feature=5 5 6 163 163 2 162 21 163 19 182 6 19 0 163 163 6 182 5 121 19 11 182 19 124 11 19 166 2 19 80 6 9 120 19 57 183 30 6 6 124 123 137 6 182 161 109 6 124 123 17 89 6 6 12 135 182 155 163 6 12 6 122
split_gain=173731 18138 17920 10062 9006.95 4978.44 3444.26 2696.82 3814.09 2223.27 1452.43 1302.55 1218.85 1179.76 1172.62 993.863 794.487 706.061 592.584 532.068 527.276 479.556 444.114 433.343 387.357 378.149 349.422 308.414 284.915 270.01 266.659 222.837 219.684 205.278 200.903 181.046 165.227 163.999 161.535 159.068 140.937 137.204 123.844 123.561 122.396 120.324 117.277 109.345 105.212 102.579 98.2537 97.5653 93.5227 88.7607 84.9357 65.6806 61.9433 60.8537 60.4644 59.423 57.9541 54.7121 53.2697
threshold=12.734999656677248 6.555000066757203 25.515000343322757 34.789999008178718 34.215000152587898 15.704999923706056 34.954999923706062 0.59499999880790722 22.704999923706058 41.614999771118171 -16.127278499999999 19.634999275207523 21.569999694824222 13.494999885559084 30.675000190734867 23.714999198913578 14.425000190734865 57.795225000000009 17.474999427795414 1.6050000190734866 35.854999542236335 93.844997406005874 57.795225000000009 7.9949998855590829 18.675000190734867 87.58499908447267 29.875000000000004 24.054999351501468 16.695000648498539 37.924999237060554 -0.93000000715255726 22.144999504089359 5.3750000000000009 2.185000061988831 36.664999008178718 -0.075000762939453111 24.217304000000006 1.0000000180025095e-35 31.265000343322757 8.1649999618530291 2.8349999189376835 16.295000076293949 93.625000000000014 7.055000066757203 50.909911500000007 41.895000457763679 12.239999771118166 17.170000076293949 20.57499980926514 20.835000038146976 0.57499998807907116 0.62500000000000011 10.690000057220461 26.884999275207523 2.2549999952316289 0.7150000035762788 61.778613000000007 0.60500001907348644 37.414999008178718 23.119999885559086 3.435000061988831 26.195000648498539 21.925000190734867
decision_type=2 2 2 2 2 2 2 2 2 2 2 2 2 2 2 2 2 2 2 2 2 2 2 2 2 2 2 2 2 2 2 2 2 2 2 2 2 2 2 2 2 2 2 2 2 2 2 2 2 2 10 2 2 2 2 2 2 10 2 2 2 2 2
left_child=1 7 3 11 16 13 10 33 23 14 38 24 44 26 51 50 19 25 37 -3 30 29 31 35 40 -10 -5 54 -16 -12 -7 48 -23 -1 -30 -9 -20 57 61 -25 -2 52 -27 -19 -6 -11 -18 -26 -17 -31 -13 -8 -21 -36 -14 -42 -35 -15 -22 -32 -38 -4 -34
right_child=2 4 6 5 12 20 9 8 17 45 21 15 27 18 28 22 46 43 36 41 58 32 -24 39 47 42 -28 -29 34 49 59 -33 62 56 53 -37 60 -39 -40 -41 55 -43 -44 -45 -46 -47 -48 -49 -50 -51 -52 -53 -54 -55 -56 -57 -58 -59 -60 -61 -62 -63 -64
leaf_value=-0.73728059676594815 0.2841352599527866 0.0016372467334655949 0.43247084610985365 -0.3386506698705864 -0.51634740272545654 0.18052363312852326 0.094462907486096592 -0.62617488502181962 -0.41666383970346632 0.51922995153707585 0.64831159049025722 0.402396945262534 -0.35701092777919874 -0.080283791763337053 0.19515963828543881 0.24544894823408439 0.1533890911851645 -0.84015586326408576 0.034966984211236944 -0.17547131424056836 0.25662504533485547 0.39039820326410879 -0.048675624000124464 -0.37042560633464555 -0.044621303087037434 -0.62302254850995897 -0.15221314701405067 -0.13772917666995826 0.16315087111456089 0.46873555195241201 0.020969611231252318 0.27287983250894088 0.39243783228348267 -0.77657577075771023 0.27396694477670203 -0.45535438904343994 -0.084682606509231484 -0.20335333418413898 0.62400453890347762 -0.20623513603232443 0.17820931521840291 -0.25469406453815074 -0.69392448133689744 -0.71660002656124244 -0.60996189066277051 0.42050333739184209 0.014535972779304341 0.090480535079272131 0.13402419463767856 0.38556253559529252 0.33428340689850272 -0.025143806375915668 -0.089693155993049875 0.32605423451319221 -0.45215481959542664 0.095338821525944084 -0.87430943166236941 -0.16788476986135364 0.18404620027418458 0.084251468937753371 -0.01529025343904954 0.53361144998081333 0.2983840473415193
leaf_weight=51.799999117851257 25.899999558925629 67.899998843669891 15.399999737739561 67.899998843669891 58.099999010562897 50.399999141693115 65.099998891353607 18.199999690055847 16.799999713897705 53.199999094009399 16.099999725818634 94.499998390674591 74.199998736381531 67.899998843669891 126.69999784231186 32.899999439716339 31.499999463558197 68.599998831748962 74.899998724460602 80.49999862909317 48.299999177455902 163.09999722242355 14.69999974966049 67.19999885559082 27.999999523162842 112.69999808073044 39.89999932050705 13.999999761581419 32.899999439716339 86.099998533725739 87.499998509883881 146.29999750852585 16.799999713897705 19.599999666213989 233.09999603033066 104.99999821186066 79.799998641014099 78.399998664855957 55.299999058246613 18.899999678134918 87.499998509883881 33.59999942779541 135.79999768733978 28.699999511241913 87.499998509883881 73.49999874830246 29.399999499320984 32.199999451637268 59.499998986721039 65.099998891353607 120.39999794960022 23.099999606609344 52.499999105930328 125.99999785423279 34.299999415874481 32.899999439716339 93.79999840259552 27.999999523162842 70.699998795986176 64.399998903274536 48.299999177455902 101.4999982714653 144.89999753236771
leaf_count=74 37 97 22 97 83 72 93 26 24 76 23 135 106 97 181 47 45 98 107 115 69 233 21 96 40 161 57 20 47 123 125 209 24 28 333 150 114 112 79 27 125 48 194 41 125 105 42 46 85 93 172 33 75 180 49 47 134 40 101 92 69 145 207
internal_value=0.00107262 -0.478543 0.217733 0.0965502 -0.264988 -0.0226609 0.346137 -0.641802 -0.5904 0.271453 0.428613 0.23901 -0.474818 -0.123768 0.231682 0.285139 -0.074549 -0.688502 -0.0820888 -0.116336 0.129991 0.384879 0.21806 -0.420445 0.134398 -0.646248 -0.269645 -0.35859 0.260341 0.453653 0.0808652 0.234487 0.349454 -0.819747 0.281409 -0.480589 -0.0240254 -0.149713 0.553595 -0.334384 0.178326 -0.164418 -0.661769 -0.803711 -0.572606 0.461958 0.0863566 0.0276425 0.173698 0.432925 0.364236 0.0631373 -0.141612 0.292243 -0.387089 0.155564 -0.857417 -0.105861 0.213505 0.0477988 -0.0585183 0.520288 0.308156
internal_weight=4179.7 1300.6 2879.1 1481.2 563.5 806.4 1397.9 737.1 571.9 733.6 664.3 674.8 268.1 485.1 606.9 468.3 295.4 362.6 377.3 234.5 321.3 492.1 253.4 209.3 206.5 265.3 107.8 122.5 518.7 167.3 202.3 238.7 324.8 165.2 392 123.2 203 174.3 172.2 86.1 146.3 166.6 248.5 97.3 145.6 126.7 60.9 60.2 92.4 151.2 214.9 88.2 133 359.1 108.5 120.4 113.4 95.9 119 151.9 128.1 116.9 161.7
internal_count=5971 1858 4113 2116 805 1152 1997 1053 817 1048 949 964 383 693 867 669 422 518 539 335 459 703 362 299 295 379 154 175 741 239 289 341 464 236 560 176 290 249 246 123 209 238 355 139 208 181 87 86 132 216 307 126 190 513 155 172 162 137 170 217 183 167 231
is_linear=0
shrinkage=0.05


Tree=3
num_leaves=64
num_cat=0
split_feature=5 5 6 163 163 2 162 21 163 19 182 19 6 0 163 163 6 182 124 5 11 110 19 19 105 19 2 19 11 161 80 19 3 6 29 120 6 163 87 57 30 6 56 6 124 89 123 20 124 161 183 3 137 163 6 21 163 182 122 6 19 182 113
split_gain=156067 17099.2 15840.5 9552.57 8227.42 3977.11 3364.01 2619.6 3406.44 1948.61 1309.4 1267.9 1204.56 1095.97 1085.85 855.718 769.213 635.842 512.79 495.807 464.799 443.924 422.743 417.131 364.93 299.119 277.755 257.433 249.814 237.139 222.626 217.671 210.727 207.434 185.069 180.299 173.479 165.827 158.964 153.206 146.632 146.533 140.053 140.044 122.942 108.64 108.494 105.9 101.339 94.4315 94.279 91.9361 86.8753 83.0824 79.0127 73.0674 72.9457 71.6717 64.9863 61.3566 61.2143 59.3256 58.1785
threshold=12.894999980926515 6.555000066757203 25.365000724792484 34.789999008178718 34.104999542236335 15.704999923706056 34.954999923706062 0.59499999880790722 22.704999923706058 41.614999771118171 -16.127278499999999 21.569999694824222 19.73499965667725 13.305000305175783 30.675000190734867 23.714999198913578 14.425000190734865 53.161420000000014 4.4649999141693124 17.474999427795414 93.844997406005874 9.3800001144409197 7.9949998855590829 35.854999542236335 13.355000019073488 29.875000000000004 12.875000000000002 37.924999237060554 87.58499908447267 39.524999618530281 -0.93000000715255726 36.664999008178718 3.4750000238418584 22.144999504089359 0.35499954223632818 2.185000061988831 22.664999961853031 37.764999389648445 -0.17499971389770505 -0.010000124573707579 -0.25999975204467768 8.1649999618530291 0.1300005912780762 17.170000076293949 2.8349999189376835 0.62500000000000011 16.295000076293949 12.015000343322756 10.980000019073488 41.895000457763679 106.56525350000001 1.9750000238418581 92.225002288818374 30.554999351501468 10.534999847412111 8.9049997329711932 37.414999008178718 51.990584000000005 22.494999885559086 21.899999618530277 39.23500061035157 61.778613000000007 -10.874999999999998
decision_type=2 2 2 2 2 2 2 2 2 2 2 2 2 2 2 2 2 2 2 2 2 2 2 2 2 2 2 2 2 2 2 2 2 2 2 2 2 2 2 2 2 2 2 2 2 2 2 2 2 2 2 2 2 2 2 2 2 2 2 2 2 2 2
left_child=1 7 3 12 16 13 10 35 22 14 42 38 24 25 45 52 18 28 -3 36 27 57 39 30 44 -5 60 -12 -10 33 -7 -28 -22 53 -19 -1 40 -21 -6 -9 -15 -24 -4 -26 -2 -8 54 -29 -18 -11 -40 -33 -14 -17 -20 -39 -25 -13 -34 -54 -16 -37 -30
right_child=2 4 6 5 11 23 9 8 17 49 20 21 15 19 26 29 48 34 46 37 32 -23 41 56 43 -27 31 47 62 -31 -32 51 58 -35 -36 61 -38 55 50 -41 -42 -43 -44 -45 -46 -47 -48 -49 -50 -51 -52 -53 59 -55 -56 -57 -58 -59 -60 -61 -62 -63 -64
leaf_value=-0.70449191521165344 0.27288828514924179 0.0031229645626290399 0.56487473268732724 -0.32170333516092531 -0.41115934009987348 0.16519561049657291 0.091408411244471147 -0.59523152484737885 -0.39901522055719957 0.49013964380034142 0.62316084659683135 -0.31862853470611086 0.38905432698604059 -0.072452014997522879 0.10495831625040788 0.23602834844113516 0.15245360818080364 -0.67608616693206802 -0.17147944408978685 0.047510179684615995 0.36927802933154186 -0.06608102583171685 -0.34803650118702484 0.25457134556504785 -0.031471297199612322 -0.14691426636500318 0.16022474623997698 0.44426118974593776 -0.56126722407026242 0.0099463592247683533 0.041931850901970408 0.33842032033857294 0.37091764409335914 0.26171722019760874 -0.77534763933930773 -0.73846579401491586 -0.04965526349359408 -0.080386349370098101 -0.61546374286097083 -0.43793613464382947 -0.19114489833325696 -0.1808986672412308 0.47521766035793461 0.10114963903379204 0.15649946694831457 -0.02833349949755682 -0.2374683532167759 0.36249578048778347 0.024517895065422964 0.39925340055147923 -0.52792359572716707 0.26375534881167884 0.28237957286869797 0.1314231938375639 -0.090022782985654151 -0.0077914789953106222 0.16683767565305271 -0.39667980345319026 0.27849541281484869 0.35154255308258386 0.1924665760392219 -0.83068246930754486 -0.62882091079824098
leaf_weight=52.499999105930328 29.399999499320984 74.199998736381531 88.899998486042023 67.19999885559082 18.899999678134918 49.699999153614044 65.799998879432678 18.199999690055847 16.799999713897705 48.299999177455902 15.399999737739561 51.099999129772186 79.799998641014099 34.299999415874481 25.899999558925629 27.299999535083771 33.59999942779541 112.69999808073044 66.499998867511749 59.499998986721039 159.5999972820282 13.999999761581419 70.699998795986176 38.499999344348907 32.899999439716339 38.499999344348907 48.299999177455902 92.399998426437378 51.099999129772186 13.999999761581419 139.29999762773514 46.89999920129776 21.699999630451202 132.9999977350235 80.49999862909317 20.999999642372131 44.799999237060547 87.499998509883881 55.299999058246613 103.59999823570251 107.79999816417694 16.099999725818634 85.399998545646667 50.399999141693115 99.399998307228088 26.5999995470047 32.899999439716339 69.299998819828033 28.699999511241913 69.999998807907104 69.299998819828033 340.8999941945076 54.599999070167542 62.299998939037323 53.89999908208847 57.399999022483826 61.599998950958252 69.299998819828033 153.99999737739563 77.699998676776886 87.499998509883881 102.89999824762344 84.699998557567596
leaf_count=75 42 106 127 96 27 71 94 26 24 69 22 73 114 49 37 39 48 161 95 85 228 20 101 55 47 55 69 132 73 20 199 67 31 190 115 30 64 125 79 148 154 23 122 72 142 38 47 99 41 100 99 487 78 89 77 82 88 99 220 111 125 147 121
internal_value=0.00101306 -0.454407 0.205368 0.0883857 -0.248544 -0.0294039 0.322351 -0.614325 -0.560927 0.24989 0.402566 -0.442922 0.22851 -0.115179 0.215525 0.274924 -0.062148 -0.657188 -0.104776 -0.076589 0.362298 -0.332567 -0.401352 0.118054 0.130323 -0.258038 0.242191 0.427823 -0.5809 0.209547 0.0743457 0.260319 0.327689 0.222101 -0.717445 -0.782148 -0.135447 -0.02277 -0.54628 -0.46144 -0.162495 -0.317035 0.520946 0.0487699 0.183066 0.0569373 -0.157001 0.409219 0.0935169 0.436361 -0.566776 0.272785 0.347852 0.163295 -0.135013 -0.051629 0.200581 -0.363553 0.28991 0.322999 0.17248 -0.815053 -0.603401
internal_weight=4192.3 1298.5 2893.8 1446.9 567.7 786.1 1446.9 730.8 554.4 760.2 686.7 277.9 660.8 497 641.9 448.7 289.8 345.8 227.5 391.3 512.4 134.4 208.6 289.1 212.1 105.7 549.5 177.1 152.6 236.6 189 436.1 335.3 222.6 193.2 176.4 186.9 204.4 143.5 121.8 142.1 86.8 174.3 83.3 128.8 92.4 153.3 161.7 62.3 118.3 124.6 387.8 212.1 89.6 120.4 144.9 100.1 120.4 175.7 132.3 113.4 123.9 135.8
internal_count=5989 1855 4134 2067 811 1123 2067 1044 792 1086 981 397 944 710 917 641 414 494 325 559 732 192 298 413 303 151 785 253 218 338 270 623 479 318 276 252 267 292 205 174 203 124 249 119 184 132 219 231 89 169 178 554 303 128 172 207 143 172 251 189 162 177 194
is_linear=0
shrinkage=0.05


Tree=4
num_leaves=64
num_cat=0
split_feature=5 5 6 163 163 2 160 21 163 19 6 19 5 161 89 163 182 163 19 182 108 19 161 106 6 89 163 106 6 98 6 123 2 163 116 120 19 57 161 6 69 6 6 6 6 123 155 6 19 6 123 5 128 89 89 16 12 138 12 163 63 11 163
split_gain=142355 15016.4 14113.6 8137.98 7159.12 4402.46 2494.64 2360.66 3052.15 1199.97 1057.38 1042.96 1036.34 1024 1016.55 905.877 575.173 519.79 486.461 419.829 351.13 332.276 330.588 321.894 321.749 318.253 311.69 299.767 295.571 240.055 224.909 203.816 192.708 183.505 183.223 174.09 161.907 137.799 130.691 128.591 127.296 117.448 113.408 99.5823 96.5246 91.6902 90.8107 93.4123 90.2613 90.2483 83.7913 82.5014 82.0423 75.9628 75.8914 75.4807 72.8246 70.5941 67.7671 67.731 66.58 64.848 64.7511
threshold=12.734999656677248 6.555000066757203 25.554999351501468 34.789999008178718 34.104999542236335 14.734999656677248 6.2750000953674325 0.59499999880790722 22.704999923706058 40.82500076293946 19.314999580383304 21.569999694824222 15.375000000000002 39.594999313354499 -0.91500091552734364 23.714999198913578 57.795225000000009 7.1749999523162851 35.854999542236335 53.161420000000014 25.569999694824222 7.9949998855590829 33.635000228881843 -14.894999980926512 14.425000190734865 -0.89999771118164051 30.675000190734867 24.355000495910648 29.304999351501468 -0.40999937057495112 21.175000190734867 29.855000495910648 2.304999947547913 37.944999694824226 16.789999961853031 2.185000061988831 33.854999542236335 -0.075000762939453111 39.795000076293952 8.1649999618530291 0.0099999979138374346 15.394999980926515 30.675000190734867 7.055000066757203 15.394999980926515 29.035000801086429 0.23499999940395358 21.899999618530277 36.664999008178718 27.904999732971195 16.295000076293949 7.8650000095367441 39.519998550415046 -0.88500213623046864 -0.65499877929687489 0.12499999627470972 2.2549999952316289 93.295001983642592 1.5049999952316286 30.554999351501468 -0.014999389648437498 86.405002593994155 38.815000534057624
decision_type=2 2 2 2 2 2 2 2 2 2 2 2 2 2 2 2 2 2 2 2 2 2 2 2 2 2 2 2 2 2 2 2 2 2 2 2 2 2 2 2 8 2 2 2 2 2 10 2 2 2 2 2 2 2 2 2 2 2 2 2 2 2 2
left_child=1 7 3 10 17 12 14 35 21 13 23 40 32 34 31 46 25 44 29 33 -17 37 49 -2 50 -10 58 56 38 -7 -22 61 -5 60 -8 -1 54 -9 55 -23 53 -25 -11 -18 -3 -44 -12 -48 -36 -16 51 -19 -30 -6 -35 -24 -13 -27 -15 -32 -14 -4 -20
right_child=2 4 6 5 11 18 9 8 16 42 15 27 19 26 22 20 43 24 62 -21 30 39 28 41 -26 57 -28 -29 52 -31 59 -33 -34 36 48 -37 -38 -39 -40 -41 -42 -43 45 -45 -46 -47 47 -49 -50 -51 -52 -53 -54 -55 -56 -57 -58 -59 -60 -61 -62 -63 -64
leaf_value=-0.66725559727078521 0.18574567886247695 0.010565287877346539 0.55532721061463952 -0.29684030768908637 -0.39739477197695833 0.16131585799607259 0.32634031557202559 -0.56425701545971385 -0.43703821582962932 0.33965707468359402 0.40236828194972935 -0.31891471244624603 0.055149827632873266 0.0030226688667417795 0.36993143422638441 -0.023209660789109313 -0.76207737455228797 -0.17546995787788341 0.22161486963952717 -0.21171594445616335 0.13122829892037607 -0.33190844762712085 0.37199553924070877 -0.062400474802093424 0.039088075771907232 -0.57099331026329647 0.18181851215296996 -0.099867796682763049 0.4422823140136154 0.04201718162195249 0.26431411608399391 0.33288746633517191 -0.17682500264308851 -0.15205278269103095 0.14568569936178435 -0.7764100561360695 -0.0015866300489185932 -0.40926938534971574 0.12025534228710877 -0.17640189914025409 -0.59880525434995524 0.07998546357358266 0.50012991838862231 -0.65457970611451821 0.14430080720276459 0.3861446688834852 0.27212823535468761 0.34313949690845424 0.25843485477270983 0.43935849655503784 -0.22977099046172658 -0.090878408172358927 0.34234667617599396 -0.50982296684314776 -0.075407403922630165 0.26135979319444375 -0.40978142418186403 -0.62717393308322666 0.097844300375622945 0.20415576817806899 -0.03468138918720505 0.48751279000453229 0.1487315118347253
leaf_weight=51.099999129772186 88.899998486042023 83.299998581409454 62.299998939037323 60.899998962879181 18.199999690055847 57.399999022483826 111.2999981045723 16.799999713897705 32.199999451637268 55.299999058246613 34.999999403953552 73.49999874830246 47.599999189376831 32.899999439716339 121.09999793767929 17.499999701976776 65.099998891353607 48.999999165534973 84.699998557567596 44.099999248981476 69.299998819828033 63.699998915195465 18.199999690055847 17.499999701976776 29.399999499320984 93.099998414516449 144.89999753236771 13.999999761581419 32.199999451637268 158.89999729394913 101.4999982714653 16.799999713897705 74.199998736381531 45.499999225139618 18.899999678134918 128.09999781847 60.899998962879181 97.999998331069946 14.69999974966049 16.799999713897705 36.399999380111694 83.999998569488525 30.799999475479126 32.199999451637268 16.099999725818634 41.299999296665192 76.999998688697815 116.19999802112579 291.89999502897263 76.299998700618744 23.099999606609344 69.999998807907104 56.699999034404755 86.099998533725739 111.2999981045723 100.79999828338623 31.499999463558197 139.99999761581421 44.099999248981476 86.79999852180481 36.399999380111694 81.199998617172241 47.599999189376831
leaf_count=73 127 119 89 87 26 82 159 24 46 79 50 105 68 47 173 25 93 70 121 63 99 91 26 25 42 133 207 20 46 227 145 24 106 65 27 183 87 140 21 24 52 120 44 46 23 59 110 166 417 109 33 100 81 123 159 144 45 200 63 124 52 116 68
internal_value=-6.75014e-06 -0.441398 0.194627 0.0902655 -0.238572 -0.015423 0.312229 -0.587402 -0.53669 0.253315 0.216644 -0.426151 -0.113495 0.225578 0.390544 0.254612 -0.622518 -0.0587475 0.119869 -0.0676166 0.193517 -0.377338 0.349661 0.116279 -0.111475 -0.584382 0.13862 -0.317197 0.307887 0.0736757 0.20824 0.497663 -0.230925 -0.0465533 0.271292 -0.745284 -0.0707757 -0.431951 0.260906 -0.299455 -0.5183 0.0554362 0.393523 -0.726503 0.0322267 0.434837 0.328263 0.314838 0.251578 0.396767 -0.142627 -0.12571 0.378544 -0.490205 -0.0976483 0.278281 -0.346175 -0.604735 0.0573296 0.236583 0.016223 0.516954 0.195392
internal_weight=4142.6 1267.7 2874.9 1523.2 530.6 829.5 1351.7 737.1 557.9 771.4 693.7 259.7 480.9 644 580.3 503.3 362.6 270.9 348.6 345.8 275.1 195.3 420 190.4 171.5 265.3 221.9 119 222.6 216.3 257.6 160.3 135.1 301.7 422.1 179.2 217.7 114.8 133.7 80.5 140.7 101.5 127.4 97.3 99.4 72.1 228.2 193.2 310.8 197.4 142.1 119 88.9 104.3 156.8 119 105 233.1 77 188.3 84 143.5 132.3
internal_count=5918 1811 4107 2176 758 1185 1931 1053 797 1102 991 371 687 920 829 719 518 387 498 494 393 279 600 272 245 379 317 170 318 309 368 229 193 431 603 256 311 164 191 115 201 145 182 139 142 103 326 276 444 282 203 170 127 149 224 170 150 333 110 269 120 205 189
is_linear=0
shrinkage=0.05


Tree=5
num_leaves=64
num_cat=0
split_feature=5 5 6 163 163 2 162 21 163 19 182 19 0 6 2 163 182 6 5 11 124 163 19 104 19 124 11 6 9 19 19 6 120 5 89 6 19 163 30 115 57 19 124 137 6 183 108 6 10 161 182 6 9 82 5 123 12 21 183 183 6 19 123
split_gain=128762 13681.4 13398.2 7948.04 6936.27 3522.98 2704.72 2069.67 2769.95 1639.1 1120.45 975.261 903.681 883.044 872.258 737.549 528.637 506.465 441.942 403.309 392.427 329.99 305.541 300.065 272.569 253.085 252.987 224.284 192.781 191.69 190.43 184.156 165.989 158.93 140.309 140.055 136.448 129.66 119.202 118.554 116.795 110.872 103.164 101.049 98.7719 92.5043 87.1503 84.9927 83.1568 79.9423 77.9205 100.638 72.493 70.481 67.021 63.7153 63.5138 62.991 58.5766 52.2756 51.9677 48.8588 48.8355
threshold=12.734999656677248 6.555000066757203 25.365000724792484 34.789999008178718 34.104999542236335 15.704999923706056 34.954999923706062 0.59499999880790722 22.704999923706058 41.614999771118171 -16.127278499999999 21.569999694824222 13.494999885559084 19.435000419616703 12.144999980926515 23.714999198913578 57.795225000000009 14.425000190734865 17.664999961853031 93.844997406005874 4.4649999141693124 37.225000381469734 8.3550000190734881 20.474999427795414 29.875000000000004 18.675000190734867 87.58499908447267 26.724999427795414 5.4949998855590829 36.664999008178718 37.924999237060554 23.724999427795414 2.185000061988831 21.204999923706058 -0.93499755859374989 31.265000343322757 33.254999160766609 37.805000305175788 -0.26999902725219721 -2.1750000715255733 -0.2150001525878906 33.854999542236335 2.8349999189376835 93.625000000000014 7.055000066757203 106.56525350000001 -3.7050000429153438 15.394999980926515 0.51499998569488536 41.895000457763679 65.88212750000001 21.899999618530277 4.6250000000000009 0.014999389648437502 15.114999771118166 21.775000572204593 2.2549999952316289 8.8750000000000018 109.65941300000001 109.65941300000001 9.5399999618530291 34.315000534057624 17.219999313354496
decision_type=2 2 2 2 2 2 2 2 2 2 2 2 2 2 2 2 2 2 2 2 2 2 2 2 2 2 2 2 2 2 2 2 2 2 2 2 2 2 2 2 2 2 2 2 2 2 2 2 2 2 2 2 2 2 2 2 2 2 2 2 2 2 2
left_child=1 7 3 13 17 12 10 32 22 14 35 34 24 25 27 50 26 20 36 30 60 -7 40 56 -5 42 -10 -8 -21 -16 -12 53 -1 39 -6 61 38 -20 -14 -17 -9 -41 -2 -28 -18 -36 -22 -19 -24 -11 51 -15 -31 -23 -27 -32 -13 -39 -29 -44 -3 -4 -30
right_child=2 4 6 5 11 21 9 8 16 49 19 23 18 15 29 33 44 47 37 28 46 31 48 -25 -26 54 43 58 62 52 55 -33 -34 -35 45 -37 -38 57 -40 41 -42 -43 59 -45 -46 -47 -48 -49 -50 -51 -52 -53 -54 -55 -56 -57 -58 -59 -60 -61 -62 -63 -64
leaf_value=-0.63200812905189196 0.24894105644271664 -0.068614138660501395 0.35735847634079349 -0.29242446971662506 -0.37146760772752097 0.2173727242502318 0.028447575347742213 -0.52499314112310991 -0.35817299406234776 0.44465344435048676 0.55725882599856502 -0.30589939040780578 -0.060478406376887228 0.25697616167665244 0.14270255762541678 0.017723557734677754 -0.72303630220951876 0.014618040772846012 0.042753960508467984 0.33381111740744318 -0.090395306473850884 0.092787527374143169 -0.32268484838524941 -0.085762991407309114 -0.1295797959786707 -0.034196859291467957 -0.5307057645697103 0.12231906645022453 0.34082930015659274 0.30511505163531116 0.39913374324552497 0.13308687020104296 -0.73787222750176817 0.2408758502155687 -0.55688486767119993 0.53847891966749806 -0.049294939533484461 -0.075756689545482883 -0.16986155158095639 0.13893688726840273 -0.38643729144535777 0.23368294399617406 0.10055032101030247 -0.59675367206254337 -0.61472554319055317 -0.47302104367159004 -0.16693560623853687 0.13313827826531066 -0.21101147153851199 0.3622386286225146 0.40929418404506007 0.33143671450788481 0.23843808762531271 0.018450001879230876 0.076453577235846254 0.3350415438841865 -0.38713261139618688 -0.0072852109839165752 0.19526162178986256 0.17065004083060153 0.026137547152701501 0.45464634135764143 0.25120698065127284
leaf_weight=53.199999094009399 24.499999582767487 19.599999666213989 14.69999974966049 69.999998807907104 20.999999642372131 57.399999022483826 61.599998950958252 17.499999701976776 15.399999737739561 50.399999141693115 15.399999737739561 76.999998688697815 31.499999463558197 70.699998795986176 50.399999141693115 13.999999761581419 69.999998807907104 32.899999439716339 60.899998962879181 174.99999701976776 60.19999897480011 50.399999141693115 38.499999344348907 13.999999761581419 40.599999308586121 23.799999594688416 104.29999822378159 92.399998426437378 16.799999713897705 46.199999213218689 95.899998366832733 107.79999816417694 121.79999792575836 87.499998509883881 59.499998986721039 55.999999046325684 46.89999920129776 74.899998724460602 118.99999797344208 93.099998414516449 116.19999802112579 46.199999213218689 53.89999908208847 130.19999778270721 30.099999487400055 73.49999874830246 97.299998342990875 27.999999523162842 29.399999499320984 70.699998795986176 19.599999666213989 126.69999784231186 346.49999409914017 86.79999852180481 32.199999451637268 65.099998891353607 34.999999403953552 60.899998962879181 39.199999332427979 52.499999105930328 55.299999058246613 105.69999819993973 159.5999972820282
leaf_count=76 35 28 21 100 30 82 88 25 22 72 22 110 45 101 72 20 100 47 87 250 86 72 55 20 58 34 149 132 24 66 137 154 174 125 85 80 67 107 170 133 166 66 77 186 43 105 139 40 42 101 28 181 495 124 46 93 50 87 56 75 79 151 228
internal_value=0.00202221 -0.411784 0.186654 0.0790686 -0.229169 -0.0254905 0.293518 -0.555871 -0.50834 0.227934 0.364058 -0.407168 -0.106351 0.209966 0.195845 0.247356 -0.593376 -0.0592406 -0.0709075 0.327596 -0.0928746 0.109464 -0.360707 -0.304005 -0.232646 0.118383 -0.554485 0.107189 0.296629 0.234501 0.389285 0.0841825 -0.70569 0.187109 -0.491575 0.473153 -0.123762 -0.0178654 -0.146967 0.156421 -0.404573 0.17036 0.156439 -0.567377 -0.690467 -0.510539 -0.13768 0.0691101 -0.274331 0.396538 0.314209 0.304768 0.246282 0.0457577 0.0294271 0.373218 -0.331285 -0.0450504 0.144047 0.135139 0.00134271 0.442768 0.259742
internal_weight=4213.3 1299.9 2913.4 1451.8 573.3 807.1 1461.6 726.6 551.6 757.4 704.2 280 504.7 644.7 636.3 457.8 350 293.3 394.1 527.8 232.4 302.4 201.6 126 110.6 186.9 249.9 193.2 351.4 443.1 176.4 245 175 240.8 154 176.4 197.4 196.7 150.5 153.3 133.7 139.3 130.9 234.5 100.1 133 157.5 60.9 67.9 121.1 217 197.4 392.7 137.2 56 161 112 135.8 131.6 106.4 74.9 120.4 176.4
internal_count=6019 1857 4162 2074 819 1153 2088 1038 788 1082 1006 400 721 921 909 654 500 419 563 754 332 432 288 180 158 267 357 276 502 633 252 350 250 344 220 252 282 281 215 219 191 199 187 335 143 190 225 87 97 173 310 282 561 196 80 230 160 194 188 152 107 172 252
is_linear=0
shrinkage=0.05


Tree=6
num_leaves=64
num_cat=0
split_feature=5 6 5 163 163 2 162 19 163 19 6 182 6 163 19 5 163 6 182 1 124 182 124 11 19 2 162 163 121 19 112 163 19 52 5 69 124 155 2 163 19 5 10 114 121 20 89 91 19 6 161 11 6 17 89 5 163 140 19 164 66 182 63
split_gain=117117 12081.1 11909.1 7353.65 6248.72 3179.45 2457.38 1813.82 2451.25 1519.89 926.949 899.838 877.045 837.091 630.825 596.103 565.929 541.107 529.475 412.24 340.635 310.209 296.959 284.186 230.523 230.08 219.695 206.538 193.704 191.998 172.355 140.195 187.673 131.978 123.572 112.953 108.727 105.396 98.5087 96.1411 93.2367 92.8858 85.1942 84.1841 82.7182 82.2132 80.3335 79.7941 81.5583 75.4724 72.2133 71.0658 63.5144 62.8868 61.8504 60.4029 58.0298 57.2544 56.9307 56.5593 56.5346 55.1544 46.2901
threshold=12.734999656677248 25.365000724792484 6.3350000381469735 34.789999008178718 34.104999542236335 11.194999694824221 34.954999923706062 3.304999947547913 22.704999923706058 41.614999771118171 19.73499965667725 -16.127278499999999 14.690000057220461 30.675000190734867 32.764999389648445 14.84500026702881 23.714999198913578 14.425000190734865 57.795225000000009 0.44499999284744268 4.4649999141693124 57.795225000000009 18.675000190734867 87.58499908447267 36.07500076293946 4.9449999332427987 23.724999427795414 37.414999008178718 5.5950000286102304 7.9949998855590829 6.1849999427795419 37.375000000000007 33.395000457763679 0.54000043869018566 21.204999923706058 0.0099999979138374346 2.8349999189376835 0.58499997854232799 2.304999947547913 39.545000076293952 41.094999313354499 26.954999923706058 0.51499998569488536 -2.8249999284744258 9.7049999237060565 15.204999923706056 0.63000106811523449 0.0099998712539672869 33.854999542236335 5.2950000762939462 41.895000457763679 92.534999847412124 15.550000190734865 0.57499998807907116 -0.89000320434570301 0.41499999165534979 37.895000457763679 2.0249999761581425 19.474999427795414 -23.105000495910641 2.2000026702880864 14.734569500000001 -0.2150001525878906
decision_type=2 2 2 2 2 2 2 2 2 2 2 2 2 2 2 2 2 2 2 2 2 2 2 2 2 2 2 2 2 2 2 2 2 2 2 8 2 10 2 2 2 2 2 2 2 2 2 2 2 2 2 2 2 10 2 2 2 2 2 2 2 2 2
left_child=2 3 7 10 17 15 11 28 29 13 22 40 35 46 33 38 53 20 23 59 -4 31 36 -10 -15 57 -21 -16 55 60 -26 -17 -33 56 47 54 -2 61 -5 -29 -3 -32 -31 -25 51 -24 -8 48 -18 -20 -11 -22 -19 -12 -6 -1 -7 -14 -46 -13 -9 -28 -40
right_child=1 6 4 5 12 14 9 8 18 50 16 19 25 24 27 21 34 52 49 26 44 -23 45 43 30 -27 37 39 -30 42 41 32 -34 -35 -36 -37 -38 -39 62 -41 -42 -43 -44 -45 58 -47 -48 -49 -50 -51 -52 -53 -54 -55 -56 -57 -58 -59 -60 -61 -62 -63 -64
leaf_value=-0.63425753946113128 0.23580269209155047 0.41759205171350039 0.0011336562247266516 -0.281722198129646 -0.35882420776272173 0.057230648199269388 0.075525177689897527 -0.41170317088962521 -0.33408321567037841 0.42073428507193422 0.32654451970021003 0.53339696334260989 -0.29317365569652548 0.091894629717169454 0.21008561537525117 -0.0062996458704291441 0.13879098221954442 0.030826660830502613 -0.6990884991338826 0.35061580281652882 -0.064936773102025572 -0.24362576113100698 -0.061481173798121284 -0.4870791534605145 0.15283991611345449 -0.10820305531711333 0.24482460930881331 0.11924166255942668 -0.70348348492112556 -0.31856203314247267 0.2210194670727349 -0.13050339658952334 -0.02840691068341571 -0.11315364346958703 0.22805041598585452 -0.53737031675716951 0.12883390741342546 0.24744051360258512 -0.24631704667608592 0.03643712408658447 0.49440832298837939 0.28707148396363458 -0.20889178678088993 -0.5565414319130596 -0.21101109019696099 0.05943969078701708 -0.028122309031472906 0.043468750435757604 0.22426070665660311 -0.61250928016596873 0.34364563026565453 -0.14891021797897483 0.13668902654872425 0.27205419033292005 -0.46159342797259656 -0.53220306829990682 -0.0091196139907591955 -0.37085223495575026 -0.10565656095878802 0.4121716554923972 -0.33937293986939893 0.31795244566278058 -0.14774225755735357
leaf_weight=37.099999368190765 30.099999487400055 97.299998342990875 65.099998891353607 52.499999105930328 17.499999701976776 50.399999141693115 67.19999885559082 66.499998867511749 18.199999690055847 52.499999105930328 91.699998438358307 18.899999678134918 70.699998795986176 39.199999332427979 52.499999105930328 56.699999034404755 86.099998533725739 33.59999942779541 55.299999058246613 154.6999973654747 51.099999129772186 30.799999475479126 19.599999666213989 58.099999010562897 85.399998545646667 14.69999974966049 31.499999463558197 132.9999977350235 122.49999791383743 50.399999141693115 365.39999377727509 130.89999777078629 68.599998831748962 23.799999594688416 92.399998426437378 47.599999189376831 112.69999808073044 149.7999974489212 18.899999678134918 47.599999189376831 66.499998867511749 62.299998939037323 27.299999535083771 174.99999701976776 43.399999260902405 49.699999153614044 25.899999558925629 14.69999974966049 41.299999296665192 46.199999213218689 72.099998772144318 49.699999153614044 24.499999582767487 125.29999786615372 89.599998474121094 23.799999594688416 95.199998378753662 35.699999392032623 18.199999690055847 19.599999666213989 45.499999225139618 142.09999758005142 32.199999451637268
leaf_count=53 43 139 93 75 25 72 96 95 26 75 131 27 101 56 75 81 123 48 79 221 73 44 28 83 122 21 45 190 175 72 522 187 98 34 132 68 161 214 27 68 95 89 39 250 62 71 37 21 59 66 103 71 35 179 128 34 136 51 26 28 65 203 46
internal_value=-0.000535465 0.175279 -0.397576 0.0735719 -0.224645 -0.0291884 0.277428 -0.531318 -0.485364 0.21625 0.196386 0.346663 -0.394396 0.185384 0.0694316 -0.130813 0.236889 -0.0607195 -0.563299 0.314285 -0.0954995 -0.093702 0.110167 -0.524371 0.208763 -0.29362 0.30161 0.122793 -0.667253 -0.340422 0.217692 -0.0756784 -0.0953965 -0.00399539 0.183039 -0.473284 0.151381 0.278168 -0.233621 0.0974172 0.448778 0.230641 -0.280029 -0.539228 -0.134236 0.0252399 0.0466909 0.153771 0.166498 -0.65968 0.376127 -0.10634 0.0754674 0.295081 -0.444801 -0.594374 0.0138478 -0.319237 -0.179884 0.471682 -0.382319 0.304683 -0.184201
internal_weight=4194.4 2907.1 1287.3 1456.7 561.4 793.1 1450.4 725.9 542.5 770 663.6 680.4 275.8 645.4 402.5 390.6 451.5 285.6 352.8 516.6 227.5 287 212.1 251.3 552.3 121.1 478.1 233.1 183.4 189.7 513.1 256.2 199.5 169.4 234.5 154.7 142.8 323.4 103.6 180.6 163.8 427.7 77.7 233.1 162.4 69.3 93.1 142.1 127.4 101.5 124.6 100.8 58.1 217 107.1 60.9 145.6 106.4 61.6 38.5 112 173.6 51.1
internal_count=5992 4153 1839 2081 802 1133 2072 1037 775 1100 948 972 394 922 575 558 645 408 504 738 325 410 303 359 789 173 683 333 262 271 733 366 285 242 335 221 204 462 148 258 234 611 111 333 232 99 133 203 182 145 178 144 83 310 153 87 208 152 88 55 160 248 73
is_linear=0
shrinkage=0.05


Tree=7
num_leaves=64
num_cat=0
split_feature=5 5 6 163 163 0 162 160 6 19 182 19 182 6 163 19 124 18 0 163 106 1 163 109 109 162 6 19 19 123 154 37 163 89 163 163 19 6 124 6 19 6 17 5 0 6 37 6 182 163 98 108 106 10 12 163 162 164 37 138 37 74 139
split_gain=103056 11193.3 10372 6343.18 5271.93 3074.09 1979.15 1769.46 1325.14 1249.56 1217.57 841.741 837.678 789.462 759.075 673.757 604.849 520.514 502.418 423.161 365.613 357.909 241.79 240.014 233.775 227.676 222.642 179.65 177.676 172.12 168.383 167.169 165.469 135.533 129.832 128.343 124.789 114.459 109.502 104.963 100.495 99.2648 98.2888 92.7959 92.4798 119.697 85.3744 80.2165 75.7028 75.323 72.7937 72.343 69.3335 60.6605 59.4533 59.0517 55.2823 54.6632 51.2556 49.1591 44.0406 43.9011 43.3259
threshold=12.894999980926515 6.555000066757203 25.515000343322757 34.789999008178718 34.145000457763679 21.525000572204593 34.954999923706062 4.3750000000000009 2.0849999189376835 41.614999771118171 57.795225000000009 21.569999694824222 -16.127278499999999 18.19999980926514 31.345000267028812 32.524999618530281 15.00500011444092 5.2049999237060556 13.494999885559084 22.704999923706058 24.464999198913578 0.82499998807907116 37.414999008178718 20.175000190734867 -0.24499999731779096 23.724999427795414 21.899999618530277 29.875000000000004 7.9949998855590829 16.295000076293949 0.64499998092651378 0.50499725341796886 38.635000228881843 -0.89000320434570301 37.895000457763679 39.545000076293952 15.045000076293947 7.055000066757203 20.224999427795414 31.265000343322757 37.895000457763679 15.805000305175783 0.57499998807907116 0.41499999165534979 -18.195000648498532 21.765000343322757 0.42499923706054693 20.494999885559086 57.795225000000009 30.19999980926514 1.2200002670288088 -5.1649999618530265 18.164999961853031 0.45499999821186071 2.2549999952316289 27.494999885559086 40.82500076293946 -23.105000495910641 -0.36499786376953119 93.295001983642592 1.0000000180025095e-35 1.2299997806549074 97.24499893188478
decision_type=2 2 2 2 2 2 2 2 2 2 2 2 2 2 2 2 2 2 2 2 2 2 2 2 2 2 2 2 2 2 2 2 2 2 2 2 2 2 2 2 2 2 10 2 2 2 2 2 2 2 2 2 2 2 2 2 2 2 2 2 2 2 2
left_child=1 7 3 13 17 18 12 8 43 14 19 46 39 24 38 34 44 29 27 -9 54 57 -17 -18 -2 -23 49 -5 61 36 31 -20 50 -21 -7 -24 51 60 -8 -4 -34 -19 -27 -1 -15 -46 -6 -36 -32 -25 62 -3 -38 -30 -13 -28 -11 -14 -44 -35 -12 -10 -16
right_child=2 4 6 5 11 15 9 10 28 56 37 20 21 16 32 22 23 41 30 33 -22 25 35 26 -26 42 55 -29 53 -31 48 -33 40 59 47 -37 52 -39 -40 -41 -42 -43 58 -45 45 -47 -48 -49 -50 -51 -52 -53 -54 -55 -56 -57 -58 -59 -60 -61 -62 -63 -64
leaf_value=-0.62183513839878324 0.14000716518800313 -0.068000047891037141 0.40005239243009671 -0.26360977277210229 -0.42888278621113907 0.055673756925034838 -0.012463386983001958 -0.29689325237398045 -0.36966448215724573 0.39655697724894007 -0.63427119247507235 -0.27818557806502736 0.51228310117749554 0.38037944235514393 0.20427529833469285 0.19382278274715892 -0.033690244506559108 0.025825496178024921 -0.025290829377906551 -0.39300172754942664 -0.042112064575580366 0.33353362504153833 0.11145089712901064 0.17378592079236288 0.00095347271012269591 0.28712216451830236 0.27713791397403509 -0.12554687307981238 -0.30455277795726016 -0.19596908255933154 -0.11654204456313431 -0.16790620890147323 0.10388071553036278 -0.48876938828482724 -0.088741759748951071 0.026778478440836737 0.018313008934645044 -0.55634191037563518 0.095383853512349695 0.48970449959573731 0.19058235472141488 0.16363689289368721 0.27159844056365218 -0.5077345820523903 0.22371947858426797 0.29800457050856766 -0.53538780932575991 -0.005992926780526979 -0.22943967188153391 0.098522276676084347 0.26573455952398323 -0.14401381400990013 -0.094228518410050255 -0.21075881352328776 -0.35492983622424801 0.20224458459499597 0.32715798251243705 0.38937361319604041 0.21269849866692014 -0.53693974476508044 -0.68405429097676773 -0.28029440607844774 0.26586267560287297
leaf_weight=39.89999932050705 62.999998927116394 64.399998903274536 111.2999981045723 72.099998772144318 117.59999799728394 51.099999129772186 31.499999463558197 27.299999535083771 93.79999840259552 48.299999177455902 86.79999852180481 86.099998533725739 16.799999713897705 18.899999678134918 216.29999631643295 70.699998795986176 13.999999761581419 58.799998998641968 111.2999981045723 24.499999582767487 15.399999737739561 155.39999735355377 158.89999729394913 58.099999010562897 58.099999010562897 167.99999713897705 32.899999439716339 34.999999403953552 32.199999451637268 35.699999392032623 97.999998331069946 25.199999570846558 48.299999177455902 90.299998462200165 48.999999165534973 62.299998939037323 41.999999284744263 31.499999463558197 93.099998414516449 46.199999213218689 108.49999815225601 16.799999713897705 55.999999046325684 32.199999451637268 97.299998342990875 122.49999791383743 22.399999618530273 72.799998760223389 17.499999701976776 77.699998676776886 86.099998533725739 60.899998962879181 20.29999965429306 37.099999368190765 35.699999392032623 131.59999775886536 70.699998795986176 19.599999666213989 108.49999815225601 128.09999781847 90.999998450279236 16.099999725818634 32.899999439716339
leaf_count=57 90 92 159 103 168 73 45 39 134 69 124 123 24 27 309 101 20 84 159 35 22 222 227 83 83 240 47 50 46 51 140 36 69 129 70 89 60 45 133 66 155 24 80 46 139 175 32 104 25 111 123 87 29 53 51 188 101 28 155 183 130 23 47
internal_value=0.00152915 -0.367416 0.166912 0.0751741 -0.202608 -0.0178922 0.26386 -0.497336 -0.389866 0.206984 -0.55366 -0.35967 0.325232 0.188922 0.17836 0.0669996 0.214243 -0.0569481 -0.127772 -0.483537 -0.271657 0.294856 0.11333 0.168672 0.0732935 0.283572 0.178106 -0.218491 -0.317037 -0.09534 -0.089216 -0.0516198 0.206273 -0.504514 -0.0112186 0.0876033 -0.0761905 -0.644188 0.0681191 0.42635 0.163875 0.0564503 0.260222 -0.570878 0.274246 0.26512 -0.445924 -0.0392827 -0.133648 0.130723 0.2261 -0.104945 -0.0183578 -0.25434 -0.30068 0.217223 0.355326 0.446101 0.23275 -0.517023 -0.659751 -0.356572 0.212406
internal_weight=4222.4 1306.9 2915.5 1498 576.1 823.9 1417.5 730.8 251.3 735.7 479.5 277.2 681.8 674.1 616.7 464.8 553 298.9 359.1 270.2 137.2 524.3 291.9 314.3 121.1 487.9 300.3 107.1 179.2 223.3 252 136.5 492.1 242.9 172.9 221.2 187.6 209.3 124.6 157.5 156.8 75.6 332.5 72.1 238.7 219.8 140 121.8 115.5 135.8 335.3 125.3 62.3 69.3 121.8 164.5 119 36.4 164.5 218.4 177.8 109.9 249.2
internal_count=6032 1867 4165 2140 823 1177 2025 1044 359 1051 685 396 974 963 881 664 790 427 513 386 196 749 417 449 173 697 429 153 256 319 360 195 703 347 247 316 268 299 178 225 224 108 475 103 341 314 200 174 165 194 479 179 89 99 174 235 170 52 235 312 254 157 356
is_linear=0
shrinkage=0.05


Tree=8
num_leaves=64
num_cat=0
split_feature=5 5 6 163 124 2 162 21 163 19 106 89 0 6 2 124 19 182 6 5 19 2 19 109 166 11 6 6 183 19 80 163 19 120 6 19 108 19 162 19 98 182 163 21 16 6 0 163 161 4 112 3 37 82 37 37 6 30 182 6 63 163 163
split_gain=94941.2 10347.3 9331.53 5488.06 4896.38 2845.09 1735.44 1599.53 2126.02 1194.43 884.863 772.098 705.65 703.719 699.034 569.352 419.016 406.612 386.114 335.042 291.028 258.158 255.542 244.754 227.757 191.373 188.693 174.592 174.307 169.776 149.755 145.555 142.087 121.437 118.515 111.322 103.584 103.06 119.439 101.524 96.3967 91.1916 88.3665 84.8503 80.0928 89.4473 74.7996 71.4886 60.851 55.727 54.8189 54.6581 53.2235 50.1983 48.873 47.2734 46.1641 45.4348 43.8649 43.4169 43.1508 42.0533 41.1098
threshold=12.894999980926515 6.555000066757203 25.554999351501468 34.789999008178718 22.835000038146976 15.704999923706056 34.954999923706062 0.59499999880790722 22.704999923706058 41.614999771118171 21.219999313354496 -0.77500152587890614 13.305000305175783 18.464999198913578 12.144999980926515 15.00500011444092 15.284999847412111 54.640390500000009 14.690000057220461 18.195000648498539 35.854999542236335 17.375000000000004 8.3550000190734881 20.175000190734867 -14.969999790191649 87.58499908447267 22.144999504089359 26.724999427795414 109.65941300000001 29.875000000000004 -0.93000000715255726 22.07499980926514 39.495000839233406 2.185000061988831 8.9149999618530291 21.98499965667725 -6.7200000286102286 33.254999160766609 33.854999542236335 36.664999008178718 -0.045000076293945306 50.02926750000001 37.764999389648445 0.6850000023841859 0.95499998331069957 21.899999618530277 -10.15499973297119 30.19999980926514 41.895000457763679 -15.24499988555908 9.1449999809265154 1.9750000238418581 -0.37499999999999994 -0.71500015258789051 0.42499923706054693 0.42499923706054693 23.045000076293949 -0.26999902725219721 61.778613000000007 16.224999427795414 -0.29499816894531244 38.815000534057624 27.494999885559086
decision_type=2 2 2 2 2 2 2 2 2 2 2 2 2 2 2 2 2 2 2 2 2 2 2 2 2 2 2 2 2 2 2 2 2 2 2 2 2 2 2 2 2 2 2 2 2 2 2 2 2 2 2 2 2 2 2 2 2 2 2 2 2 2 2
left_child=1 7 3 13 16 12 11 33 22 14 18 21 29 24 27 44 36 25 41 37 30 53 43 -17 -2 -10 47 -8 32 -5 -7 35 50 -1 54 -18 -3 38 -14 -16 -12 -6 -21 -9 45 -15 -24 -25 -11 -27 -13 -41 -34 -4 -19 -43 -32 -40 -35 -20 -26 -22 -28
right_child=2 4 6 5 10 20 9 8 17 48 40 28 19 15 39 23 31 34 59 42 61 -23 46 26 60 49 62 -29 -30 -31 56 -33 52 58 -36 -37 -38 -39 57 51 -42 55 -44 -45 -46 -47 -48 -49 -50 -51 -52 -53 -54 -55 -56 -57 -58 -59 -60 -61 -62 -63 -64
leaf_value=-0.54453602167399839 0.1423747147050077 -0.04313385637056185 0.45446476565599137 -0.24965190043711427 -0.35505839266438571 0.12878715580560116 0.018057749221568335 -0.45473375981308894 -0.30429669012847443 0.37851512572116225 -0.18767601099615328 0.29696148039831688 -0.049535576556806592 0.21587776804548173 0.11552896035950665 -0.035419838477254266 0.044547819685680834 -0.57130666466380409 -0.34199899383372184 0.046734319454590251 0.17553265327765222 0.20758501551899844 -0.26359717109362185 0.16924398584606898 -0.054743244114083801 -0.43772807581571538 0.25949812052968452 0.12198037772012778 0.3346007882219677 -0.11430455112411156 0.0076863312318849316 -0.072751840307630364 0.26438072096438747 -0.56298811801569748 -0.48322143620724323 0.19740859712717529 -0.12949817745820336 -0.040545722649280053 -0.066993196849583297 0.26685233712512546 -0.037641962726490202 -0.42695749735153687 -0.031426403816419694 -0.33529939301965667 0.35897561120215554 0.28148189639340032 -0.1463621637358877 0.096471680608851959 0.30783988076809854 -0.49626111877989604 0.23185027659768107 0.20627446385017897 0.1997744975055647 0.39717180533361107 -0.63987021623375018 -0.50885280981834968 0.06431216954517141 -0.15907814917857355 -0.64581779710816534 -0.27278830997236225 0.036755491108173013 0.11677163453592664 0.19403754061094103
leaf_weight=56.699999034404755 69.299998819828033 65.799998879432678 67.899998843669891 71.399998784065247 39.199999332427979 56.699999034404755 59.499998986721039 16.799999713897705 17.499999701976776 56.699999034404755 45.499999225139618 201.59999656677246 42.699999272823334 90.999998450279236 28.699999511241913 15.399999737739561 79.799998641014099 86.79999852180481 32.899999439716339 52.499999105930328 86.79999852180481 15.399999737739561 53.89999908208847 57.399999022483826 16.799999713897705 60.19999897480011 29.399999499320984 125.99999785423279 110.59999811649323 34.299999415874481 80.49999862909317 23.099999606609344 49.699999153614044 18.899999678134918 31.499999463558197 13.999999761581419 73.49999874830246 52.499999105930328 15.399999737739561 41.999999284744263 13.999999761581419 82.599998593330383 116.19999802112579 129.49999779462814 19.599999666213989 121.09999793767929 18.199999690055847 81.899998605251312 65.799998879432678 125.29999786615372 38.499999344348907 328.29999440908432 88.899998486042023 87.499998509883881 37.099999368190765 22.399999618530273 65.099998891353607 102.89999824762344 103.59999823570251 72.799998760223389 55.299999058246613 46.89999920129776 130.19999778270721
leaf_count=81 99 94 97 102 56 81 85 24 25 81 65 288 61 130 41 22 114 124 47 75 124 22 77 82 24 86 42 180 158 49 115 33 71 27 45 20 105 75 22 60 20 118 166 185 28 173 26 117 94 179 55 469 127 125 53 32 93 147 148 104 79 67 186
internal_value=-0.00271096 -0.353542 0.158371 0.0727471 -0.191794 -0.0142834 0.253027 -0.474554 -0.434016 0.198593 -0.325663 0.311328 -0.0913889 0.17706 0.168841 0.202805 -0.0301259 -0.508951 -0.366923 -0.0597668 0.0976801 0.402854 -0.311046 0.158966 0.0776482 -0.462354 0.168981 0.0886467 0.279379 -0.205731 0.0598502 0.0396755 0.263252 -0.605036 -0.56982 0.0673629 -0.088703 -0.10138 -0.121217 0.206124 -0.152374 -0.420134 -0.00710253 -0.349014 0.262271 0.253335 -0.234004 0.126458 0.340552 -0.477265 0.286521 0.213145 0.222941 0.422205 -0.591837 -0.444428 0.0330046 -0.147091 -0.633038 -0.294331 0.0154354 0.15492 0.206096
internal_weight=4200 1321.6 2878.4 1511.3 565.6 823.9 1367.1 756 576.8 707 309.4 660.1 487.9 687.4 584.5 546 256.2 358.4 249.9 382.2 336 170.8 218.4 314.3 141.4 203 298.9 185.5 489.3 105.7 202.3 116.9 378.7 179.2 155.4 93.8 139.3 213.5 161 399 59.5 144.2 168.7 146.3 231.7 212.1 72.1 139.3 122.5 185.5 240.1 370.3 138.6 155.4 123.9 105 145.6 118.3 122.5 105.7 72.1 133.7 159.6
internal_count=6000 1888 4112 2159 808 1177 1953 1080 824 1010 442 943 697 982 835 780 366 512 357 546 480 244 312 449 202 290 427 265 699 151 289 167 541 256 222 134 199 305 230 570 85 206 241 209 331 303 103 199 175 265 343 529 198 222 177 150 208 169 175 151 103 191 228
is_linear=0
shrinkage=0.05


Tree=9
num_leaves=64
num_cat=0
split_feature=5 6 5 163 163 160 112 5 163 6 19 89 120 124 6 106 6 19 163 163 37 69 163 109 161 123 6 183 6 6 6 4 5 6 120 160 163 5 19 19 0 89 89 69 6 11 130 163 123 183 163 6 183 5 56 5 19 161 99 182 63 163 161
split_gain=85518.2 8899.79 8096.58 5803.88 4249.15 1749.76 1735.58 1308.78 1371.18 745.802 720.909 652.545 609.628 571.899 564.675 542.318 500.491 459.441 318.209 298.326 246.738 245.185 242.08 236.144 226.668 216.327 199.85 194.559 157.272 149.562 143.64 140.742 132.546 127.568 114.42 109.529 109.067 107.356 94.155 82.8334 80.0872 79.445 77.4008 72.6653 76.0999 70.5594 93.9562 70.2938 67.5467 63.7216 62.2032 59.7873 57.5598 54.9105 54.6281 50.1081 49.696 58.4614 49.5069 48.5369 45.9123 44.525 43.1659
threshold=12.434999942779543 24.954999923706058 6.555000066757203 34.789999008178718 34.104999542236335 6.4649999141693124 15.324999809265138 2.9650000333786015 24.255000114440922 18.464999198913578 40.795000076293952 -0.91500091552734364 0.11499999836087228 15.00500011444092 22.664999961853031 15.144999980926515 14.690000057220461 32.524999618530281 7.1749999523162851 38.815000534057624 -0.084999084472656236 0.040000014007091529 31.964999198913578 -0.24499999731779096 39.524999618530281 29.855000495910648 14.425000190734865 59.600963500000013 8.1649999618530291 27.134999275207523 26.884999275207523 11.894999980926515 4.1749999523162851 19.314999580383304 2.185000061988831 4.4949998855590829 29.615000724792484 20.554999351501468 37.895000457763679 39.495000839233406 -1.6499999761581419 -0.93499755859374989 0.63500213623046886 -0.094999998807907091 21.765000343322757 95.575000762939467 85.009998321533217 38.555000305175788 16.295000076293949 82.995782500000018 37.414999008178718 29.974999427795414 106.56525350000001 1.1749999523162844 -0.21499919891357419 8.0450000762939471 41.375000000000007 39.524999618530281 -1.0000000180025095e-35 50.909911500000007 0.69499969482421886 37.895000457763679 36.805000305175788
decision_type=2 2 2 2 2 2 2 2 2 2 2 2 2 2 2 2 2 2 2 2 2 10 2 2 2 2 2 2 2 2 2 2 2 2 2 2 2 2 2 2 2 2 2 10 2 2 2 2 2 2 2 2 2 2 2 2 2 2 2 2 2 2 2
left_child=2 3 7 9 18 11 14 12 28 23 15 25 -1 43 33 29 41 27 42 30 36 35 40 -2 39 -3 48 61 49 -7 62 -18 -24 59 -22 -13 53 45 -21 -23 -10 -6 -4 -11 -45 -15 -47 -19 55 -9 -35 -12 -43 -14 -25 -20 57 -37 -29 -5 -51 -8 -17
right_child=1 5 4 6 16 10 17 8 22 13 51 21 20 37 -16 19 31 47 26 38 34 24 32 54 -26 -27 -28 58 -30 -31 -32 -33 -34 50 -36 56 -38 -39 -40 -41 -42 52 -44 44 -46 46 -48 -49 -50 60 -52 -53 -54 -55 -56 -57 -58 -59 -60 -61 -62 -63 -64
leaf_value=-0.31539235444840746 0.12894532281276599 0.40102374343384917 0.056511984208241078 -0.20880924739635792 -0.30308680670618815 0.029327894923896498 0.03771971147272267 -0.35778066699471928 -0.41161960258290203 0.33859887586205706 0.23434463447824683 0.3175431813204006 -0.53192157308861665 0.18905700821134577 -0.043148921694113461 0.21511566781464811 -0.28428705165988583 0.11924236997406459 -0.1339616933893191 0.085557665868979116 -0.52032537499543741 0.27310331779894348 -0.55406316370430486 -0.059927144773773193 0.020793195154315842 0.22101834264539241 0.049280445531529112 -0.11428322986837672 -0.12669939733742641 0.12633796126087055 0.25212495783715821 -0.13020306572500148 -0.46220408747863717 -0.20400934311337715 -0.60852893621446746 0.25851202239694437 -0.55819208266101394 0.18412447551025968 0.1642244429637989 0.18930656877380786 -0.28194756724838038 -0.45338272915120054 -0.038046766515553276 0.20597155712526891 0.26773121069407202 0.11661560267438631 -0.01988276319644729 0.052130941288284049 -0.18049501260964665 -0.23326275901180049 -0.12644207034321037 0.32159476042095997 -0.38638922929395481 -0.44483690287738659 0.031456007253993161 -0.068388084502604488 0.31401284396386453 0.16081495695139608 -0.044556699866432035 -0.28847899285735856 -0.30106883266543494 -0.016377088654930018 0.17813920689843962
leaf_weight=32.199999451637268 74.199998736381531 142.79999756813049 56.699999034404755 50.399999141693115 18.199999690055847 66.499998867511749 83.299998581409454 25.199999570846558 52.499999105930328 20.999999642372131 25.199999570846558 151.89999741315842 23.799999594688416 28.699999511241913 96.599998354911804 122.49999791383743 79.799998641014099 79.099998652935028 53.199999094009399 69.999998807907104 51.799999117851257 55.999999046325684 59.499998986721039 23.099999606609344 14.69999974966049 18.899999678134918 20.999999642372131 46.199999213218689 17.499999701976776 98.699998319149017 135.09999769926071 18.199999690055847 115.49999803304672 41.999999284744263 126.69999784231186 122.49999791383743 46.89999920129776 94.499998390674591 83.299998581409454 62.299998939037323 15.399999737739561 55.299999058246613 34.999999403953552 88.199998497962952 114.79999804496765 126.69999784231186 13.999999761581419 76.999998688697815 31.499999463558197 47.599999189376831 67.19999885559082 88.899998486042023 76.299998700618744 75.599998712539673 55.999999046325684 64.399998903274536 33.59999942779541 17.499999701976776 56.699999034404755 30.799999475479126 52.499999105930328 69.999998807907104 221.89999622106552
leaf_count=46 106 204 81 72 26 95 119 36 75 30 36 217 34 41 138 175 114 113 76 100 74 80 85 33 21 27 30 66 25 141 193 26 165 60 181 175 67 135 119 89 22 79 50 126 164 181 20 110 45 68 96 127 109 108 80 92 48 25 81 44 75 100 317
internal_value=-0.00379481 0.146514 -0.348605 0.0524232 -0.195123 0.228827 -0.0472001 -0.453917 -0.39006 0.161073 0.184768 0.293622 -0.522907 0.1913 -0.141612 0.167959 -0.343525 0.0185194 -0.0546565 0.18902 -0.543479 0.263164 -0.462344 0.0648726 0.205964 0.379984 -0.0951303 -0.0226799 -0.267106 0.0872873 0.208431 -0.255671 -0.493436 -0.191567 -0.582933 0.286536 -0.495343 0.141427 0.128304 0.228974 -0.382209 -0.401 0.0204209 0.250057 0.240898 0.117608 0.103034 0.0861381 -0.11547 -0.286716 -0.156276 0.302325 -0.414541 -0.465688 0.00476889 -0.0980523 0.259406 0.2463 -0.0758625 -0.239029 -0.268825 0.013018 0.191291
internal_weight=4125.1 2872.8 1252.3 1340.5 509.6 1532.3 699.3 742.7 385.7 641.2 912.1 620.2 357 487.9 287 798 247.8 412.3 261.8 632.8 324.8 458.5 242.9 153.3 133 161.7 170.1 256.2 142.8 165.2 479.5 98 175 190.4 178.5 325.5 146.3 263.9 153.3 118.3 67.9 149.8 91.7 224 203 169.4 140.7 156.1 149.1 125.3 109.2 114.1 131.6 99.4 79.1 117.6 173.6 140 102.9 81.2 100.1 153.3 344.4
internal_count=5893 4104 1789 1915 728 2189 999 1061 551 916 1303 886 510 697 410 1140 354 589 374 904 464 655 347 219 190 231 243 366 204 236 685 140 250 272 255 465 209 377 219 169 97 214 131 320 290 242 201 223 213 179 156 163 188 142 113 168 248 200 147 116 143 219 492
is_linear=0
shrinkage=0.05


Tree=10
num_leaves=64
num_cat=0
split_feature=5 6 5 163 163 162 112 21 163 19 2 182 6 6 63 6 2 182 163 124 6 19 106 32 19 6 2 163 6 120 157 3 130 6 3 10 144 137 57 37 108 137 89 5 5 19 161 19 182 139 183 161 5 163 139 37 74 6 19 123 163 19 76
split_gain=77113.2 8407.94 7406.83 5047.96 3688.25 2512 1891.16 1256.67 1745.83 1235.82 925.091 678.87 545.651 452.704 444.512 375.393 351.118 345.122 288.83 279.216 217.318 209.004 189.23 179.423 177.584 157.449 143.578 128.746 112.755 108.004 105.459 100.689 97.318 95.5492 82.6828 81.0063 76.2853 83.6384 70.6135 70.1187 67.2497 65.7274 63.4298 59.3053 59.0968 55.7439 54.6207 53.8824 48.6794 45.8442 44.6459 42.6938 35.6618 35.4915 34.3241 34.194 32.2464 31.224 30.4646 30.1515 28.7442 38.5759 28.6021
threshold=12.434999942779543 23.804999351501468 6.555000066757203 33.924999237060554 34.145000457763679 34.954999923706062 15.704999923706056 0.59499999880790722 22.704999923706058 41.614999771118171 14.940000057220461 -16.127278499999999 18.464999198913578 14.690000057220461 -0.020000457763671872 26.994999885559086 -3.314999938011169 57.795225000000009 7.1749999523162851 15.369999885559084 19.435000419616703 36.07500076293946 -14.519999980926512 -1.0000000180025095e-35 7.9949998855590829 14.305000305175783 -25.945000648498532 37.414999008178718 26.454999923706058 2.185000061988831 0.72500002384185802 9.4149999618530291 79.540000915527358 30.954999923706058 -19.17500019073486 0.7150000035762788 4.5850000381469735 93.875000000000014 -0.075000762939453111 0.42499923706054693 -3.7050000429153438 93.625000000000014 0.63500213623046886 5.6150000095367441 20.554999351501468 38.555000305175788 41.895000457763679 34.315000534057624 50.909911500000007 96.485000610351577 109.65941300000001 36.805000305175788 0.41499999165534979 36.085000991821296 90.814998626708999 -0.11999893188476561 1.2299997806549074 21.765000343322757 23.849999427795414 16.295000076293949 39.194999694824226 36.715000152587898 1.0300004482269289
decision_type=2 2 2 2 2 2 2 2 2 2 2 2 2 2 2 2 2 2 2 2 2 2 2 2 2 2 2 2 2 2 10 2 2 2 2 2 2 2 2 2 2 2 2 2 2 2 2 2 2 2 2 2 2 2 2 2 2 2 2 2 2 2 2
left_child=2 3 7 12 18 11 20 29 24 10 15 33 22 39 30 45 26 23 42 34 48 -12 58 -10 38 40 -13 -22 51 52 -8 -15 -16 47 -14 -26 37 -18 -9 54 -20 -25 -4 -19 -21 -7 -11 -3 -5 -28 -17 -23 -1 -30 -6 -31 -40 -36 -2 -42 61 -53 -27
right_child=1 5 4 6 13 9 14 8 17 46 21 16 19 31 32 50 36 43 25 44 27 28 -24 41 35 62 49 -29 53 55 -32 -33 -34 -35 57 -37 -38 -39 56 -41 59 -43 -44 -45 -46 -47 -48 -49 -50 -51 -52 60 -54 -55 -56 -57 -58 -59 -60 -61 -62 -63 -64
leaf_value=-0.51797952919679402 0.11414816005975047 0.27166611487876785 0.052869135342213325 -0.19372624825998802 -0.33764916591877325 -0.0096983874310553417 0.032623406794194038 -0.42128758296434515 -0.2741173273174648 0.34776275665015421 0.089066860536540615 0.42859517189961605 0.32569733755900265 -0.27418524927585858 -0.023503589676546283 0.10065000327322396 0.25748314259988597 -0.55167845485131151 -0.067445928890491474 0.11644337606604821 -0.19634448168282079 0.20846673859267689 0.019038834682627393 -0.41012574417464642 -0.24975869499250247 -0.035115859058130784 0.30771222279304461 -0.095334806115427884 0.23608560630683001 -0.51303117315047131 0.1023828486785565 -0.15967987513825488 -0.10471980526494258 0.41523756089850877 0.19791101276786072 -0.13758392117820115 0.25526953178251699 0.19204187455000038 -0.31357426769208446 -0.46242210230023501 -0.11903620064066589 -0.46268612030700063 -0.033891800928077906 -0.44332413065985493 0.17801227172615119 0.061108354306977343 0.27805416251224746 0.35287867677103879 -0.26904282702946214 0.25977699857070358 0.16115638246252376 0.11657544461994296 -0.43403889461019152 0.19314849837828107 -0.39293598764614401 -0.58403707313508046 -0.23662485650042697 0.24028693091543524 0.19227001824157611 -0.18098511131295325 0.11233636195891861 0.17159507186307707 0.064743107260980787
leaf_weight=35.699999392032623 65.799998879432678 25.899999558925629 54.599999070167542 70.699998795986176 51.099999129772186 117.59999799728394 152.59999740123749 13.999999761581419 17.499999701976776 47.599999189376831 68.599998831748962 19.599999666213989 19.599999666213989 74.199998736381531 128.09999781847 92.399998426437378 62.999998927116394 89.599998474121094 53.89999908208847 102.19999825954437 43.399999260902405 42.699999272823334 75.599998712539673 104.99999821186066 62.299998939037323 13.999999761581423 114.79999804496765 115.49999803304672 83.999998569488525 20.29999965429306 83.999998569488525 25.899999558925629 51.799999117851257 54.599999070167542 94.499998390674591 21.699999630451202 114.09999805688858 216.99999630451202 88.199998497962952 23.799999594688416 65.799998879432678 137.19999766349792 34.299999415874481 14.69999974966049 62.999998927116394 36.399999380111694 68.599998831748962 96.599998354911804 30.799999475479126 88.199998497962952 45.499999225139618 39.199999332427979 19.599999666213989 112.69999808073044 62.299998939037323 102.89999824762344 16.099999725818634 80.49999862909317 15.399999737739561 27.999999523162842 34.999999403953552 170.09999710321426 14.69999974966049
leaf_count=51 94 37 78 101 73 168 218 20 25 68 98 28 28 106 183 132 90 128 77 146 62 61 108 150 89 20 164 165 120 29 120 37 74 78 135 31 163 310 126 34 94 196 49 21 90 52 98 138 44 126 65 56 28 161 89 147 23 115 22 40 50 243 21
internal_value=-0.000976562 0.138475 -0.330512 0.0360985 -0.182194 0.208129 -0.0537336 -0.430598 -0.394135 0.153733 0.13269 0.273942 0.153805 -0.32541 0.0123486 0.0606937 0.249163 -0.459583 -0.0540944 0.187728 -0.15943 0.170741 0.0759646 -0.428729 -0.276374 -0.0911304 0.299363 -0.122923 0.182325 -0.54628 0.0573901 -0.244558 -0.0468888 0.360227 0.228311 -0.22078 0.220809 0.206766 -0.315849 -0.384398 -0.111953 -0.4399 0.0193944 -0.536407 0.139923 0.00703775 0.306609 0.335708 -0.216581 0.286885 0.120614 0.162339 -0.488228 0.211485 -0.368023 -0.572337 -0.301696 0.217404 0.128964 -0.137528 0.154277 0.16129 0.0160314
internal_weight=4195.1 2947.7 1247.4 1193.5 502.6 1754.2 676.9 744.8 566.3 960.4 844.2 793.8 516.6 237.3 416.5 291.9 616.7 364 265.3 359.8 260.4 552.3 156.8 259.7 202.3 176.4 222.6 158.9 483.7 178.5 236.6 100.1 179.9 177.1 194.6 84 394.1 280 118.3 137.2 147.7 242.2 88.9 104.3 165.2 154 116.2 122.5 101.5 203 137.9 287 55.3 196.7 113.4 123.2 104.3 175 81.2 93.8 244.3 209.3 28.7
internal_count=5993 4211 1782 1705 718 2506 967 1064 809 1372 1206 1134 738 339 595 417 881 520 379 514 372 789 224 371 289 252 318 227 691 255 338 143 257 253 278 120 563 400 169 196 211 346 127 149 236 220 166 175 145 290 197 410 79 281 162 176 149 250 116 134 349 299 41
is_linear=0
shrinkage=0.05


Tree=11
num_leaves=64
num_cat=0
split_feature=5 5 6 163 163 162 0 5 162 19 89 19 6 2 120 162 6 5 163 105 182 121 19 6 133 6 182 6 19 183 161 120 5 6 122 2 11 17 10 147 163 19 89 162 6 19 19 123 6 19 6 106 183 162 160 37 163 45 6 19 19 0 37
split_gain=68334.1 7525.3 7057.08 4760.88 3555.79 1703.17 1412.3 1162.57 1006.09 991.312 576.234 542.395 522.621 522.448 467.273 346.802 317.996 317.37 248.592 242.999 238.674 220.906 217.602 198.277 177.657 166.663 138.256 135.115 132.632 119.339 103.306 101.387 96.8758 96.6215 96.3591 94.6401 80.8074 76.9773 73.8725 71.1286 65.9278 67.4943 65.8834 64.4903 57.8181 54.9435 54.5319 54.1814 60.4898 51.2193 50.6161 49.9429 48.1749 46.7973 45.826 45.5742 44.905 43.7735 43.2186 55.8151 36.1469 35.3098 34.6494
threshold=12.734999656677248 6.555000066757203 24.954999923706058 34.789999008178718 34.104999542236335 34.954999923706062 21.525000572204593 3.0849999189376835 24.154999732971195 41.614999771118171 -0.74500274658203114 21.569999694824222 20.185000419616703 12.144999980926515 0.11499999836087228 28.304999351501468 14.425000190734865 15.375000000000002 37.805000305175788 22.835000038146976 61.778613000000007 1.6050000190734866 7.9949998855590829 26.054999351501468 1.0249999761581423 26.515000343322757 53.161420000000014 20.494999885559086 36.664999008178718 109.65941300000001 31.644999504089359 2.185000061988831 4.6150000095367441 15.550000190734865 7.055000066757203 2.304999947547913 93.735000610351577 0.36500000953674322 2.4650000333786015 234.65000152587893 37.924999237060554 33.254999160766609 -0.93499755859374989 39.375000000000007 26.945000648498539 33.395000457763679 35.465000152587898 16.295000076293949 10.690000057220461 23.849999427795414 1.794999957084656 0.66999998688697826 106.56525350000001 38.065000534057624 3.2050000429153447 -0.36499786376953119 30.675000190734867 0.39499950408935552 29.605000495910648 41.375000000000007 36.495000839233406 -15.550000190734862 -0.25499725341796869
decision_type=2 2 2 2 2 2 2 2 2 2 2 2 2 2 2 2 2 2 2 2 2 2 2 2 2 2 2 2 2 2 2 2 2 2 2 2 2 10 2 2 2 2 2 2 2 2 2 2 2 2 2 2 2 2 2 2 2 2 2 2 2 2 2
left_child=1 7 3 12 16 10 17 14 22 13 23 42 24 25 -1 36 21 35 38 -13 34 -3 39 -4 49 -7 40 -20 57 30 -12 -22 61 -26 50 -5 -14 -32 -8 -9 -19 -42 -6 44 -30 -17 -29 48 -23 -2 -16 -18 -44 -11 -24 -39 -27 -15 -25 -60 -47 -10 -37
right_child=2 4 5 6 11 9 18 8 32 53 29 19 15 28 20 45 51 26 27 -21 31 47 54 58 33 56 -28 46 43 -31 37 -33 -34 -35 -36 62 -38 55 -40 -41 41 -43 52 -45 -46 60 -48 -49 -50 -51 -52 -53 -54 -55 -56 -57 -58 -59 59 -61 -62 -63 -64
leaf_value=-0.28643301248152503 0.11549392004533879 0.0014320618479430902 0.18599576369477488 -0.21014090564541466 -0.26998514414517899 0.0096971108755611757 0.043671968113678475 -0.26700097377482646 -0.55157299950107819 0.32854955399817476 0.26078482176459111 -0.24655940546279714 0.25457155747762567 0.096940293106326958 -0.48989544644282523 0.087820967589856663 0.098403554861520956 -0.0020860444757991575 -0.072974596365735389 -0.03396770727985831 -0.46528779452434499 -0.11599315723353727 -0.17003851056164521 0.32611004338932714 -0.041318149913897095 0.06307887203779812 -0.15518365760551572 0.0084763907417518443 0.17466827698809406 0.28629028858951655 0.25355316431521741 -0.54954239837612162 -0.40608030252471966 0.072557547222289326 -0.50071733174498434 -0.088493531013181817 0.19738823982143452 0.22152864272048678 0.11736721375706807 -0.35489070611154538 -0.10724346893072297 -0.033222258806994913 -0.41123128372238588 0.14421392578922573 0.22121643049668679 0.16979988852441122 0.089586452749566572 -0.16070803404350567 -0.046893186554068371 0.19288026692549842 -0.39798927337482976 0.0088629138036568477 -0.34899737796730324 0.2657118778418836 -0.24405603089843644 0.17263213631239477 0.12423042090383923 0.18567217564024543 0.43016729299378725 0.35280402552322027 0.08170259366088535 -0.46559968823453907 -0.15738396484979722
leaf_weight=31.499999463558197 58.799998998641968 70.699998795986176 18.199999690055847 67.19999885559082 16.799999713897705 71.399998784065247 60.899998962879181 34.299999415874481 15.399999737739561 53.89999908208847 143.49999755620956 105.69999819993973 100.79999828338623 80.49999862909317 18.199999690055847 65.099998891353607 31.499999463558197 48.999999165534973 50.399999141693115 15.399999737739561 48.999999165534973 83.299998581409454 27.999999523162842 59.499998986721039 22.399999618530273 44.799999237060547 39.199999332427979 134.39999771118164 230.99999606609344 104.99999821186066 69.299998819828033 131.59999775886536 90.299998462200165 110.59999811649323 46.89999920129776 31.499999463558197 159.5999972820282 79.799998641014099 76.999998688697815 69.999998807907104 62.299998939037323 60.899998962879181 53.89999908208847 112.69999808073044 93.79999840259552 55.999999046325684 24.499999582767487 33.59999942779541 51.099999129772186 33.59999942779541 84.699998557567596 30.799999475479126 73.49999874830246 65.799998879432678 82.599998593330383 118.29999798536301 90.999998450279236 16.799999713897705 35.699999392032623 67.19999885559082 14.69999974966049 53.199999094009399 43.399999260902405
leaf_count=45 84 101 26 96 24 102 87 49 22 77 205 151 144 115 26 93 45 70 72 22 70 119 40 85 32 64 56 192 330 150 99 188 129 158 67 45 228 114 110 100 89 87 77 161 134 80 35 48 73 48 121 44 105 94 118 169 130 24 51 96 21 76 62
internal_value=-0.000487996 -0.301095 0.135388 0.0504317 -0.164085 0.207482 -0.0389273 -0.406558 -0.344713 0.160485 0.265626 -0.297538 0.151162 0.138946 -0.470436 0.185742 -0.0464596 -0.109277 0.0326989 -0.219525 -0.487979 -0.0727148 -0.274177 0.342492 0.0903778 0.0715409 -0.0704348 -0.00164274 0.165061 0.238718 0.226562 -0.526683 -0.440108 0.0533785 -0.441318 -0.167062 0.219524 0.208196 0.0848216 -0.325987 -0.0511424 -0.0706534 -0.363054 0.176803 0.188111 0.120964 0.0209823 -0.103918 -0.0897208 0.143634 -0.414245 0.0541363 -0.375327 0.294007 -0.225317 0.192329 0.104057 0.112261 0.36003 0.379644 0.151483 -0.4849 -0.128411
internal_weight=4182.5 1302 2880.5 1322.3 566.3 1558.2 700.7 735.7 373.8 861.7 696.5 265.3 621.6 742 361.9 396.2 301 353.5 347.2 121.1 330.4 238.7 214.9 180.6 225.4 207.2 211.4 209.3 534.8 515.9 410.9 180.6 158.9 133 149.8 142.1 260.4 267.4 137.9 104.3 172.2 123.2 144.2 437.5 324.8 135.8 158.9 168 134.4 92.4 102.9 62.3 127.4 119.7 110.6 198.1 135.8 97.3 162.4 102.9 70.7 68.6 74.9
internal_count=5975 1860 4115 1889 809 2226 1001 1051 534 1231 995 379 888 1060 517 566 430 505 496 173 472 341 307 258 322 296 302 299 764 737 587 258 227 190 214 203 372 382 197 149 246 176 206 625 464 194 227 240 192 132 147 89 182 171 158 283 194 139 232 147 101 98 107
is_linear=0
shrinkage=0.05


Tree=12
num_leaves=64
num_cat=0
split_feature=21 21 6 163 163 2 162 21 163 19 19 182 163 6 0 162 19 6 182 2 106 21 108 162 106 105 19 63 19 163 2 115 161 120 6 182 6 57 163 6 67 17 19 6 6 6 19 162 19 11 6 39 183 6 11 63 161 19 115 6 63 182 11
split_gain=63165.1 6840.38 6432.72 3879.84 3667.48 1897.32 1173.87 980.111 1248.69 734.567 700.91 520.797 459.427 435.521 378.422 364.452 319.413 297.499 293.968 230.483 214.165 152.746 143.561 135.193 134.798 132.929 117.886 113.607 107.249 105.877 99.6508 97.9457 93.5274 85.5624 72.3568 69.7948 66.8218 65.2633 62.3965 61.8533 58.7142 58.2338 58.2107 57.8432 57.2201 57.1141 53.6093 66.8799 52.6592 52.0931 52.2657 48.7387 46.9641 42.3294 39.7749 39.3875 38.4363 35.0833 33.4087 33.1989 33.1214 32.6428 31.7336
threshold=5.8250000476837167 2.6650000810623173 25.554999351501468 29.880000114440922 34.789999008178718 13.25500011444092 34.954999923706062 0.59499999880790722 22.704999923706058 41.614999771118171 19.329999923706058 -16.127278499999999 30.675000190734867 20.185000419616703 13.494999885559084 28.304999351501468 15.284999847412111 22.914999961853031 57.795225000000009 -20.869999885559078 20.474999427795414 7.8750000000000009 26.530000686645511 23.724999427795414 18.164999961853031 13.355000019073488 29.875000000000004 -0.32999801635742182 7.9949998855590829 37.414999008178718 16.695000648498539 -13.234999656677244 30.814999580383304 2.185000061988831 31.07499980926514 51.990584000000005 16.224999427795414 -0.075000762939453111 37.895000457763679 18.054999351501468 1.3500061035156252 0.36500000953674322 36.664999008178718 16.585000038146976 29.23499965667725 17.345000267028812 33.254999160766609 33.854999542236335 35.795000076293952 93.735000610351577 23.494999885559086 -0.44999992847442621 24.217304000000006 27.57499980926514 87.694999694824233 0.70500183105468761 41.895000457763679 33.854999542236335 4.8150000572204599 0.56499999761581432 -0.020000457763671872 61.778613000000007 90.575000762939467
decision_type=2 2 2 2 2 2 2 2 2 2 2 2 2 2 2 2 2 2 2 2 2 2 2 2 2 2 2 2 2 2 2 2 2 2 2 2 2 2 2 2 2 10 2 2 2 2 2 2 2 2 2 2 2 2 2 2 2 2 2 2 2 2 2
left_child=1 7 4 16 13 14 11 33 28 12 35 34 51 25 26 49 31 38 27 -13 36 46 -17 -21 43 45 -6 62 37 -19 -14 54 -24 59 -4 -5 -12 -9 -7 -27 -22 -25 -32 -18 -43 -2 47 -16 -31 -15 -51 -8 -23 -44 -3 -30 -11 60 -29 -1 -54 -35 -10
right_child=2 3 6 10 5 17 9 8 18 56 20 19 30 15 21 22 24 29 -20 23 40 52 32 41 -26 39 -28 58 55 48 42 -33 -34 61 -36 -37 -38 -39 -40 -41 -42 44 53 -45 -46 -47 -48 -49 -50 50 -52 -53 57 -55 -56 -57 -58 -59 -60 -61 -62 -63 -64
leaf_value=-0.46898392121158949 0.071308962596013062 0.033703271430076953 0.3071886001962989 -0.32432586626621318 -0.20479084252868957 0.050652927384256079 -0.027529772346829795 -0.37989660609160047 -0.25238014548812843 0.30882882487186214 -0.29628413362285094 0.35855068328963302 0.11889146532268002 0.23856204716334464 -0.044221364730394536 -0.03382116380617281 0.043200928041161324 0.15058508048445496 -0.49604210555853101 0.25962172715571302 -0.04587707967147428 0.019510031290816264 0.089419473723416854 0.23920463506276032 -0.070853592970176987 0.00078241103315150335 -0.095020703815631144 -0.37188471564596126 -0.17923780200980349 0.05632182981633134 0.095377997311650156 -0.11421041225468112 0.16809889895252861 -0.45586260165739595 0.37615525859936161 -0.39074600054875153 -0.21995842599805859 -0.27399306741935597 -0.016472680895715949 0.081266755269808588 -0.16149530089745012 0.17462038199677637 0.16694079935868933 0.15278503654744008 0.22790363558685806 0.14608907115072578 -0.036162559743095589 -0.12505053551510179 0.11089901738098909 0.17592499093163644 0.23425260650624793 0.056329861739650704 -0.11740569790152938 0.20946861115780649 -0.05389029215452084 -0.25201245728755844 0.25141093023750211 0.0046699569560623624 -0.41786934024190248 -0.38879506374272876 -0.039643271620529788 -0.52604513213802628 -0.34538121829556628
leaf_weight=37.799999356269836 37.099999368190765 16.799999713897705 99.399998307228088 84.699998557567596 69.299998819828033 56.699999034404755 23.799999594688416 16.799999713897705 13.999999761581419 48.299999177455902 46.199999213218689 32.899999439716339 122.49999791383743 96.599998354911804 34.299999415874481 14.69999974966049 86.099998533725739 72.099998772144318 88.899998486042023 158.19999730587006 14.69999974966049 48.299999177455902 73.49999874830246 83.299998581409454 25.199999570846558 44.799999237060547 37.799999356269836 54.599999070167542 40.599999308586121 106.3999981880188 23.799999594688416 78.399998664855957 77.699998676776886 19.599999666213989 61.599998950958252 74.199998736381531 75.599998712539673 108.49999815225601 88.899998486042023 51.099999129772186 43.399999260902405 167.29999715089798 267.39999544620514 13.999999761581419 72.099998772144318 81.899998605251312 36.399999380111694 100.79999828338623 75.599998712539673 129.49999779462814 54.599999070167542 63.699998915195465 18.199999690055847 74.899998724460602 56.699999034404755 34.299999415874481 73.49999874830246 30.799999475479126 142.79999756813049 19.599999666213989 55.299999058246613 107.09999817609787 26.5999995470047
leaf_count=54 53 24 142 121 99 81 34 24 20 69 66 47 175 138 49 21 123 103 127 226 21 69 105 119 36 64 54 78 58 152 34 112 111 28 88 106 108 155 127 73 62 239 382 20 103 117 52 144 108 185 78 91 26 107 81 49 105 44 204 28 79 153 38
internal_value=-0.00212721 -0.287284 0.129966 -0.165316 0.0581135 -0.0118227 0.208084 -0.392926 -0.358237 0.162619 -0.27882 0.255106 0.139032 0.145959 -0.084566 0.174102 -0.0265887 0.0666535 -0.418462 0.230518 -0.211231 -0.0576399 0.115349 0.221759 0.0325066 0.0874734 -0.166048 -0.389484 -0.259898 0.0993065 0.157927 -0.0753355 0.129852 -0.492245 0.333576 -0.355341 -0.24891 -0.288192 0.00966758 0.0436682 -0.132242 0.203197 0.170989 0.0585274 0.190668 0.122775 -0.0900187 -0.104529 0.0789924 0.208826 0.193224 0.03352 -0.0212509 0.176246 -0.0338689 -0.212565 0.27418 -0.0401268 -0.40515 -0.441602 -0.0588987 -0.515188 -0.313312
internal_weight=4192.3 1327.2 2865.1 616 1492.4 830.9 1372.7 711.2 527.1 697.9 338.8 674.8 576.1 661.5 431.2 446.6 277.2 399.7 326.9 513.8 179.9 324.1 165.9 480.9 125.3 214.9 107.1 238 200.2 254.1 488.6 151.9 151.2 184.1 161 158.9 121.8 125.3 145.6 95.9 58.1 322.7 366.1 100.1 239.4 119 171.5 135.1 182 280.7 184.1 87.5 152.6 342.3 73.5 74.9 121.8 104.3 197.4 57.4 73.5 126.7 40.6
internal_count=5989 1896 4093 880 2132 1187 1961 1016 753 997 484 964 823 945 616 638 396 571 467 734 257 463 237 687 179 307 153 340 286 363 698 217 216 263 230 227 174 179 208 137 83 461 523 143 342 170 245 193 260 401 263 125 218 489 105 107 174 149 282 82 105 181 58
is_linear=0
shrinkage=0.05


Tree=13
num_leaves=64
num_cat=0
split_feature=5 5 6 163 163 2 162 21 163 19 182 6 163 6 2 163 19 182 18 162 6 6 118 182 19 6 163 11 6 5 118 110 161 6 6 6 120 6 6 6 162 19 6 182 120 6 43 19 137 19 19 37 162 57 183 161 163 172 6 182 19 169 6
split_gain=57678.6 6184.72 5601.52 3508.73 2991.66 1520.11 1188.35 994.838 1356.96 718.375 523.892 432.869 413.858 364.496 319.668 318.502 261.388 254.065 230.267 210.523 176.294 139.21 134.885 133.125 119.154 111.346 107.446 106.098 100.606 89.9962 87.9309 86.3933 85.9032 85.4557 81.753 71.1761 70.4273 68.1871 63.3161 58.388 56.4397 84.1602 55.5313 53.7625 52.9231 49.7353 58.9812 49.371 45.307 45.0514 44.6395 43.4705 42.2956 42.0217 41.3443 40.0522 38.9738 38.0527 35.5707 30.8479 29.8175 29.3752 28.7394
threshold=12.894999980926515 6.7449998855590829 25.365000724792484 34.789999008178718 35.065000534057624 12.364999771118166 34.954999923706062 0.59499999880790722 22.704999923706058 41.614999771118171 -16.127278499999999 19.204999923706058 30.675000190734867 14.690000057220461 -0.74500000476837147 23.32499980926514 32.764999389648445 53.161420000000014 5.2650001049041757 23.724999427795414 8.1649999618530291 19.314999580383304 12.465000152587892 57.795225000000009 35.854999542236335 29.375000000000004 37.414999008178718 87.58499908447267 8.9149999618530291 26.954999923706058 -13.77500009536743 12.119999885559084 39.524999618530281 21.899999618530277 16.73499965667725 31.375000000000004 2.185000061988831 2.495000004768372 15.805000305175783 14.425000190734865 34.789999008178718 33.854999542236335 26.454999923706058 51.990584000000005 7.6150000095367441 23.045000076293949 -0.10999999940395354 22.564999580383304 93.479999542236342 29.755000114440922 35.795000076293952 0.42499923706054693 39.375000000000007 -1.0000000180025095e-35 24.217304000000006 41.895000457763679 30.554999351501468 7.9649999141693124 17.170000076293949 61.778613000000007 7.2049999237060556 4.2449998855590829 26.724999427795414
decision_type=2 2 2 2 2 2 2 2 2 2 2 2 2 2 2 2 2 2 2 2 2 2 2 2 2 2 2 2 2 2 2 2 2 2 2 2 2 2 2 2 2 2 2 2 2 2 10 2 2 2 2 2 2 2 2 2 2 2 2 2 2 2 2
left_child=1 7 3 11 18 14 10 36 20 12 35 22 57 51 49 45 54 27 30 25 37 43 47 34 -14 -12 -18 -10 44 48 -3 -26 33 56 -16 62 -1 -9 -20 -32 -36 -42 -33 -15 -19 46 -13 -2 -21 -5 -28 -6 -44 -39 -7 -11 -17 -8 -24 -38 -46 -50 -4
right_child=2 4 6 5 13 16 9 8 17 55 19 15 24 21 23 32 26 28 38 29 -22 -23 58 -25 31 -27 50 -29 -30 -31 39 42 -34 -35 40 -37 59 53 -40 -41 41 -43 52 -45 60 -47 -48 -49 61 -51 -52 -53 -54 -55 -56 -57 -58 -59 -60 -61 -62 -63 -64
