tree
version=v4
num_class=1
num_tree_per_iteration=1
label_index=0
max_feature_idx=183
objective=regression
feature_names=T2M__main T2M_MAX__main T2M_MIN__main T2MDEW__main T2MWET__main ALLSKY_SFC_SW_DWN__main CLRSKY_SFC_SW_DWN__main CLOUD_AMT__main RH2M__main QV2M__main PRECTOTCORR__main PS__main WS2M__main WS10M__main WD2M__main WD10M__main GWETTOP__main GWETROOT__main ALLSKY_SFC_SW_DIFF__main TOA_SW_DWN__main TS__main ALLSKY_SFC_PAR_TOT__main WS2M_MAX__main WS2M_MIN__main WS10M_MAX__main WS10M_MIN__main T2M__diff_n1 T2M_MAX__diff_n1 T2M_MIN__diff_n1 T2MDEW__diff_n1 T2MWET__diff_n1 ALLSKY_SFC_SW_DWN__diff_n1 CLRSKY_SFC_SW_DWN__diff_n1 CLOUD_AMT__diff_n1 RH2M__diff_n1 QV2M__diff_n1 PRECTOTCORR__diff_n1 PS__diff_n1 WS2M__diff_n1 WS10M__diff_n1 WD2M__diff_n1 WD10M__diff_n1 GWETTOP__diff_n1 GWETROOT__diff_n1 ALLSKY_SFC_SW_DIFF__diff_n1 TOA_SW_DWN__diff_n1 TS__diff_n1 ALLSKY_SFC_PAR_TOT__diff_n1 WS2M_MAX__diff_n1 WS2M_MIN__diff_n1 WS10M_MAX__diff_n1 WS10M_MIN__diff_n1 T2M__diff_n2 T2M_MAX__diff_n2 T2M_MIN__diff_n2 T2MDEW__diff_n2 T2MWET__diff_n2 ALLSKY_SFC_SW_DWN__diff_n2 CLRSKY_SFC_SW_DWN__diff_n2 CLOUD_AMT__diff_n2 RH2M__diff_n2 QV2M__diff_n2 PRECTOTCORR__diff_n2 PS__diff_n2 WS2M__diff_n2 WS10M__diff_n2 WD2M__diff_n2 WD10M__diff_n2 GWETTOP__diff_n2 GWETROOT__diff_n2 ALLSKY_SFC_SW_DIFF__diff_n2 TOA_SW_DWN__diff_n2 TS__diff_n2 ALLSKY_SFC_PAR_TOT__diff_n2 WS2M_MAX__diff_n2 WS2M_MIN__diff_n2 WS10M_MAX__diff_n2 WS10M_MIN__diff_n2 T2M__diff_n3 T2M_MAX__diff_n3 T2M_MIN__diff_n3 T2MDEW__diff_n3 T2MWET__diff_n3 ALLSKY_SFC_SW_DWN__diff_n3 CLRSKY_SFC_SW_DWN__diff_n3 CLOUD_AMT__diff_n3 RH2M__diff_n3 QV2M__diff_n3 PRECTOTCORR__diff_n3 PS__diff_n3 WS2M__diff_n3 WS10M__diff_n3 WD2M__diff_n3 WD10M__diff_n3 GWETTOP__diff_n3 GWETROOT__diff_n3 ALLSKY_SFC_SW_DIFF__diff_n3 TOA_SW_DWN__diff_n3 TS__diff_n3 ALLSKY_SFC_PAR_TOT__diff_n3 WS2M_MAX__diff_n3 WS2M_MIN__diff_n3 WS10M_MAX__diff_n3 WS10M_MIN__diff_n3 T2M__main__lag1 T2M__main__lag2 T2M__main__lag3 T2M_MAX__main__lag1 T2M_MAX__main__lag2 T2M_MAX__main__lag3 T2M_MIN__main__lag1 T2M_MIN__main__lag2 T2M_MIN__main__lag3 T2MDEW__main__lag1 T2MDEW__main__lag2 T2MDEW__main__lag3 T2MWET__main__lag1 T2MWET__main__lag2 T2MWET__main__lag3 ALLSKY_SFC_SW_DWN__main__lag1 ALLSKY_SFC_SW_DWN__main__lag2 ALLSKY_SFC_SW_DWN__main__lag3 CLRSKY_SFC_SW_DWN__main__lag1 CLRSKY_SFC_SW_DWN__main__lag2 CLRSKY_SFC_SW_DWN__main__lag3 CLOUD_AMT__main__lag1 CLOUD_AMT__main__lag2 CLOUD_AMT__main__lag3 RH2M__main__lag1 RH2M__main__lag2 RH2M__main__lag3 QV2M__main__lag1 QV2M__main__lag2 QV2M__main__lag3 PRECTOTCORR__main__lag1 PRECTOTCORR__main__lag2 PRECTOTCORR__main__lag3 PS__main__lag1 PS__main__lag2 PS__main__lag3 WS2M__main__lag1 WS2M__main__lag2 WS2M__main__lag3 WS10M__main__lag1 WS10M__main__lag2 WS10M__main__lag3 WD2M__main__lag1 WD2M__main__lag2 WD2M__main__lag3 WD10M__main__lag1 WD10M__main__lag2 WD10M__main__lag3 GWETTOP__main__lag1 GWETTOP__main__lag2 GWETTOP__main__lag3 GWETROOT__main__lag1 GWETROOT__main__lag2 GWETROOT__main__lag3 ALLSKY_SFC_SW_DIFF__main__lag1 ALLSKY_SFC_SW_DIFF__main__lag2 ALLSKY_SFC_SW_DIFF__main__lag3 TOA_SW_DWN__main__lag1 TOA_SW_DWN__main__lag2 TOA_SW_DWN__main__lag3 TS__main__lag1 TS__main__lag2 TS__main__lag3 ALLSKY_SFC_PAR_TOT__main__lag1 ALLSKY_SFC_PAR_TOT__main__lag2 ALLSKY_SFC_PAR_TOT__main__lag3 WS2M_MAX__main__lag1 WS2M_MAX__main__lag2 WS2M_MAX__main__lag3 WS2M_MIN__main__lag1 WS2M_MIN__main__lag2 WS2M_MIN__main__lag3 WS10M_MAX__main__lag1 WS10M_MAX__main__lag2 WS10M_MAX__main__lag3 WS10M_MIN__main__lag1 WS10M_MIN__main__lag2 WS10M_MIN__main__lag3 lat lon
feature_infos=[-43.310001373291016:37.560001373291016] [-30.479999542236328:48.830001831054688] [-63.349998474121094:28.110000610351562] [-43.490001678466797:24.680000305175781] [-43.400001525878906:26.719999313354492] [0:33.340000152587891] [0:34.950000762939453] [0.67000001668930054:96.379997253417969] [8.1899995803833008:99.389999389648438] [0.070000000298023224:20.610000610351562] [0:25.729999542236328] [67.970001220703125:102.86000061035156] [0.019999999552965164:8.5900001525878906] [0.49000000953674316:10.819999694824219] [0:360] [0:360] [0.029999999329447746:1] [0.14000000059604645:1] [0:19.629999160766602] [0:44.279998779296875] [-46.680000305175781:40.279998779296875] [0:14.899999618530273] [0.2199999988079071:26.909999847412109] [0:1.8799999952316284] [1.0900000333786011:32.630001068115234] [0:3.1400001049041748] [-6.1999998092651367:6.9600000381469727] [-3.5500011444091797:12.430000305175781] [-15.85999870300293:6.9799995422363281] [-7.0600004196166992:4.6299996376037598] [-6.630000114440918:5.7799997329711914] [-3.2800006866455078:3.2100000381469727] [-1.0100002288818359:1.2800006866455078] [-16.529994964599609:20.700000762939453] [-14.209999084472656:11.029998779296875] [-1.4700002670288086:2.3400001525878906] [-2.75:5.5499992370605469] [-1.6700057983398438:0.98000335693359375] [-2.7600002288818359:0.33000001311302185] [-2.429999828338623:0.38000011444091797] [-356.89999389648438:356.10000610351562] [-359.10000610351562:358.60000610351562] [-0.12000001966953278:0.19999998807907104] [-0.13000005483627319:0.22000002861022949] [-2.4699993133544922:5.7700004577636719] [-0.58000087738037109:0.61999988555908203] [-11.449999809265137:10.819999694824219] [-1.8199996948242188:1.5399994850158691] [-7.1500005722045898:3.1100006103515625] [-1.1599999666213989:0.96999996900558472] [-6.4600000381469727:3.75] [-1.3799999952316284:1.4599999189376831] [-2.8099994659423828:5.4000005722045898] [-8.0900001525878906:10.809999465942383] [-7.8500003814697266:9.6000003814697266] [-2.9800000190734863:4.4699993133544922] [-2.3899993896484375:4.429999828338623] [-6.3700008392333984:2.7800006866455078] [-3:2.1100006103515625] [-22.840003967285156:31.939998626708984] [-11.330001831054688:11.629997253417969] [-1.5999994277954102:1.5699996948242188] [-5.5399999618530273:11.589999198913574] [-1.5499954223632812:8.5800018310546875] [-1.8199999332427979:2.5099999904632568] [-1.4700000286102295:1.8799998760223389] [-356.69998168945312:354.5999755859375] [-359.20001220703125:358.39999389648438] [-0.21999996900558472:0.29000002145767212] [-0.20999997854232788:0.34000003337860107] [-3.6000003814697266:6.630000114440918] [-0.6100006103515625:0.29000091552734375] [-3.3999996185302734:5.2099990844726562] [-2.7800002098083496:1.429999828338623] [-7.2599997520446777:7.0900001525878906] [-1.1699999570846558:1.690000057220459] [-7.4800004959106445:5.4899997711181641] [-2.0699999332427979:2.8500001430511475] [-4.8299999237060547:4.1499996185302734] [-9.8100013732910156:4.7400002479553223] [-7.9699993133544922:5.5499992370605469] [-3.7000000476837158:4.9100008010864258] [-3.75:3.4200000762939453] [-2.6199989318847656:3.1400012969970703] [-2.7099990844726562:1.2399997711181641] [-24.380001068115234:18.090000152587891] [-10.530002593994141:14.120002746582031] [-2.1100006103515625:3.3899993896484375] [-8.4799995422363281:9.3199996948242188] [-6.3199996948242188:6.4300003051757812] [-2.8499999046325684:2.070000171661377] [-3.0099999904632568:2.2100000381469727] [-354.60000610351562:359] [-358.5:359.10000610351562] [-0.13000002503395081:0.25] [-0.15999996662139893:0.24000000953674316] [-2.2899999618530273:2.7699999809265137] [-0.6100006103515625:0.29000091552734375] [-6.7899990081787109:4.3400001525878906] [-4.0999999046325684:1.2600002288818359] [-5.320000171661377:5.9800000190734863] [-1.6100000143051147:0.99000000953674316] [-6.0099992752075195:6.6400003433227539] [-2.1100001335144043:1.6599999666213989] [-43.310001373291016:37.560001373291016] [-43.310001373291016:37.560001373291016] [-43.310001373291016:37.560001373291016] [-30.479999542236328:48.830001831054688] [-30.479999542236328:48.830001831054688] [-30.479999542236328:48.970001220703125] [-63.349998474121094:28.110000610351562] [-63.349998474121094:28.110000610351562] [-63.349998474121094:28.110000610351562] [-43.490001678466797:24.680000305175781] [-43.490001678466797:24.680000305175781] [-43.490001678466797:24.680000305175781] [-43.400001525878906:26.719999313354492] [-43.400001525878906:26.719999313354492] [-43.400001525878906:26.719999313354492] [0:33.340000152587891] [0:33.340000152587891] [0:33.340000152587891] [0:34.950000762939453] [0:34.950000762939453] [0:34.950000762939453] [0.67000001668930054:96.379997253417969] [0.67000001668930054:96.379997253417969] [0.67000001668930054:96.379997253417969] [8.1899995803833008:99.389999389648438] [8.1899995803833008:99.389999389648438] [8.1899995803833008:99.389999389648438] [0.070000000298023224:20.610000610351562] [0.070000000298023224:20.610000610351562] [0.070000000298023224:20.610000610351562] [0:25.729999542236328] [0:25.729999542236328] [0:25.729999542236328] [67.970001220703125:102.86000061035156] [67.970001220703125:102.86000061035156] [67.970001220703125:102.86000061035156] [0.019999999552965164:8.5900001525878906] [0.019999999552965164:8.5900001525878906] [0.019999999552965164:8.5900001525878906] [0.49000000953674316:10.819999694824219] [0.49000000953674316:10.819999694824219] [0.49000000953674316:10.819999694824219] [0:360] [0:360] [0:360] [0:360] [0:360] [0:360] [0.029999999329447746:1] [0.029999999329447746:1] [0.029999999329447746:1] [0.14000000059604645:1] [0.14000000059604645:1] [0.14000000059604645:1] [0:19.629999160766602] [0:19.629999160766602] [0:19.629999160766602] [0:44.279998779296875] [0:44.279998779296875] [0:44.279998779296875] [-46.680000305175781:40.279998779296875] [-46.680000305175781:40.279998779296875] [-46.680000305175781:40.279998779296875] [0:14.899999618530273] [0:14.899999618530273] [0:14.899999618530273] [0.2199999988079071:26.909999847412109] [0.2199999988079071:26.909999847412109] [0.2199999988079071:26.909999847412109] [0:1.8799999952316284] [0:1.8799999952316284] [0:1.8799999952316284] [1.0900000333786011:32.630001068115234] [1.0900000333786011:32.630001068115234] [1.0900000333786011:32.630001068115234] [0:3.1400001049041748] [0:3.1400001049041748] [0:3.1400001049041748] [-39.202894999999998:68.976585] [-86.922895999999994:132.566947]
tree_sizes=5444 5490 5490 5520 5477 5500 5527 5499 5520 5528 5508 5541 5522 5531 5529 5545 5567 5555 5568 5563 5545 5574 5569 5544 5556 5566 5573 5578 5572 5594 5585 5575 5578 5581 5560 5589 5601 5597 5600 5625 5587 5582 5615 5624 5618 5614 5595 5637 5635 5635 5653 5643 5630 5627 5634 5648 5647 5667 5625 5626 5645 5658 5634 5646 5648 5665 5626 5674 5668 5639 5659 5652 5656 5686 5638 5676 5687

Tree=0
num_leaves=64
num_cat=0
split_feature=20 19 0 1 6 162 124 2 20 20 182 20 118 124 139 0 106 163 19 124 162 19 73 0 19 142 5 12 8 161 38 19 162 149 139 11 121 29 114 0 183 143 163 12 11 0 0 48 7 25 89 6 20 0 19 19 20 60 19 159 139 19 19
split_gain=1.91843e+06 281407 245236 41899.5 37343.7 31855.6 26986.7 22285.6 17497 11252.3 9264.38 6545.91 6545.08 6238.12 5218.97 5052.78 4647.64 4294.96 3439.81 2718.97 2674.05 2144.09 1968.97 1822.13 1694.38 1650.01 1518.52 1377.87 1265.77 1193.08 1191.09 1067.5 1019.53 999.924 858.453 809.378 765.466 747.555 719.741 684.911 670.551 666.801 643.034 591.216 587.965 581.348 561.816 553.431 528.321 504.919 503.028 477.551 459.858 448.428 442.536 402.852 395.817 546.246 381.251 380.837 372.447 371.942 359.409
threshold=5.5450000762939462 12.675000190734865 21.219999313354496 1.0000000180025095e-35 3.0149999856948857 31.964999198913578 26.115000724792484 15.704999923706056 -6.0150001049041739 10.429999828338625 54.640390500000009 13.875000000000002 17.115000724792484 29.69999980926514 93.444999694824233 3.7999999523162846 22.364999771118168 37.895000457763679 20.695000648498539 9.3249998092651385 35.065000534057624 30.175000190734867 -0.15000003576278684 -20.095000267028805 35.795000076293952 1.485000014305115 0.41499999165534979 1.575000047683716 25.135000228881839 23.214999198913578 -0.16999989748001096 8.4549999237060565 40.754999160766609 263.30000305175787 96.395000457763686 95.655002593994155 28.875000000000004 0.33999998867511755 -23.454999923706051 10.605000019073488 86.962233000000012 3.2050000429153447 23.714999198913578 0.61500000953674328 96.485000610351577 -8.8249998092651349 26.125000000000004 -0.22999995946884152 62.905000686645515 0.13499999791383746 0.044998168945312507 5.2249999046325692 18.704999923706058 -0.27500000596046442 37.57500076293946 32.795000076293952 -33.715000152587884 0.23500061035156253 28.035000801086429 8.7550001144409197 90.625000000000014 23.224999427795414 28.855000495910648
decision_type=2 2 2 2 2 2 2 2 2 2 2 2 2 2 2 2 2 2 2 2 2 2 2 2 2 2 2 2 2 2 2 2 2 2 2 2 2 2 2 2 2 2 2 2 2 2 2 2 10 2 2 2 2 2 2 2 2 2 2 2 2 2 2
left_child=1 4 6 13 26 8 11 17 18 22 14 32 50 23 33 37 40 28 -5 30 29 -10 -8 -3 25 -14 48 -17 46 -13 41 -16 39 51 -28 -23 -15 53 -25 60 55 -12 -41 -35 -30 -20 -4 49 -1 -21 -9 -6 -31 -7 -52 -11 -36 -58 -54 -24 -2 -18 -19
right_child=2 3 7 5 10 15 9 12 21 16 19 20 24 36 31 27 61 62 45 47 -22 35 59 38 -26 -27 34 -29 44 52 -32 -33 -34 43 56 -37 -38 -39 -40 42 -42 -43 -44 -45 -46 -47 -48 -49 -50 -51 54 -53 58 -55 -56 -57 57 -59 -60 -61 -62 -63 -64
leaf_value=-5.5264678449513287 -3.0311926280528896 -4.4558938544549509 -2.2110747062304128 -4.0374751165921596 -4.7035490027379652 -4.284518861686383 -3.1813203174551141 -1.8945271942762969 -3.3596373033744791 -3.1484007929077684 -4.4486357836212793 -2.8303561118348224 -2.0532897790523208 -4.6281245916118712 -4.3476830104585318 -3.8995695280152369 -2.8758938454825316 -2.62322144052091 -3.7253454692801746 -5.1732041317431339 -2.8193534433204221 -3.2209972964189966 -3.4323138470168022 -4.0184001094515232 -1.9974033291329574 -2.2665570448916923 -5.4035956957202416 -3.3998938523780771 -2.0971795583183672 -2.6213557883034824 -4.964293770831337 -4.0184367183688954 -3.2127138469929601 -4.535072424453011 -5.3563720354202324 -3.0284132647991817 -5.0117976249593674 -4.4702970713597097 -4.2298383083579267 -2.7301438474264028 -3.2299216278144161 -4.7342188112353387 -2.9029508636168653 -4.7914946797850213 -2.341098612758457 -3.5408875211618032 -2.023198204807386 -5.2123806124396861 -5.3499836560190221 -4.9322960746289599 -2.0172688603813551 -4.4617416723981602 -2.6191764624289302 -4.1097600538034849 -1.7742050850398283 -2.972977181486113 -5.1997806857158135 -4.9669910110780044 -2.4748791519044473 -3.6490667538687598 -2.895901308916045 -2.698893848766005 -2.4771860646994641
leaf_weight=81 82 56 94 80 29 76 34 180 191 72 31 53 245 26 83 37 51 58 93 29 198 116 25 80 581 144 52 22 28 289 40 35 25 28 23 103 26 31 81 102 126 60 114 114 210 79 69 38 89 87 20 69 69 71 294 60 84 36 136 107 134 71 154
leaf_count=81 82 56 94 80 29 76 34 180 191 72 31 53 245 26 83 37 51 58 93 29 198 116 25 80 581 144 52 22 28 289 40 35 25 28 23 103 26 31 81 102 126 60 114 114 210 79 69 38 89 87 20 69 69 71 294 60 84 36 136 107 134 71 154
internal_value=-3.12358 -4.30885 -2.44929 -3.78063 -4.92092 -3.61681 -2.8857 -2.08201 -3.43873 -3.1772 -4.69162 -2.75329 -1.97603 -4.32809 -4.52229 -4.11425 -3.02717 -2.33512 -3.76661 -4.90434 -2.66191 -3.2372 -3.52062 -4.21023 -2.05148 -2.13224 -5.32485 -3.71325 -2.23889 -2.60491 -4.73689 -4.25003 -2.90227 -4.65615 -5.22962 -3.13042 -4.81996 -4.24717 -4.12478 -2.8843 -3.14742 -4.63693 -2.82135 -4.74093 -2.3124 -3.64062 -2.13154 -5.04677 -5.43407 -4.99252 -1.82789 -4.5333 -2.58073 -4.20011 -1.78969 -3.06866 -5.16636 -5.12994 -2.52345 -3.60802 -2.94726 -2.77289 -2.51714
internal_weight=6001 2176 3825 1168 1008 899 1748 2077 662 546 643 1202 1464 269 358 237 380 613 252 285 745 410 166 217 970 389 365 59 401 547 131 118 457 240 195 219 52 178 161 432 258 91 216 142 238 172 163 154 170 116 494 98 494 147 314 132 143 120 205 132 216 122 212
internal_count=6001 2176 3825 1168 1008 899 1748 2077 662 546 643 1202 1464 269 358 237 380 613 252 285 745 410 166 217 970 389 365 59 401 547 131 118 457 240 195 219 52 178 161 432 258 91 216 142 238 172 163 154 170 116 494 98 494 147 314 132 143 120 205 132 216 122 212
is_linear=0
shrinkage=1


Tree=1
num_leaves=64
num_cat=0
split_feature=20 0 19 124 6 162 20 2 20 20 182 118 138 106 87 163 2 19 0 124 162 6 19 19 74 178 3 8 161 20 18 38 31 182 50 19 143 19 98 162 157 19 19 86 11 123 126 183 20 162 19 35 11 76 165 108 89 111 161 45 49 112 2
split_gain=1.69024e+06 264511 197210 37510.7 32715.3 28739.6 31717.5 20345.1 18967.6 7906.92 7645.07 5827.38 4821.82 4065.63 3850.09 3691.87 3526.24 3490.09 3290.67 2595.96 2407.55 2309.08 1632.44 1538.97 1423.11 1339.09 1220.42 1208.98 1177.76 1133.88 1094.11 1042 993.68 940.504 903.586 674.734 672.055 629.948 587.112 580.424 571.597 567.805 550.008 548.031 500.129 479.928 469.659 465.816 453.125 439.262 434.507 410.146 408.5 407.696 393.112 388.818 387.881 368.97 350.173 346.62 338.998 335.203 331.129
threshold=2.4450000524520878 21.219999313354496 12.675000190734865 26.035000801086429 3.0149999856948857 31.964999198913578 -10.124999999999998 15.704999923706056 10.429999828338625 13.659999847412111 54.640390500000009 17.115000724792484 94.005001068115249 22.364999771118168 -0.34000003337860102 37.805000305175788 -23.795000076293942 30.675000190734867 -20.095000267028805 9.1700000762939471 35.065000534057624 14.425000190734865 16.515000343322757 35.795000076293952 0.1000000834465027 5.8250000476837167 -6.5950000286102286 23.719999313354496 23.214999198913578 8.8350000381469744 0.31499999761581426 -0.16999989748001096 0.13999992609024051 54.640390500000009 -1.0850002765655515 35.065000534057624 3.2050000429153447 8.4549999237060565 -0.72000002861022938 38.114999771118171 0.61500000953674328 35.465000152587898 33.635000228881843 -0.095001220703124986 96.444999694824233 25.585000038146976 73.295001983642592 82.995782500000018 18.704999923706058 6.8250000476837167 35.604999542236335 0.060000017285346992 95.944999694824233 0.61500024795532238 22.464999198913578 20.904999732971195 0.64000320434570324 -24.355000495910641 35.854999542236335 0.47500038146972662 0.0099999988451600092 -38.795000076293938 -29.095000267028805
decision_type=2 2 2 2 2 2 2 2 2 2 2 2 2 2 2 2 2 2 2 2 2 2 2 2 2 2 2 2 2 2 2 2 2 2 2 2 2 2 2 2 10 2 2 2 2 2 10 2 2 2 2 2 2 2 2 2 2 2 2 2 2 2 2
left_child=2 3 4 9 30 6 18 15 14 29 12 43 24 47 -5 27 -7 26 -4 31 28 32 -20 25 55 -13 49 41 -11 35 46 36 -16 -24 60 -2 -12 -14 -21 53 -23 -3 -27 -9 -29 58 -1 59 -30 -8 -17 -35 -19 -18 -50 57 -22 -6 -31 -10 -32 -38 -26
right_child=1 7 5 8 10 16 17 11 13 20 19 23 37 -15 21 50 39 52 22 38 56 40 33 -25 62 42 -28 44 48 45 34 -33 -34 51 -36 -37 61 -39 -40 -41 -42 -43 -44 -45 -46 -47 -48 -49 54 -51 -52 -53 -54 -55 -56 -57 -58 -59 -60 -61 -62 -63 -64
leaf_value=-2.2666801348124466 0.0033124144552398082 0.87902462323506669 -1.264112687110901 -0.10673643482654399 -1.252503084253382 -1.620231545277131 -0.61872873048524601 1.2848975955738742 0.095585326360829115 0.28118133846733534 -1.2475111007690431 1.0216297964079191 -1.1076732291549933 0.339177735507246 -0.87042383551597602 0.54222924135625361 -1.0054061924645661 -0.11971540204471065 -1.0021900224685669 -1.9986651526557075 0.33598709006564342 -0.50201189359986642 -0.55865840644252551 1.0741709165301612 -1.6369712206522626 0.71699466402568524 -0.26023236179393472 0.98297102737426756 0.47705808731476201 0.24729917670289675 -1.794031889622028 -1.7306273786645185 -0.45985014885663988 -0.87731343923613092 -2.0910065362212857 0.17620450094670539 -1.6916140556335451 -0.82782817641894035 -1.7662970628824319 -1.3003189415767276 -0.29416942807761104 1.0773387128656562 0.90875387606413482 1.1790534760089633 0.74713258358395152 0.12568838017976891 -2.0964247116675745 -0.073061487271779163 0.62331541280676861 -0.40820103840033212 0.70625745278817642 -0.67630307707521653 0.049487174055989715 -1.1903666356714762 0.48029661887400865 -1.2598501323020621 0.18370933937529724 -1.4680555686950685 0.38288534915808481 -0.12198905128646981 -2.0029254636456892 -1.4290632647852746 -1.4354701723371235
leaf_weight=73 95 105 54 67 27 39 37 255 109 59 35 226 61 123 56 160 109 84 95 36 138 83 49 562 75 63 152 25 293 171 52 38 20 86 109 139 20 30 111 29 55 55 92 235 223 59 91 136 137 75 54 36 62 41 74 73 60 75 66 22 31 31 28
leaf_count=73 95 105 54 67 27 39 37 255 109 59 35 226 61 123 56 160 109 84 95 36 138 83 49 562 75 63 152 25 293 171 52 38 20 86 109 139 20 30 111 29 55 55 92 235 223 59 91 136 137 75 54 36 62 41 74 73 60 75 66 22 31 31 28
internal_value=0.00845522 0.594164 -1.20183 0.178926 -1.69315 -0.685637 -0.535194 0.990611 -0.124323 0.336541 -1.47942 1.09426 -1.33133 0.101327 -0.437503 0.751818 -1.18942 -0.244027 -0.908251 -1.68107 0.439806 -0.541061 -0.836008 1.02158 -1.43474 0.944001 -0.352513 0.840039 0.492547 0.188267 -2.07737 -1.51258 -0.762378 -0.743685 -1.99635 0.106013 -1.41623 -1.01542 -1.8232 -1.09555 -0.419176 0.947195 0.830813 1.23414 0.770907 0.253291 -2.17221 -0.00824465 0.51729 -0.47775 0.58362 -0.817999 -0.0478623 -1.05596 0.573157 -1.34795 0.289842 -1.411 0.285057 0.0590461 -1.87205 -1.53202 -1.58219
internal_weight=5961 4017 1944 1962 996 948 730 2055 671 1291 640 1433 369 390 281 622 218 410 320 271 761 214 266 943 278 381 264 408 563 530 356 124 76 171 192 234 86 91 147 179 138 160 155 490 248 296 164 267 504 112 214 122 146 150 211 175 198 102 237 131 83 51 103
internal_count=5961 4017 1944 1962 996 948 730 2055 671 1291 640 1433 369 390 281 622 218 410 320 271 761 214 266 943 278 381 264 408 563 530 356 124 76 171 192 234 86 91 147 179 138 160 155 490 248 296 164 267 504 112 214 122 146 150 211 175 198 102 237 131 83 51 103
is_linear=0
shrinkage=0.05


Tree=2
num_leaves=64
num_cat=0
split_feature=1 0 19 6 20 1 162 2 114 162 20 182 118 124 139 163 6 124 20 19 0 106 19 183 0 19 19 142 8 20 123 18 1 90 161 155 121 30 123 145 183 37 64 0 114 103 171 20 179 122 20 19 19 37 19 164 21 37 151 11 157 6 37
split_gain=1.53501e+06 241867 176358 31980.3 29845.9 25872.6 20544.4 18118.8 17303.5 11014.9 9854.23 6997.97 5277.78 4552.14 4299.5 3450.65 3009.14 2696.51 2507.46 2497.81 2160.37 1961.03 1832.47 1622.44 1603.1 1417.03 1393.22 1266.21 1207.42 1181.24 1180.81 1070.56 1002.88 967.142 847.732 787.77 719.265 682.115 679.524 647.652 623.88 565.645 532.974 522.631 503.503 482.918 463.226 457.941 434.858 430.527 421.099 420.472 417.468 408.207 402.664 390.41 493.396 388.726 383.69 379.556 378.904 372.698 361.63
threshold=18.07499980926514 21.219999313354496 12.675000190734865 3.0149999856948857 10.429999828338625 1.0000000180025095e-35 31.964999198913578 15.704999923706056 6.3849999904632577 39.23500061035157 -6.0150001049041739 54.640390500000009 17.115000724792484 29.69999980926514 93.965000152587905 37.895000457763679 13.034999847412111 9.1700000762939471 17.425000190734867 20.695000648498539 4.0850000381469735 22.364999771118168 35.065000534057624 106.56525350000001 -19.64000034332275 35.795000076293952 30.384999275207523 1.5950000286102297 23.719999313354496 -30.724999427795407 21.914999961853031 0.31499999761581426 -2.2849999666213985 0.079999953508377089 24.82499980926514 0.87500000000000011 11.744999885559084 0.40999993681907659 31.265000343322757 2.245000004768372 86.962233000000012 0.43499755859375006 -0.050000041723251336 34.070001602172859 -23.454999923706051 0.040000000968575485 1.1549999713897707 34.424999237060554 0.28499999642372137 7.4449999332427987 -0.56000000238418568 35.465000152587898 8.4549999237060565 -0.67500305175781239 40.795000076293952 -20.025000572204586 1.7649999856948855 -0.31500244140624994 90.549999237060561 95.694999694824233 0.43500000238418585 14.125000000000002 -0.055000305175781243
decision_type=2 2 2 2 2 2 2 2 2 2 2 2 2 2 2 2 2 2 2 2 2 2 2 2 2 2 2 2 2 2 2 2 2 2 2 10 2 2 2 2 2 2 2 2 2 2 2 2 2 2 2 2 2 2 2 2 2 2 2 2 10 2 2
left_child=2 4 3 31 8 13 10 15 22 18 19 14 43 24 32 28 34 29 33 -7 37 40 -2 53 -4 27 61 -14 51 -13 -20 39 49 54 -10 45 -35 48 -15 -1 -11 -19 -31 -9 -26 60 -34 -29 50 55 -8 -3 -16 -18 58 -5 -57 -30 -6 -28 -33 -12 -21
right_child=1 7 5 11 9 6 20 12 16 21 26 17 25 38 52 -17 23 41 30 62 -22 -23 -24 -25 44 -27 59 47 57 42 -32 35 46 36 -36 -37 -38 -39 -40 -41 -42 -43 -44 -45 -46 -47 -48 -49 -50 -51 -52 -53 -54 -55 -56 56 -58 -59 -60 -61 -62 -63 -64
leaf_value=-2.2441345714387437 -0.06446130462044096 0.84897014006827642 -1.2071912699732288 -1.5183054095820376 0.44905930328369142 -0.80340199313665694 -1.0175759077072144 1.1372583763837094 -0.56614209115505221 0.06289353805407881 -0.30096154850495016 -1.707622449738639 0.96419275194648812 -1.7398984822359953 -1.0291486505876508 0.5525975057538951 -0.32537501626893095 -1.6670912047227224 0.5508957721017026 -0.38923438775870539 -0.53104238478610155 0.35956913913999289 0.15962133480450222 -0.53621360943430951 -0.80229046477211841 1.0203197693620991 -0.087414223212225917 0.73598027599268956 0.8773255739456568 -1.1680187686797112 0.38377941979482266 -2.026379874444777 -1.1432283007909383 0.38058335175279712 -0.9786812710039543 -1.6327767968177795 0.18177778622520535 -1.268781872590383 -1.3422624542599633 -2.013901561498642 -0.086452019962887386 -1.8819284778171117 -1.4165111340267558 1.2477882339984556 -0.98150946872178901 -2.0492075057256791 -1.3301126629965647 0.99504016637802128 -1.1289291763305664 -1.5788729323281183 -0.8047130261148725 1.0191955719675336 -0.80348361283540726 -0.086898664828828159 0.4407799827201026 -1.436266058318469 -1.2041905026103175 0.70537163070514453 0.29330382369182728 0.094264982175884846 -1.821847136815389 -0.15011077125228067 -0.53900038175386933
leaf_weight=42 153 103 58 38 50 76 52 331 20 150 79 28 246 22 57 212 38 96 216 90 26 42 226 84 72 585 57 116 39 31 207 31 63 61 33 24 179 24 21 112 131 45 71 158 86 63 70 20 35 36 42 56 32 34 112 49 43 209 189 58 84 85 73
leaf_count=42 153 103 58 38 50 76 52 331 20 150 79 28 246 22 57 212 38 96 216 90 26 42 226 84 72 585 57 116 39 31 207 31 63 61 33 24 179 24 21 112 131 45 71 158 86 63 70 20 35 36 42 56 32 34 112 49 43 209 189 58 84 85 73
internal_value=0.00553267 0.568283 -1.13653 -1.59554 0.164617 -0.649191 -0.490631 0.942768 -0.132259 0.29518 -0.331057 -1.38925 1.0391 -1.0759 -1.25308 0.716168 -0.497512 -1.58421 0.376178 -0.566681 -0.952415 0.0409001 0.0691605 -0.386928 -0.98237 0.97141 -0.129214 0.896508 0.801369 -1.41996 0.469115 -1.97739 -1.34389 0.309659 -0.823006 -1.90168 0.232308 -1.02402 -1.5457 -2.07669 -0.00673019 -1.73566 -1.34099 1.17297 -0.89984 -1.93794 -1.24159 0.774077 -0.978484 -1.42586 -0.922467 0.908924 -0.948011 -0.212761 0.362549 -1.38348 -1.3278 0.732413 0.325889 0.00421529 -1.87698 -0.222777 -0.456308
internal_weight=5971 4000 1971 1015 1925 956 697 2075 588 1337 518 659 1456 259 388 619 209 271 1014 239 179 323 379 156 216 967 279 382 407 130 423 356 299 591 53 202 240 153 43 154 281 141 102 489 158 178 133 136 129 166 94 159 89 72 351 130 92 248 239 115 115 164 163
internal_count=5971 4000 1971 1015 1925 956 697 2075 588 1337 518 659 1456 259 388 619 209 271 1014 239 179 323 379 156 216 967 279 382 407 130 423 356 299 591 53 202 240 153 43 154 281 141 102 489 158 178 133 136 129 166 94 159 89 72 351 130 92 248 239 115 115 164 163
is_linear=0
shrinkage=0.05


Tree=3
num_leaves=64
num_cat=0
split_feature=1 0 19 6 20 1 2 162 117 162 20 182 19 139 124 163 19 129 20 106 20 0 19 128 0 109 19 18 90 123 2 0 182 67 138 19 121 146 0 121 29 30 114 183 89 48 123 37 55 20 19 159 181 89 51 69 127 18 0 106 88 5 183
split_gain=1.39726e+06 213766 161461 27702.6 25968.4 23111 16841.3 16739.4 14319.8 10748.4 8834.15 7162.5 4820.84 4319.73 3981.82 3041.59 2398.62 2338.47 2171.85 2119.39 2101.37 2018.97 1957.43 1634.83 1510.83 1278.37 1177.79 1139.75 1098.06 1087.39 985.867 879.175 839.6 775.037 746.11 706.571 704.317 683.827 673.217 663.428 576.876 553.694 549.894 549.302 490.816 472.946 445.518 443.954 429.669 407.96 399.279 386.257 385.91 384.262 376.336 409.505 374.106 373.051 390.522 342.477 319.616 311.02 305.069
threshold=18.07499980926514 21.219999313354496 12.675000190734865 3.0149999856948857 10.054999828338625 1.0000000180025095e-35 15.704999923706056 31.964999198913578 10.315000057220461 39.23500061035157 -6.0150001049041739 54.640390500000009 37.449998855590827 93.965000152587905 29.69999980926514 37.805000305175788 20.695000648498539 96.615001678466811 3.8650000095367436 22.364999771118168 17.835000038146976 2.9900000095367436 35.065000534057624 29.224999427795414 -20.095000267028805 41.905000686645515 30.175000190734867 0.31499999761581426 0.089999943971633925 24.414999961853031 -36.340000152587884 25.675000190734867 57.795225000000009 -5.1999893188476554 97.115001678466811 28.255000114440922 29.180000305175785 265.05000305175787 31.680000305175785 11.744999885559084 -0.040000677108764641 0.39000006020069128 -23.454999923706051 86.962233000000012 -1.0000000180025095e-35 -0.22999995946884152 24.894999504089359 -0.055000305175781243 -0.14999991655349729 14.579999923706056 28.035000801086429 8.9849996566772479 0.23499999940395358 0.53499984741210949 1.0000000180025095e-35 -0.020000003278255459 80.819999694824233 1.985000014305115 -22.130000114440914 15.015000343322756 -0.075000047683715806 6.1749999523162851 35.93288350000001
decision_type=2 2 2 2 2 2 2 2 2 2 2 2 2 2 2 2 2 2 2 2 2 2 2 2 2 2 2 2 2 2 2 2 2 2 2 2 2 2 2 2 2 2 2 2 2 2 2 2 2 2 2 2 2 2 2 8 10 2 2 2 2 2 2
left_child=2 4 3 27 8 14 15 10 22 20 16 13 25 30 24 31 -7 45 -10 35 28 41 53 -14 -4 -8 61 56 46 50 -5 59 51 -19 54 -11 -16 -32 -27 -30 -15 48 -26 -37 -33 -13 49 -18 -9 -6 -22 -20 -36 -2 55 -29 -1 -35 -59 -3 -42 -12 -24
right_child=1 6 5 11 9 7 12 21 18 19 26 17 23 40 36 -17 47 33 32 -21 29 -23 62 -25 42 38 -28 34 39 -31 37 44 -34 57 52 43 -38 -39 -40 -41 60 -43 -44 -45 -46 -47 -48 -49 -50 -51 -52 -53 -54 -55 -56 -57 -58 58 -60 -61 -62 -63 -64
leaf_value=-2.0241332465204702 -0.035951827781652845 0.57470144448073013 -1.1499309947273948 -1.4814032606645064 0.31695331870293131 -0.77345015352422541 0.92513195701347772 -1.1137571965494464 -0.91560360284952014 -0.24051229204051197 -0.35074298206497645 -1.5845529108462126 1.1434593889584579 -0.66586866617202767 -1.2270735947982125 0.52305088065086158 -0.36257253855304872 -1.0906886204429296 -0.24252127011617028 0.34640952115473539 0.42990040094956106 -0.58294287053113047 0.060255927655559316 0.9972524622019302 -0.75221084280859074 0.685445239520309 -0.0057421710203287377 -1.6376579618453981 0.35323465299956941 0.31710716207734252 -1.1658429788004969 0.72570234280006563 -0.71497253633680802 -1.5895841059477434 -1.7961431243202903 0.082105519579454278 -1.6104635887145997 -1.3379364128466007 0.90977670955657963 0.17059851331082551 -0.85270393280421986 -1.2445318150520326 -0.93650625010570865 -0.063812469143707015 0.9169623817716327 -1.7628195138411087 0.2564825099116812 -0.52587500936106635 -0.8920219424608592 0.42894409305446751 0.55172686974207563 -0.42998687483931103 -1.6031905952765015 -0.21369739656264963 -2.0216568821354914 -1.9297427336374922 -1.8616488213632623 -1.4330594452059999 -1.1708765053749086 0.72586841358996856 -1.0578465816586518 -0.17989011997720455 0.19047568408287552
leaf_weight=116 138 46 55 55 147 77 516 31 26 32 34 115 389 20 23 218 92 23 39 46 115 37 65 376 79 101 114 20 68 113 124 51 21 23 55 128 25 108 50 185 34 20 83 130 98 55 96 76 74 182 162 93 49 39 38 30 51 49 20 202 43 123 146
leaf_count=116 138 46 55 55 147 77 516 31 26 32 34 115 389 20 23 218 92 23 39 46 115 37 65 376 79 101 114 20 68 113 124 51 21 23 55 128 25 108 50 185 34 20 83 130 98 55 96 76 74 182 162 93 49 39 38 30 51 49 20 202 43 123 146
internal_value=-0.000813259 0.534084 -1.09123 -1.52466 0.16242 -0.618734 0.891949 -0.463983 -0.123169 0.277754 -0.324777 -1.33453 0.985935 -1.19358 -1.01466 0.673106 -0.542363 -1.52443 -0.493113 0.0311081 0.355351 -0.90738 0.0475014 1.0716 -0.923506 0.887686 -0.128068 -1.87899 0.302158 0.447824 -1.29108 0.755503 -0.421317 -1.35029 -1.7959 -0.0189052 -1.42676 -1.24596 0.759727 0.219686 -0.905121 -1.00341 -0.846634 0.00858095 0.851498 -1.64223 0.351252 -0.436447 -0.957487 0.378906 0.501149 -0.374599 -1.70523 -0.0751161 -1.90305 -1.81291 -1.97451 -1.41519 -1.35706 0.697829 -0.967264 -0.21689 0.150361
internal_weight=5989 4018 1971 1028 1971 943 2047 678 567 1404 516 669 1432 384 265 615 245 285 179 336 1068 162 388 765 217 667 271 359 678 390 287 397 153 115 192 290 48 232 151 253 97 125 162 258 149 170 425 168 105 329 277 132 104 177 88 50 167 92 69 248 77 157 211
internal_count=5989 4018 1971 1028 1971 943 2047 678 567 1404 516 669 1432 384 265 615 245 285 179 336 1068 162 388 765 217 667 271 359 678 390 287 397 153 115 192 290 48 232 151 253 97 125 162 258 149 170 425 168 105 329 277 132 104 177 88 50 167 92 69 248 77 157 211
is_linear=0
shrinkage=0.05


Tree=4
num_leaves=64
num_cat=0
split_feature=1 0 19 6 124 1 114 2 0 0 0 182 19 169 106 11 6 163 123 9 161 129 19 0 132 18 19 163 4 74 109 81 8 0 155 164 100 156 175 120 114 57 124 9 19 135 0 14 11 54 6 127 89 170 23 139 19 11 0 40 163 19 3
split_gain=1.26043e+06 191248 144905 25795.9 23247.7 20824.5 15144.6 14743.5 14021.4 8435.26 6894.56 6322.49 3856.96 3801.58 3589.66 3455.16 3133.18 2758.46 1826.82 1659 1650.6 1646.28 1573.01 1447.29 1333.83 1207 1202.52 1084.72 1005.78 981.539 917.277 906.312 733.454 632.149 622.349 563.293 561.521 546.473 532.857 520.572 508.695 480.73 478.047 459.739 448.845 426.462 413.827 412.093 394.258 391.092 383.854 377.92 376.678 364.745 354.411 347.606 345.122 321.584 320.097 313.835 302.685 296.108 295.404
threshold=18.07499980926514 21.219999313354496 12.675000190734865 3.0149999856948857 25.765000343322757 1.0000000180025095e-35 5.7950000762939462 15.704999923706056 10.015000343322756 -6.1150000095367423 10.960000038146974 54.640390500000009 37.449998855590827 11.465000152587892 22.364999771118168 94.43500137329103 15.394999980926515 37.805000305175788 24.894999504089359 4.3949999809265146 23.214999198913578 97.725002288818374 20.695000648498539 -20.095000267028805 7.1150000095367441 0.31499999761581426 30.175000190734867 39.475000381469734 1.5249999761581423 0.1000000834465027 41.905000686645515 -0.59000009298324574 25.135000228881839 31.680000305175785 0.84499999880790722 9.8649997711181658 0.14999973773956302 0.69499999284744274 0.21499999612569812 28.005000114440922 -23.454999923706051 0.10999995470046998 26.285000801086429 1.325000047683716 28.035000801086429 0.74500000476837169 26.125000000000004 265.05000305175787 97.115001678466811 1.1000001430511477 19.82499980926514 82.604999542236342 0.65499877929687511 2.1049998998641972 0.38499999046325689 90.625000000000014 23.224999427795414 91.854999542236342 -8.8249998092651349 5.3999969959259042 25.005000114440922 30.384999275207523 -4.8650000095367423
decision_type=2 2 2 2 2 2 2 2 2 2 2 2 2 2 2 2 2 2 2 2 2 2 2 2 2 2 2 2 2 2 2 2 2 2 10 2 2 10 2 2 2 2 2 2 2 2 2 2 2 2 2 10 2 2 2 2 2 2 2 2 2 2 2
left_child=2 4 3 25 10 13 9 17 16 22 28 15 30 23 36 29 27 32 20 37 -12 42 -7 -4 -14 51 -11 -6 -2 43 -9 -18 46 -32 49 -22 50 47 -17 -15 -25 -23 45 -5 -37 -13 -3 -8 -34 53 -10 -1 -20 -27 59 -30 -16 -33 -24 -55 -46 -19 -28
right_child=1 7 5 11 8 6 19 12 14 26 18 21 24 39 56 38 31 61 52 -21 35 41 58 40 -26 34 62 -29 55 -31 33 57 48 -35 -36 44 -38 -39 -40 -41 -42 -43 -44 -45 60 -47 -48 -49 -50 -51 -52 -53 -54 54 -56 -57 -58 -59 -60 -61 -62 -63 -64
leaf_value=-1.9242535901792122 -0.045014852902999052 0.73369285438371745 -1.0976897831474033 -1.2227628479401271 -0.37622385295954619 -0.73142400561152288 -0.74133972078561783 0.88021687651748093 -0.2234281931900316 -0.21459227319416679 0.22729274146879713 -1.2829984962940217 1.0766142138816472 -1.5604711214701334 0.19494700003088566 -0.96055806693384216 -0.072130517049226905 0.42219126425780262 0.27038094977329591 -0.55918614934472477 0.35478320822301435 -1.3266079326470694 -0.50833094227180053 -0.7118580290033848 0.94272835639436936 -1.9219759787282638 -0.1020663971527222 -0.79387239757573835 0.064742155694453934 -1.3446672079514483 0.65444366986101332 -0.44722450375556949 0.70902899230819161 0.86818329744171674 -1.4966427664602957 0.40373212821555865 0.063737773690293112 -1.1112821428399338 -0.71646241106920783 -1.2227876510620117 -0.88664213364774536 -1.0485948023588763 -1.6686180300828888 -1.0625907591411046 0.45882159358468555 -1.511117937224252 0.89436851622353142 -0.96700833147222343 0.57025884486533496 -1.5390318234761557 -0.039817986705833502 -1.747100492624136 0.12606352296687903 -1.637383508682251 -1.9196759080886843 0.18487419922416901 0.35553608148554228 -0.2760199112002738 -0.3573714140674164 -1.8531614433635366 0.57817377362932476 0.54410932926421474 0.061953488638568116
leaf_weight=132 95 92 56 96 22 74 32 536 36 179 120 24 401 21 57 59 40 77 167 34 164 48 89 79 347 31 47 53 91 98 88 48 166 57 31 165 117 38 36 25 88 23 41 84 116 140 71 55 74 21 136 39 62 72 20 178 81 64 58 22 98 141 66
leaf_count=132 95 92 56 96 22 74 32 536 36 179 120 24 401 21 57 59 40 77 167 34 164 48 89 79 347 31 47 53 91 98 88 48 166 57 31 165 117 38 36 25 88 23 41 84 116 140 71 55 74 21 136 39 62 72 20 178 81 64 58 22 98 141 66
internal_value=-0.000765032 0.512333 -1.03849 -1.45224 0.152352 -0.591324 -0.442506 0.847731 -0.0893889 -0.31036 0.278226 -1.26262 0.936125 -0.963091 0.0794123 -1.12838 -0.406914 0.644325 0.35306 -0.868864 0.395113 -1.44405 -0.543413 -0.877722 1.0145 -1.78666 -0.133973 -0.671362 0.0948427 -1.21734 0.850035 -0.276429 0.721831 0.738465 -1.70229 0.4322 -0.0207659 -0.953096 -0.868059 -1.37695 -0.80396 -1.23655 -1.51591 -1.14802 0.4657 -1.47773 0.80368 -0.884004 0.666242 -1.7407 -0.078248 -1.88385 0.231308 -1.7699 -1.72855 0.144235 0.289206 -0.349393 -0.448769 -1.68788 0.513478 0.501047 -0.00626717
internal_weight=5918 3960 1958 1017 1910 941 672 2050 654 513 1256 649 1429 269 427 373 227 621 892 159 663 276 221 223 748 368 292 75 364 278 681 152 403 145 197 543 289 125 95 46 167 71 205 180 379 164 163 87 240 166 172 171 229 145 114 269 138 112 147 94 214 218 113
internal_count=5918 3960 1958 1017 1910 941 672 2050 654 513 1256 649 1429 269 427 373 227 621 892 159 663 276 221 223 748 368 292 75 364 278 681 152 403 145 197 543 289 125 95 46 167 71 205 180 379 164 163 87 240 166 172 171 229 145 114 269 138 112 147 94 214 218 113
is_linear=0
shrinkage=0.05


Tree=5
num_leaves=64
num_cat=0
split_feature=1 0 19 1 6 124 162 2 20 20 20 182 124 118 106 139 163 0 19 6 121 162 141 4 19 4 19 12 5 37 5 56 0 117 139 7 183 80 165 37 120 19 20 160 100 2 163 6 0 26 17 37 51 19 143 99 149 80 121 0 19 89 7
split_gain=1.13741e+06 167275 145493 22421.8 22249.2 19316.4 16525.5 13666.5 11480.9 8103.65 5570.11 5400.24 3958.32 3887.33 3358.88 3072.91 2538.71 2485.38 1970.44 1813.96 1664.95 1452.99 1296.99 1247.99 1241.35 1131.67 1019.89 1022.36 965.925 942.679 918.531 897.61 787.173 746.263 644.57 548.516 544.946 521.326 508.424 473.74 468.862 455.39 455.386 444.488 435.804 430 396.355 393.876 384.212 352.428 336.617 329.893 323.541 321.599 316.72 356.83 315.841 348.782 311.111 309.375 297.972 377.98 295.628
threshold=19.045000076293949 21.219999313354496 12.675000190734865 1.0000000180025095e-35 3.0149999856948857 25.685000419616703 31.964999198913578 15.704999923706056 9.3449997901916522 -6.0150001049041739 13.875000000000002 54.640390500000009 29.69999980926514 17.115000724792484 22.364999771118168 93.965000152587905 37.895000457763679 4.0850000381469735 20.695000648498539 15.394999980926515 16.005000114440922 35.065000534057624 1.1449999809265139 -22.295000076293942 31.785000801086429 1.5249999761581423 35.065000534057624 0.19500000029802325 0.41499999165534979 0.86999893188476574 12.434999942779543 0.024999618530273441 25.095000267028812 11.515000343322756 96.884998321533217 62.905000686645515 86.962233000000012 1.4349999427795412 -24.585000038146969 0.49499893188476568 28.714999198913578 28.304999351501468 18.335000038146976 10.00500011444092 3.0099998712539677 -23.355000495910641 41.414999008178718 14.125000000000002 32.405000686645515 0.54999965429306041 0.48499999940395361 -0.26499938964843744 0.05000004172325135 28.855000495910648 2.4150000810623173 -0.100000262260437 258.44999694824224 -1.6400001049041746 21.204999923706058 -1.0199999809265134 39.174999237060554 0.57999801635742199 58.539999008178718
decision_type=2 2 2 2 2 2 2 2 2 2 2 2 2 2 2 2 2 2 2 2 2 2 2 2 2 2 2 2 2 2 2 2 2 2 2 10 2 2 2 2 2 2 2 2 2 2 2 2 2 2 10 2 2 2 2 2 2 2 2 2 2 2 10
left_child=2 5 4 12 28 10 9 16 19 18 25 15 23 48 36 31 32 49 -5 43 29 30 -19 -4 47 -2 27 -15 35 37 -12 -6 51 -21 54 -1 -10 -13 50 -34 -14 -38 -32 -7 60 -22 -28 -11 -9 58 -25 -3 62 -18 -30 -56 57 -33 -8 -49 61 -27 -36
right_child=1 7 3 6 11 8 17 13 14 24 21 20 40 26 -16 -17 53 22 -20 33 45 -23 -24 38 -26 44 46 -29 34 -31 42 56 39 -35 52 -37 41 -39 -40 -41 -42 -43 -44 -45 -46 -47 -48 59 -50 -51 -52 -53 -54 -55 55 -57 -58 -59 -60 -61 -62 -63 -64
leaf_value=-1.8742195841632314 -0.038028236527720263 0.73651623392105103 -1.1071162360055107 -0.69604777669253415 -1.2976787590118777 -0.49763793716063864 -0.89755436892205109 0.94859897837292562 0.042862282787556438 -0.25095269036821172 0.080976288943063648 -1.3647071106489315 -1.4662105842872903 0.83801406009777168 0.27087029947710412 -0.82539275845328541 0.36877581748095428 -0.75517918921652294 -0.38287403776038509 -0.13292069048418298 -1.6102706878904312 0.24767566283665052 -0.22216642832756045 -0.77090432129654241 0.048634041749953644 0.19901648014115647 0.87653199102183665 0.65928924303528269 -1.8888900995254518 -1.0206788810094198 0.37550011497329583 -1.1764599391392299 0.81933767263554358 -0.37912912927968528 -1.5848057270050049 -1.6927231951193378 -0.31240361792966725 -1.0903552699089052 -0.85542682170867923 0.65026007606869651 -1.1590030877486519 -0.056250670464453471 0.47165155191592573 -0.79000485676985521 0.059901083773676901 -1.3990182913266695 0.65566826093764541 -0.20126053290120485 1.0410470613580667 -1.0565648097991944 -0.56596006155014045 0.59142589252956668 -1.6402803557259695 0.50870829202510703 -1.5325904432932536 -1.7595128059387208 -1.1726871344176206 -0.98570856859809486 -0.71910753105625957 -0.051833046420455678 0.27008021746088962 0.053718411742011085 -1.3694684453912684
leaf_weight=79 72 50 35 73 83 26 94 179 157 79 21 129 27 185 143 91 55 21 161 46 63 205 25 51 103 223 621 141 20 30 275 35 121 93 28 88 20 20 105 63 23 131 223 26 69 39 21 58 302 25 33 181 42 162 30 41 88 76 33 86 101 56 37
leaf_count=79 72 50 35 73 83 26 94 179 157 79 21 129 27 185 143 91 55 21 161 46 63 205 25 51 103 223 621 141 20 30 275 35 121 93 28 88 20 20 105 63 23 131 223 26 69 39 21 58 302 25 33 181 42 162 30 41 88 76 33 86 101 56 37
internal_value=0.00255032 0.496706 -0.953475 -0.535015 -1.37727 0.155788 -0.394893 0.805842 -0.0669862 -0.256073 0.270664 -1.20273 -0.922651 0.890465 0.070614 -1.07803 0.611825 -0.787514 -0.480574 -0.391896 -1.36827 0.36038 -0.465498 -0.832865 -0.0949286 0.145993 0.832735 0.760713 -1.69001 -1.27639 0.404897 -1.15955 0.684289 -0.29765 -1.61531 -1.77858 -0.0223621 -1.32788 -0.782077 0.761447 -1.3249 -0.0901782 0.418556 -0.643821 0.175502 -1.5295 0.869307 -0.161238 1.00664 -0.884966 -0.690391 0.622831 -1.53212 0.473242 -1.71314 -1.66363 -1.10194 -1.04586 -0.851186 -0.112019 0.196492 0.169853 -1.46223
internal_weight=6019 3968 2051 1032 1019 1887 758 2081 642 560 1245 654 274 1449 451 373 632 198 234 191 281 724 46 224 326 521 968 326 365 179 519 282 415 139 198 167 308 149 189 184 50 151 498 52 449 102 642 223 481 152 84 231 107 217 91 71 199 111 127 144 380 279 65
internal_count=6019 3968 2051 1032 1019 1887 758 2081 642 560 1245 654 274 1449 451 373 632 198 234 191 281 724 46 224 326 521 968 326 365 179 519 282 415 139 198 167 308 149 189 184 50 151 498 52 449 102 642 223 481 152 84 231 107 217 91 71 199 111 127 144 380 279 65
is_linear=0
shrinkage=0.05


Tree=6
num_leaves=64
num_cat=0
split_feature=1 0 19 20 6 1 117 2 162 162 182 0 124 118 138 163 6 124 20 20 19 19 11 74 18 9 6 8 123 0 90 163 155 48 39 121 19 6 165 19 131 153 162 90 183 19 170 0 116 181 55 127 94 143 51 19 0 138 159 11 102 183 45
split_gain=1.02561e+06 173715 107337 24851 20843.5 15832.6 14276.3 13495.2 11038.4 8692.25 5126.28 5105.59 3646.89 3601.62 3048.36 2543.07 2049.52 2028.87 1807.58 1380.17 1357.51 1152.73 1116.36 1091.81 981.58 860.629 853.58 848.587 768.424 748.07 737.681 701.962 637.316 618.458 611.671 565.028 532.87 527.449 523.325 488.301 486.323 474.909 469.677 467.264 454.233 426.893 401.682 391.465 383.495 382.798 382.058 381.127 374.08 362.227 358.183 357.981 344.434 344.019 324.037 318.842 314.076 311.687 304.387
threshold=16.365000724792484 20.935000419616703 12.675000190734865 9.3449997901916522 3.0149999856948857 1.0000000180025095e-35 10.194999694824221 15.704999923706056 31.964999198913578 38.844999313354499 54.640390500000009 -8.8249998092651349 29.69999980926514 17.115000724792484 94.005001068115249 37.805000305175788 14.425000190734865 9.1700000762939471 17.835000038146976 18.139999389648441 35.395000457763679 30.464999198913578 96.825000762939467 0.11000007390975954 0.31499999761581426 4.3949999809265146 16.064999580383304 23.719999313354496 24.704999923706058 -18.605000495910641 0.089999943971633925 39.475000381469734 0.84499999880790722 -0.47999989986419672 -0.20000016689300534 11.744999885559084 35.604999542236335 19.314999580383304 -23.689999580383297 8.4549999237060565 0.5249999761581422 0.55500000715255748 41.555000305175788 -0.019999988377094265 86.962233000000012 14.394999980926515 2.6750000715255742 26.365000724792484 9.9250001907348651 0.21499999612569812 0.024999618530273441 82.604999542236342 -0.0099999941885471327 2.3750000000000004 -1.0000000180025095e-35 40.795000076293952 33.815000534057624 97.735000610351577 5.2850000858306894 96.444999694824233 1.9249997138977053 82.995782500000018 0.36999988555908209
decision_type=2 2 2 2 2 2 2 2 2 2 2 2 2 2 2 2 2 2 2 2 2 2 2 2 2 2 2 2 2 2 2 2 10 2 2 2 2 2 2 2 2 2 2 2 2 2 2 2 2 2 2 10 2 2 2 2 2 2 2 2 2 2 2
left_child=2 3 4 6 24 12 20 15 11 18 14 26 29 56 23 27 31 33 30 37 62 34 41 58 51 49 -7 47 -20 40 44 -8 52 54 -13 -32 -24 57 -31 -16 -4 -15 -14 -19 -5 -36 -47 -3 -33 -10 -43 -1 -26 -54 -12 -46 -9 -11 -6 -29 -56 -39 -2
right_child=1 7 5 9 10 8 16 13 25 19 17 21 42 22 39 -17 -18 43 28 -21 -22 -23 36 -25 32 -27 -28 59 -30 38 35 48 -34 -35 45 -37 -38 61 -40 -41 -42 50 -44 -45 55 46 -48 -49 -50 -51 -52 -53 53 -55 60 -57 -58 -59 -60 -61 -62 -63 -64
leaf_value=-1.7361880343893301 -0.093464633303422806 0.67319538333628437 -1.0229188176088555 0.38304017523549638 -1.073407746912018 -0.66502963108802915 -0.40812905799774896 0.92698494019046918 -0.82804069693495586 -0.32756863955408333 -1.197942784173148 -0.38752828704960207 -1.3790563996632894 0.85181535681088771 -0.85170088802065169 0.441457765498038 -0.34643684272964798 -1.6486511754989626 0.43262847648726571 0.25652646694618925 0.11851483445989186 -0.010242039229916899 0.52188684285855769 -1.2366663687299975 -1.3740779542922974 -0.54786311015486722 -0.42875225805164724 0.75314764093469699 0.26462370920312273 -0.62443810391099497 0.30483092476387286 -0.83088991425254122 -1.3384202410193051 -1.3312368999827993 -0.32721973203799948 0.14244222803546605 0.74725533149860524 0.068454844442884827 -0.81013411087325859 -0.60464284867048268 -0.75217071727470119 0.79410400970718875 -1.0707487129029774 -1.3899337792918631 0.22321454585066547 -0.29755854957243977 -0.099590801071518895 0.82977750373609149 -0.60540775584452078 -1.0550770084063212 0.65903713862101243 -1.5535090472963122 -1.7626815927439723 -1.564589924938911 -0.87425047556559243 0.33628023189527023 1.0145647742531516 -0.0676162639892261 -0.92245098972320561 0.57160381582276576 -1.1287531635978005 -0.040986752318527456 0.078562085963785652
leaf_weight=138 180 101 43 106 123 67 21 310 82 20 35 51 30 384 70 232 105 20 270 52 179 76 51 101 20 24 89 27 91 73 74 44 34 33 44 194 54 118 79 28 27 411 21 137 199 34 104 66 33 24 60 36 29 113 27 108 176 35 50 232 22 145 30
leaf_count=138 180 101 43 106 123 67 21 310 82 20 35 51 30 384 70 232 105 20 270 52 179 76 51 101 20 24 89 27 91 73 74 44 34 33 44 194 54 118 79 28 27 411 21 137 199 34 104 66 33 24 60 36 29 113 27 108 176 35 50 232 22 145 30
internal_value=0.00205644 0.445053 -0.963883 0.111897 -1.31272 -0.555572 -0.160028 0.762375 -0.410925 0.225905 -1.14132 -0.297055 -0.870828 0.847796 -1.02044 0.574656 -0.499922 -1.30544 0.299829 0.017719 0.0173455 -0.179335 0.79165 -1.10604 -1.61196 -0.81823 -0.53023 0.647195 0.390278 -0.783237 0.251882 -0.664371 -1.53523 -1.14783 -0.234489 0.187281 0.637791 -0.0213313 -0.720951 -0.781113 -0.918487 0.810545 -1.25211 -1.42289 0.293802 -0.191605 -0.148365 0.735078 -0.734255 -0.879445 0.776898 -1.69839 -1.57653 -1.60505 -1.07578 0.26299 0.958701 -0.162144 -1.02978 0.590529 -0.988517 0.00811632 -0.0688894
internal_weight=5992 4108 1884 2004 1016 868 592 2104 595 1412 646 465 273 1446 372 658 203 274 1042 370 389 309 960 274 370 130 156 426 361 222 681 98 196 117 233 268 105 318 152 98 70 855 51 157 413 182 138 167 77 106 471 174 162 142 84 307 486 55 173 259 49 263 210
internal_count=5992 4108 1884 2004 1016 868 592 2104 595 1412 646 465 273 1446 372 658 203 274 1042 370 389 309 960 274 370 130 156 426 361 222 681 98 196 117 233 268 105 318 152 98 70 855 51 157 413 182 138 167 77 106 471 174 162 142 84 307 486 55 173 259 49 263 210
is_linear=0
shrinkage=0.05


Tree=7
num_leaves=64
num_cat=0
split_feature=20 0 19 124 6 162 0 2 20 20 182 19 139 0 87 162 112 163 124 6 19 162 128 5 38 31 109 8 142 149 20 121 95 18 19 5 0 19 100 32 116 25 38 130 22 1 54 108 137 163 6 139 76 8 11 116 0 19 129 144 143 163 1
split_gain=937576 148220 98763.5 21512.8 19434.5 15349.4 17624.8 11832.9 10728.6 4517.62 4372.4 3259.48 2952.64 2463.41 2437.86 2220.64 2183.99 2047.49 1813.56 1502.67 1313.19 1188.55 1156.02 1120.93 1029.27 984.198 844.856 832.091 744.361 733.279 679.081 657.398 635.282 566.871 565.666 564.148 495.02 451.995 446.185 412.875 403.366 403.299 402.726 390.451 372.649 365.201 363.061 360.577 432.222 353.276 351.163 347.57 342.589 341.789 341.215 340.807 335.194 308.845 285.273 282.947 269.375 264.094 247.503
threshold=2.0799999237060551 20.935000419616703 12.675000190734865 26.035000801086429 3.0149999856948857 31.964999198913578 -8.8249998092651349 15.704999923706056 10.054999828338625 13.875000000000002 54.640390500000009 37.449998855590827 93.965000152587905 -18.195000648498532 -0.17499971389770505 38.065000534057624 9.3800001144409197 37.805000305175788 9.1700000762939471 14.425000190734865 30.675000190734867 35.065000534057624 29.224999427795414 10.914999961853029 -0.16999989748001096 0.13999992609024051 42.065000534057624 25.135000228881839 0.41499999165534979 263.30000305175787 9.3449997901916522 29.180000305175785 0.044999986886978156 0.28499999642372137 35.065000534057624 12.585000038146974 31.680000305175785 8.4549999237060565 0.14999973773956302 0.30999994277954107 -15.954999923706053 0.13499999791383746 -0.11999998986721037 98.189998626708999 1.575000047683716 3.9400000572204594 0.43000078201293951 26.775000572204593 99.954998016357436 23.714999198913578 12.204999923706056 91.465000152587905 0.61500024795532238 28.479999542236332 97.115001678466811 13.275000095367433 26.365000724792484 35.604999542236335 86.259998321533217 3.495000004768372 3.3750000000000004 30.73499965667725 -0.24499999731779096
decision_type=2 2 2 2 2 2 2 2 2 2 2 2 2 2 2 2 2 2 2 2 2 2 2 2 2 2 2 2 2 2 2 2 8 2 2 2 2 2 2 2 2 2 2 2 2 2 2 2 2 2 2 2 2 2 2 2 2 2 2 2 2 2 2
left_child=2 3 4 9 28 6 13 17 14 30 12 26 29 39 -5 52 38 27 24 25 45 35 -13 40 46 50 61 56 41 62 34 -17 -25 -30 -2 -11 -28 -14 55 -4 43 -1 -35 -15 -31 -8 60 48 -20 -32 -16 -21 -7 -37 -29 -10 -3 -19 -43 -47 -12 -9 -6
right_child=1 7 5 8 10 15 20 11 16 21 18 22 37 23 19 31 -18 57 47 51 -22 -23 -24 32 -26 -27 36 54 33 44 49 -33 -34 42 -36 53 -38 -39 -40 -41 -42 58 -44 -45 -46 59 -48 -49 -50 -51 -52 -53 -54 -55 -56 -57 -58 -59 -60 -61 -62 -63 -64
leaf_value=-1.4984463602304459 -0.012619918381795287 0.64657253260924441 -0.73164126047721278 -0.1104232972231981 -1.0062038029564753 -0.73456380320984183 -0.32629840607716615 0.84032634722219945 -0.24459123956444473 0.11200762105484803 -0.9517537727355958 0.93339165221643816 -0.7924281565869441 -0.8308200017611187 -0.86122913143851543 -1.022669925292333 0.24070560394475859 0.39599702813652127 -1.4679073959589006 -0.39165630660195283 -0.036823756903793442 0.22123457722020212 0.81352275152808251 -0.40832473337650299 -1.3048022270202637 -0.3046355615059535 0.55013174141446752 0.59546335217548396 -1.5901196133006703 -0.99919883790223496 0.24673697220365687 -1.3527363170276989 -0.60527297394185131 -1.3825479002080412 0.13645249778351615 0.46309080867357155 0.74050275514710628 -0.55265856981277472 0.062375583432680161 -0.97207437063518332 -0.53457818126678469 -1.5513000774383547 -1.5520812244415285 -0.58852021175882097 -1.1693735791143971 -0.25402624404155899 -0.87447356360299244 -1.1475059127807616 -1.2848566011282117 0.13729888042747573 -0.6113984075112221 -0.21535870253722719 -0.91021700030878971 0.35701615088371841 0.47035741284489635 -0.037419312197779275 0.79421414693196624 0.53775433131626682 -1.7735029862477232 -0.11193467002648574 -1.166645874295916 0.73838247058120765 -0.86258874469333235
leaf_weight=32 100 107 26 81 90 103 73 74 23 21 25 393 61 60 22 48 120 178 64 69 136 194 412 85 40 21 96 171 88 46 146 22 79 117 175 93 53 29 114 57 25 20 50 23 107 76 35 20 65 149 39 47 38 414 80 145 60 49 52 65 35 449 45
leaf_count=32 100 107 26 81 90 103 73 74 23 21 25 393 61 60 22 48 120 178 64 69 136 194 412 85 40 21 96 171 88 46 146 22 79 117 175 93 53 29 114 57 25 20 50 23 107 76 35 20 65 149 39 47 38 414 80 145 60 49 52 65 35 449 45
internal_value=0.00736729 0.436094 -0.899001 0.124129 -1.23717 -0.522064 -0.410091 0.726154 -0.103282 0.243995 -1.07653 0.804178 -0.965149 -0.658323 -0.341503 -0.896193 0.06205 0.547483 -1.22478 -0.436036 -0.158313 0.327069 0.872043 -0.585565 -1.09204 -0.599865 0.722883 0.613131 -1.5334 -1.04327 0.138769 -1.12641 -0.503196 -1.48742 0.0822443 0.365955 0.617848 -0.715169 -0.0139737 -0.896758 -0.710645 -1.64614 -1.43331 -0.763677 -1.11821 -0.235521 -1.00245 -1.34505 -1.37567 0.191461 -0.701501 -0.320225 -0.781903 0.376474 0.555589 -0.0657821 0.699617 0.426597 -1.71178 -0.188523 -1.07711 0.752807 -0.958332
internal_weight=6032 4095 1937 1973 1021 916 705 2122 681 1292 662 1477 378 355 279 211 402 645 284 198 350 722 805 272 135 82 672 418 359 288 570 70 164 255 275 528 149 90 282 83 108 104 167 83 153 214 95 149 129 295 61 116 141 507 251 168 167 227 72 141 60 523 135
internal_count=6032 4095 1937 1973 1021 916 705 2122 681 1292 662 1477 378 355 279 211 402 645 284 198 350 722 805 272 135 82 672 418 359 288 570 70 164 255 275 528 149 90 282 83 108 104 167 83 153 214 95 149 129 295 61 116 141 507 251 168 167 227 72 141 60 523 135
is_linear=0
shrinkage=0.05


Tree=8
num_leaves=64
num_cat=0
split_feature=20 0 19 124 6 1 162 20 2 0 20 182 19 124 137 182 106 163 4 19 125 12 132 169 167 20 109 19 62 0 18 138 69 74 123 120 181 141 124 124 39 7 9 19 183 21 120 163 19 114 104 87 182 19 49 181 72 19 37 142 172 78 112
split_gain=842838 133342 96973.6 19007.9 16716.7 14994 11804.5 9892 9777.86 5046.92 4493.23 3958.64 2718.02 2301.51 2147.18 2083.12 2075.81 1743.98 1334.67 1295.9 1197.42 1097.21 1050.32 1020.29 846.313 819.516 657.5 649.131 606.063 604.373 599.157 579.245 513.96 503.87 489.37 480.722 472.576 459.844 430.025 428.757 392.45 385.721 383.006 374.015 372.799 370.426 362.197 311.499 308.285 296.191 370.606 285.815 276.576 274.56 273.555 272.139 359.153 270.438 268.05 253.999 251.825 325.226 240.939
threshold=2.0799999237060551 21.219999313354496 12.489999771118166 26.035000801086429 3.0149999856948857 1.0000000180025095e-35 31.964999198913578 10.429999828338625 15.704999923706056 -8.8249998092651349 12.610000133514406 54.640390500000009 37.449998855590827 29.69999980926514 93.625000000000014 57.795225000000009 22.364999771118168 37.895000457763679 -22.864999771118161 30.675000190734867 69.825000762939467 1.2849999666213991 7.1150000095367441 11.184999942779543 3.4150000810623173 15.525000095367433 42.065000534057624 35.065000534057624 0.019999742507934574 25.185000419616703 0.31499999761581426 96.884998321533217 -0.025000005960464474 0.1000000834465027 26.115000724792484 0.31499999761581426 0.23499999940395358 2.5349999666213994 21.615000724792484 17.085000038146976 -0.20000016689300534 72.930000305175795 4.4349999427795419 35.465000152587898 82.995782500000018 1.9049999713897707 28.005000114440922 42.629999160766609 30.464999198913578 -23.454999923706051 -26.464999198913571 -0.16999936103820798 57.795225000000009 32.795000076293952 -0.050000002607703202 0.23499999940395358 -0.32999995350837702 14.394999980926515 0.49499893188476568 4.3450000286102304 2.0049999952316289 -0.47500038146972651 -24.714999198913571
decision_type=2 2 2 2 2 2 2 2 2 2 2 2 2 2 2 2 2 2 2 2 10 2 2 2 2 2 2 2 2 2 2 2 10 2 2 2 2 2 2 2 2 10 2 2 2 2 2 2 2 2 2 2 2 2 2 2 2 2 2 2 2 2 2
left_child=2 3 4 10 30 13 9 15 17 24 27 14 26 18 33 23 44 29 -4 40 32 39 -14 42 60 -23 -10 37 -16 -3 41 -32 -13 45 -17 -34 -8 -2 -27 -12 -11 -1 -5 -28 53 -6 -15 48 -19 50 -20 -29 -21 -9 -37 56 -33 -42 -31 -43 -7 -62 -51
right_child=1 8 5 7 11 6 36 16 12 19 21 20 22 46 28 34 -18 47 49 52 -22 25 -24 -25 -26 38 43 51 -30 58 31 55 35 -35 -36 54 -38 -39 -40 -41 57 59 -44 -45 -46 -47 -48 -49 -50 62 -52 -53 -54 -55 -56 -57 -58 -59 -60 -61 61 -63 -64
leaf_value=-1.5740095945504997 -0.033414632541877508 0.53494405296227454 -0.99016190040402297 -0.50832575518976564 -1.0696333765983581 -0.73308339769190012 -0.72751137276490541 -0.032730271919341435 0.7166065564762788 -0.3495918367924169 0.30287100423355495 -1.3219296550750732 0.88285820519222935 -1.266138930547805 -0.60055831134319304 -0.70182522569383898 0.23436830582585735 0.37050905243991172 -0.78388951619466152 -0.080001973936503587 -1.3001447930055505 0.23084753009754777 0.76424585022898617 -0.065342810382558542 -0.35218997244069827 0.42093775478276341 0.51908966827392578 0.082944965162273274 -0.83842614805489257 0.70466035142675176 -1.4929078026251359 -1.4944367228327571 -0.86207671562830601 -1.1135773280232224 -0.42408074286348862 -1.2076803645572147 -0.97959708517247979 0.14998369754425117 0.31867863625442427 0.17422546087898294 -0.29504928537846908 -1.4915025564340445 -0.2841238206816496 0.67807366750011711 -0.070847929000654924 -0.89175555610656743 -0.98927191804956505 0.30987180620431903 0.50913584955622637 -0.79744787908369497 -0.55701282231344118 0.18326629061661467 0.070659235811961638 0.11485807131773428 -1.035884379571484 -1.242147801139138 -1.2519474066220797 -0.15398752901846402 0.57202903566689334 -1.2723406982421874 -0.37977120632475075 -0.61118146168942356 -0.63755249443807105
leaf_weight=117 113 233 41 22 48 22 120 58 534 50 98 20 408 21 35 35 122 73 24 99 119 134 344 55 67 220 75 113 114 111 88 37 27 97 29 37 22 49 193 191 46 39 142 73 140 75 27 56 89 62 72 191 44 69 62 55 26 130 58 20 22 49 38
leaf_count=117 113 233 41 22 48 22 120 58 534 50 98 20 408 21 35 35 122 73 24 99 119 134 344 55 67 220 75 113 114 111 88 37 27 97 29 37 22 49 193 191 46 39 142 73 140 75 27 56 89 62 72 191 44 69 62 55 26 130 58 20 22 49 38
internal_value=-0.00535241 0.409291 -0.852302 0.115841 -1.19242 -0.490841 -0.36179 -0.100125 0.691312 -0.253136 0.227307 -1.03499 0.763044 -0.794677 -0.929109 -0.325035 0.0634989 0.525403 -0.730733 -0.15144 -1.18242 0.296655 0.828599 -0.251701 -0.487671 0.33829 0.690761 0.102897 -0.782551 0.587157 -1.4537 -1.39582 -1.08646 -1.02837 -0.575972 -1.04909 -0.766567 0.0220577 0.373151 0.217849 -0.225975 -1.52145 -0.3142 0.597507 -0.0145763 -0.961171 -1.1104 0.411528 0.446668 -0.676464 -0.613732 0.145976 -0.0336447 0.0474555 -1.10009 -1.32341 -1.39436 -0.190856 0.659142 -1.41721 -0.585276 -0.539477 -0.736688
internal_weight=6000 4028 1972 1974 1016 956 671 672 2054 529 1302 634 1434 285 369 283 389 620 237 369 265 836 752 219 160 547 682 466 149 402 382 206 146 220 64 126 142 162 413 289 226 176 164 148 267 123 48 218 162 196 96 304 143 127 99 118 63 176 169 59 93 71 100
internal_count=6000 4028 1972 1974 1016 956 671 672 2054 529 1302 634 1434 285 369 283 389 620 237 369 265 836 752 219 160 547 682 466 149 402 382 206 146 220 64 126 142 162 413 289 226 176 164 148 267 123 48 218 162 196 96 304 143 127 99 118 63 176 169 59 93 71 100
is_linear=0
shrinkage=0.05


Tree=9
num_leaves=64
num_cat=0
split_feature=20 0 19 124 6 1 123 20 19 37 20 182 20 11 169 138 0 182 105 121 0 167 123 5 19 87 18 163 172 19 161 20 145 149 183 110 114 107 19 81 119 123 127 1 82 163 19 130 181 43 5 62 51 75 98 113 7 0 80 69 89 134 19
split_gain=757480 113618 83448.5 17546.4 15616.4 13937.2 10835.9 7734.54 6580.28 5167.15 4423.04 3743.32 3196.98 3157.98 2489.47 2222.51 1592.58 1461.58 1433.06 1332.99 1304.19 1136.31 873.141 770.648 683.505 683.149 678.626 658.853 649.298 632.539 580.361 534.776 514.183 491.633 467.257 448.4 434.539 428.777 423.354 406.169 395.676 388.438 368.033 357.612 353.812 349.55 346.066 337.324 334.973 333.599 320.816 312.462 304.653 356.285 297.933 294.321 288.02 284.48 272.775 252.965 249.539 246.522 242.188
threshold=2.4450000524520878 20.474999427795414 12.489999771118166 26.035000801086429 3.0149999856948857 1.0000000180025095e-35 19.98499965667725 9.3449997901916522 35.065000534057624 0.50499725341796886 -6.0150001049041739 54.640390500000009 13.875000000000002 96.784999847412124 11.465000152587892 94.075000762939467 -19.64000034332275 57.795225000000009 22.724999427795414 3.0849999189376835 31.185000419616703 3.4150000810623173 24.894999504089359 21.394999504089359 36.444999694824226 -0.28500032424926752 0.28499999642372137 39.854999542236335 3.3649998903274541 31.724999427795414 23.214999198913578 9.3449997901916522 2.054999947547913 263.30000305175787 86.962233000000012 7.7449998855590829 -23.454999923706051 14.734999656677248 35.065000534057624 -0.25999879837036127 19.554999351501468 26.115000724792484 82.604999542236342 37.914999008178718 -0.82999897003173817 23.714999198913578 28.255000114440922 96.305000305175795 0.15500000119209292 -0.07000000029802321 6.3350000381469735 -0.019999988377094265 0.05000004172325135 -0.030000003054738041 -1.1000002622604368 7.310000181198121 61.335000991821296 -11.594999790191649 -1.1099999547004697 0.10999998450279237 0.044998168945312507 0.53499999642372142 38.555000305175788
decision_type=2 2 2 2 2 2 2 2 2 2 2 2 2 2 2 2 2 2 2 2 2 2 2 2 2 2 2 2 2 2 2 2 2 2 2 2 2 2 2 2 2 2 10 2 2 2 2 2 2 10 2 2 2 2 2 2 10 2 2 8 2 2 2
left_child=2 3 4 12 26 14 10 17 13 20 21 15 31 28 16 33 54 25 34 49 35 -7 30 -15 -22 -5 42 48 -3 50 -14 38 51 58 -9 -10 59 -17 -2 -21 -16 -19 47 -30 -34 -33 -36 -1 -8 -13 -12 -28 53 -46 -4 -27 61 -35 -6 -18 -26 -51 -24
right_child=1 8 5 7 11 6 27 18 9 -11 29 19 22 23 40 37 36 41 -20 39 24 -23 62 -25 60 55 32 -29 43 -31 -32 45 44 57 46 -37 -38 -39 -40 -41 -42 -43 -44 -45 52 -47 -48 -49 -50 56 -52 -53 -54 -55 -56 -57 -58 -59 -60 -61 -62 -63 -64
leaf_value=-1.5693592531135285 -0.0095193026554625249 0.67530821911124306 -1.0513957166671755 -0.090060075943140278 -0.96001730594994883 -0.51786064516823249 -0.59498238216998967 0.04371317282754493 0.47710220694541933 0.48340178858047411 -0.28085280189643036 -1.1595082237606957 0.17056751619758351 0.32825070142931079 -1.2445217436010187 -0.71884240884047301 -0.40497554923806878 -0.64027799301677291 0.22150946227833629 -1.2988597914377848 0.65657561847141821 -0.29230722749163796 0.10269653701409698 0.4854946519365374 0.78464766479120029 -0.46279327846490426 -1.6192061560494559 -0.90612097680568704 0.50666581801005772 0.018637576651526617 0.34123104139171262 0.23303453661501408 -1.3898432477315268 -1.0353681380932149 -0.26916689305078417 0.71726245063482763 -0.692537090375826 -0.45896491433183356 0.12314061511782293 -1.1400817314783731 -0.96332226457266978 -0.39438993262833566 -1.3248830241541709 0.65522786692569135 -1.2969684539302704 0.12071559252027347 -0.049548534868754511 -1.3629726629990797 -0.7621429673517528 -0.87044635963439942 -0.11728939339282769 -1.3777313180871913 -1.3457603791864907 -1.0657224310768976 -0.82709932766462624 -0.27506575887355039 -0.77126815199851995 -0.85701038572523336 -0.8122349174399125 -0.59138351128651545 0.87087401639331474 -1.0760208184378488 0.23053804822526613
leaf_weight=83 96 215 20 47 53 106 86 154 20 211 37 21 56 161 22 65 28 36 80 75 56 118 50 151 123 26 21 32 140 80 451 131 60 130 21 689 77 21 161 87 29 29 31 57 31 147 123 26 46 25 158 37 41 36 57 106 20 27 76 52 264 35 143
leaf_count=83 96 215 20 47 53 106 86 154 20 211 37 21 56 161 22 65 28 36 80 75 56 118 50 151 123 26 21 32 140 80 451 131 60 130 21 689 77 21 161 87 29 29 31 57 31 147 123 26 46 25 158 37 41 36 57 106 20 27 76 52 264 35 143
internal_value=-0.00547342 0.393023 -0.811872 0.108524 -1.13026 -0.475681 -0.349986 -0.108045 0.646169 0.710876 -0.234104 -0.98033 0.217598 0.524352 -0.768088 -0.878255 -0.699099 -0.327499 0.0336127 -1.12471 0.75254 -0.399042 0.287927 0.404353 0.819843 -0.253757 -1.39039 -0.702579 0.615224 -0.0997537 0.322381 0.125579 -1.33681 -0.945272 -0.0168293 0.710488 -0.607749 -0.655384 0.0735867 -1.21359 -1.08462 -0.530574 -1.4769 0.549651 -1.29249 0.173643 -0.0815762 -1.52013 -0.653235 -0.982148 -0.148325 -1.46516 -1.23841 -1.17272 -0.885358 -0.312042 -0.935591 -1.0047 -0.872952 -0.526141 0.843469 -0.990365 0.197418
internal_weight=5893 3944 1949 1857 1001 948 663 622 2087 1363 499 635 1235 724 285 372 234 244 378 263 1152 224 700 312 443 179 366 164 412 275 507 535 226 286 298 709 157 86 257 162 51 65 140 197 168 278 144 109 132 101 195 58 108 67 77 132 80 157 129 80 387 60 193
internal_count=5893 3944 1949 1857 1001 948 663 622 2087 1363 499 635 1235 724 285 372 234 244 378 263 1152 224 700 312 443 179 366 164 412 275 507 535 226 286 298 709 157 86 257 162 51 65 140 197 168 278 144 109 132 101 195 58 108 67 77 132 80 157 129 80 387 60 193
is_linear=0
shrinkage=0.05


Tree=10
num_leaves=64
num_cat=0
split_feature=1 2 19 163 6 1 4 2 162 1 9 182 19 32 6 139 105 8 138 163 122 182 19 169 19 2 166 18 89 142 19 5 139 2 57 114 19 124 171 183 50 8 1 19 162 95 39 19 127 51 6 3 75 113 149 2 134 98 18 9 135 128 164
split_gain=691047 108745 70159.5 16250.9 14107.5 11221.8 9174.44 8589.3 6828.6 4516.84 3466.29 3260.76 2583.14 2089.64 1853.54 1751.76 1662.66 1442.94 1273.74 1229.73 1008.56 948.947 941.95 935.937 908.27 787.793 709.711 667.64 666.193 634.254 613.092 581.634 562.638 527.275 517.132 505.315 501.313 500.522 463.977 462.352 445.372 410.271 386.403 361.752 347.183 339.063 332.729 331.182 291.599 291.483 291.087 300.861 285.966 277.068 321.548 268.805 268.387 264.019 258.976 258.387 264.386 256.038 254.573
threshold=16.365000724792484 9.1449999809265154 12.489999771118166 36.295000076293952 3.0149999856948857 1.0000000180025095e-35 7.1349999904632577 14.940000057220461 31.964999198913578 25.154999732971195 2.1450001001358037 54.640390500000009 37.449998855590827 0.075000762939453139 15.394999980926515 92.255001068115249 21.835000038146976 35.215000152587898 90.625000000000014 37.895000457763679 17.054999351501468 14.734569500000001 35.065000534057624 8.0349998474121112 21.069999694824222 -4.8599998950958243 14.715000152587892 0.31499999761581426 -0.81500244140624989 2.4750000238418584 30.384999275207523 16.644999504089359 96.884998321533217 1.2749999761581423 0.039999485015869148 6.4849998950958261 28.855000495910648 18.515000343322757 2.5349999666213994 35.93288350000001 -2.2799992561340328 83.784999847412124 -2.5499999523162837 35.465000152587898 41.43499946594239 0.03499999642372132 -0.20000016689300534 28.035000801086429 83.885002136230483 0.05000004172325135 20.304999351501468 7.6050000190734872 -0.060000006109476083 -16.30000019073486 236.65000152587893 -37.519998550415032 0.62500000000000011 -0.5599985122680663 7.6949999332427987 0.44499999284744268 1.0149999856948855 22.445000648498539 13.335000038146974
decision_type=2 2 2 2 2 2 2 2 2 2 2 2 2 2 2 2 2 2 2 2 2 2 2 2 2 2 2 2 2 2 2 2 2 2 2 2 2 2 2 2 2 2 2 2 2 10 2 2 10 2 2 2 2 2 2 2 2 2 2 2 2 2 2
left_child=2 3 4 9 27 13 14 19 10 22 24 15 29 -4 20 41 50 47 31 26 -5 44 38 34 53 45 -3 40 -16 -9 46 -15 -29 -19 59 -17 -28 -35 -2 -24 -1 -6 -20 -31 -14 -10 -12 -11 -42 52 51 -8 -34 54 -7 -43 -36 -25 -30 -13 -61 -38 -22
right_child=1 7 5 6 11 8 16 12 25 17 30 23 21 18 28 35 -18 33 42 -21 62 -23 39 57 -26 -27 36 32 58 43 -32 -33 49 37 56 -37 61 -39 -40 -41 48 55 -44 -45 -46 -47 -48 -49 -50 -51 -52 -53 -54 -55 -56 -57 -58 -59 -60 60 -62 -63 -64
leaf_value=-1.6198586177825929 -0.13379949976579616 0.33562793182391748 -0.58528367452484242 -0.2778492177672246 -0.74186136826224958 -0.77341919422149663 -0.26247706814952521 0.63949794554139594 -0.67156747971908959 0.29324011325836186 -0.30821626713363137 -1.1775451717954695 0.7099399985916659 -1.124501778019799 -0.030176043651546493 -0.75802093531987447 0.20755643709017352 0.16999749291580224 -0.76784753238453585 0.35831000233689947 -0.66490230357871871 0.80794487422739969 0.033156559395750886 -1.2900699159834121 -0.33187656583865799 -0.39505767788399354 0.31102604347726576 -1.3516830434190465 -0.2488273643760075 0.46088967441202522 -0.0091051329379635195 -0.86864697850983719 -1.2559692963309912 0.3127615348622203 -0.73552098057486803 -0.50587376518094018 0.64379403052791473 0.21332933897333808 0.031708797390145871 0.18540817538597462 -1.3958240021358836 -1.0804916262626649 -0.49506134305681498 0.60663934409618381 0.55330851139166415 -0.87681020454124181 -0.14782572550808681 0.43030048749026134 -1.1909519290924073 -1.2880682647228241 0.0042648570161502534 -0.026903660561550746 -1.0347087764739991 -0.40132236565862389 -0.51627190209204155 -0.93386396294707186 -0.97729667425155642 -1.1168138980865479 -0.44446063722882956 -0.89784187674522409 -1.072969741532297 0.52995974939055901 -0.4555467113852501
leaf_weight=20 59 51 139 34 23 20 23 543 79 70 41 33 381 36 33 146 111 276 34 210 53 338 76 45 127 22 23 94 87 91 70 58 23 220 22 23 62 298 150 145 132 40 21 80 39 27 153 119 20 40 216 33 40 21 31 143 24 43 21 32 66 243 20
leaf_count=20 59 51 139 34 23 20 23 543 79 70 41 33 381 36 33 146 111 276 34 210 53 338 76 45 127 22 23 94 87 91 70 58 23 220 22 23 62 298 150 145 132 40 21 80 39 27 153 119 20 40 216 33 40 21 31 143 24 43 21 32 66 243 20
internal_value=-0.00367293 0.360448 -0.795367 0.102034 -1.07985 -0.468806 -0.108938 0.616731 -0.344094 0.196248 -0.254731 -0.93789 0.681298 -0.724726 -0.345867 -0.843016 0.0444783 0.255373 -0.85481 0.455367 -0.502782 0.745583 0.0610843 -1.07215 -0.412306 -0.667336 0.509145 -1.32607 -0.226791 0.613053 -0.135953 -0.966634 -1.26323 0.225817 -1.00589 -0.723705 0.536125 0.255559 -0.0150136 0.13305 -1.39805 -0.940898 -0.663693 0.529077 0.695396 -0.723846 -0.181723 0.379537 -1.36887 -1.18251 -0.022072 -0.123657 -1.11549 -0.554175 -0.617114 -0.965914 -0.861665 -1.20541 -0.286867 -1.05653 -1.01579 0.5531 -0.607545
internal_weight=5993 4105 1888 2044 1009 879 631 2061 591 1413 463 640 1472 288 248 375 383 983 149 589 107 758 430 265 199 128 379 369 141 714 264 94 197 794 177 169 328 518 209 221 172 206 55 171 420 106 194 189 152 103 272 56 63 72 51 183 46 88 108 131 98 305 73
internal_count=5993 4105 1888 2044 1009 879 631 2061 591 1413 463 640 1472 288 248 375 383 983 149 589 107 758 430 265 199 128 379 369 141 714 264 94 197 794 177 169 328 518 209 221 172 206 55 171 420 106 194 189 152 103 272 56 63 72 51 183 46 88 108 131 98 305 73
is_linear=0
shrinkage=0.05


Tree=11
num_leaves=64
num_cat=0
split_feature=1 0 19 0 6 1 162 2 117 162 0 182 118 163 139 169 0 19 161 19 164 121 1 2 19 0 19 12 75 163 133 68 11 69 72 0 19 140 1 2 14 2 19 183 155 0 159 173 0 19 4 117 16 136 139 74 66 89 103 98 147 138 2
split_gain=622763 94449.6 71452.9 12616.9 11691.3 11602.5 8286.48 7597.84 6950.5 4920.04 3684.44 2435.74 2162.8 2038.03 1545.97 1397.06 1101.45 1097.92 1151.41 1049.22 1015.15 958.661 936.129 809.016 769.039 692.973 665.532 586.771 496.516 469.638 468.483 617.917 498.791 451.503 420.082 402.583 387.302 384.939 366.013 362.435 355.447 330.335 431.845 327.084 324.812 297.892 294.259 292.983 291.003 287.07 285.966 283.824 266.795 263.582 261.302 259.72 252.254 246.135 239.447 238.154 236.331 230.325 227.603
threshold=18.07499980926514 21.219999313354496 12.489999771118166 10.234999656677248 3.0149999856948857 1.0000000180025095e-35 31.964999198913578 16.060000419616703 10.715000152587892 39.23500061035157 -8.2349996566772443 54.640390500000009 15.805000305175783 35.524999618530281 93.604999542236342 10.394999980926515 17.994999885559086 23.224999427795414 40.045000076293952 35.065000534057624 12.644999980926515 3.0849999189376835 -10.820000171661375 -4.5150001049041739 30.175000190734867 25.414999961853031 35.795000076293952 0.18500000238418582 0.079999990761280074 8.9149999618530291 0.91500002145767223 -1.0000000180025095e-35 92.125000000000014 0.085000008344650282 -0.27000023424625391 26.365000724792484 3.0349999666213994 0.83499997854232799 8.0799999237060565 -27.194999694824215 224.84999847412112 3.2350000143051152 28.035000801086429 106.56525350000001 0.7749999761581422 32.745000839233406 5.2850000858306894 0.054999999701976783 -0.27500000596046442 28.255000114440922 -14.11500024795532 4.0950000286102304 0.60500001907348644 0.42499999701976782 96.915000915527358 0.32000041007995611 10.300010681152346 0.53499984741210949 -0.0099999988451600057 -0.6999993324279784 257.84999084472662 97.884998321533217 -35.260000228881829
decision_type=2 2 2 2 2 2 2 2 2 2 2 2 2 2 2 2 2 2 2 2 2 2 2 2 2 2 2 2 2 2 2 2 2 10 2 2 2 2 2 2 2 2 2 2 10 2 2 2 2 2 2 2 2 2 2 2 2 2 2 2 2 2 2
left_child=2 3 4 8 34 13 10 15 19 17 29 14 45 22 28 25 49 -5 41 57 47 44 -4 33 38 61 27 -14 46 50 31 -24 -32 48 36 -17 -1 -36 -12 -16 56 -19 -43 -22 52 -9 53 -10 -8 -11 -7 -20 -13 -6 -26 -46 -39 -2 -50 -23 -55 -3 -30
right_child=1 7 5 9 11 6 23 12 20 16 24 21 26 -15 39 35 -18 18 51 -21 43 59 30 -25 54 -27 -28 -29 62 -31 32 -33 -34 -35 37 -37 -38 40 -40 -41 -42 42 -44 -45 55 -47 -48 -49 58 -51 -52 -53 -54 60 -56 -57 -58 -59 -60 -61 -62 -63 -64
leaf_value=-1.3495983096531461 -0.026477814524931684 0.46496010060904092 -0.91292325428554 0.12037746047243376 -0.71268411590939484 -0.50216373551276428 -0.68256172225588851 0.70547067341597192 -0.64001240985734131 -0.1715969201691192 -0.2360767763070386 -0.8423151200467891 0.62202797343383487 -1.081155377420886 -0.78381557315588002 0.29505314752459527 0.21755791524874757 0.25001078541898591 0.12451761659224712 0.10170087076146075 -0.16969924841362696 -1.2172358512878418 -0.32651933477475098 -0.32428456425666807 -0.071598086955450599 0.58319953342653674 0.64839730984531352 0.49512956376586648 -1.1430729436874392 -0.62419755101203922 -0.77132656207451467 -0.59827729963880283 -0.54329255882062411 -0.82590476816350766 -1.3483114040259159 0.44952643950780236 -1.1886589863721062 -1.3727660179138184 -0.10989509058256303 -0.57876973703052059 -1.0642281816716781 0.27450368919283014 0.37438323169946675 -0.32820530138995457 -0.67960431900891394 0.79058063531638223 -0.75078023312583808 -0.38944887951016427 -0.6346066985811506 -0.0047809267130804294 -0.33209970947660383 0.24050252248259152 -1.0611068964004517 -0.81888387428139753 0.087649006840396448 -0.90277287960052499 -1.1669150932975438 -0.16290191977538848 -0.39856559254906399 -1.0611697720758844 -0.9522488390461783 0.28880359709262848 -0.93468799967514848
leaf_weight=140 133 257 28 151 21 31 63 184 28 29 99 22 199 29 32 142 58 220 139 229 52 30 26 20 57 159 640 168 20 20 65 107 38 33 33 60 51 22 137 66 57 213 220 87 22 233 63 20 21 233 122 85 38 53 47 32 46 44 22 132 89 20 38
leaf_count=140 133 257 28 151 21 31 63 184 28 29 99 22 199 29 32 142 58 220 139 229 52 30 26 20 57 159 640 168 20 20 65 107 38 33 33 60 51 22 137 66 57 213 220 87 22 233 63 20 21 233 122 85 38 53 47 32 46 44 22 132 89 20 38
internal_value=-0.000892302 0.357388 -0.728172 0.107061 -1.0228 -0.42072 -0.30624 0.593026 -0.0851388 0.191611 -0.208491 -0.898726 0.657269 -0.683283 -0.816956 0.449637 0.0204003 0.244906 0.266347 0.0310351 -0.337367 -1.0119 -0.639577 -0.621617 -0.112908 0.499999 0.617616 0.563938 -0.876043 -0.396342 -0.607146 -0.545152 -0.687198 -0.664399 -1.25673 0.340936 -1.30662 -1.19642 -0.162827 -0.645723 -1.15632 0.299902 0.325251 -0.268908 -0.900816 0.753026 -0.842551 -0.535611 -0.614119 -0.0232453 -0.366557 0.16853 -0.980883 -0.878021 0.00036935 -0.811852 -1.23351 -0.0603912 -0.513841 -1.09007 -0.902472 0.452241 -1.00654
internal_weight=5975 4003 1972 1941 1007 965 672 2062 593 1348 513 658 1424 293 382 638 320 1028 877 406 187 276 264 159 340 436 1007 367 284 173 236 133 103 139 349 202 191 158 236 98 125 653 433 139 114 417 226 48 106 262 153 224 60 163 104 54 68 177 43 162 142 277 58
internal_count=5975 4003 1972 1941 1007 965 672 2062 593 1348 513 658 1424 293 382 638 320 1028 877 406 187 276 264 159 340 436 1007 367 284 173 236 133 103 139 349 202 191 158 236 98 125 653 433 139 114 417 226 48 106 262 153 224 60 163 104 54 68 177 43 162 142 277 58
is_linear=0
shrinkage=0.05


Tree=12
num_leaves=64
num_cat=0
split_feature=20 0 19 163 19 162 0 2 20 20 182 19 11 163 6 162 163 1 106 123 19 111 19 182 133 78 19 0 0 45 19 149 78 11 138 127 145 121 19 21 159 35 1 141 175 77 107 37 4 53 126 51 0 19 165 19 165 19 7 174 114 25 20
split_gain=563227 85286.3 65139.4 12268.6 11550.3 10001.7 10514.4 7069.22 5754.83 3323.65 2833.64 1992.34 1697.85 1495.92 1465.81 1442.88 1357.16 1294.81 1139.51 1005.63 967.177 966.969 742.474 730.146 681.068 680.5 665.408 601.921 570.413 537.762 510.68 504.34 489.785 489.28 459.436 453.698 413.671 386.543 362.381 346.048 307.758 305.171 302.326 296.652 294.567 273.833 261.616 251.971 251.031 247.722 244.979 240.675 240.11 236.549 344.565 230.363 229.611 228.875 222.598 323.699 217.921 208.677 203.599
threshold=2.4450000524520878 20.935000419616703 12.675000190734865 38.114999771118171 4.6099998950958261 31.964999198913578 -8.8249998092651349 16.060000419616703 9.3449997901916522 15.525000095367433 54.640390500000009 37.449998855590827 94.43500137329103 35.065000534057624 15.394999980926515 38.065000534057624 37.565000534057624 -2.5499999523162837 22.654999732971195 25.685000419616703 21.069999694824222 -35.789999008178704 30.675000190734867 14.734569500000001 9.0950002670288104 -1.0800005197525022 0.91500002145767223 25.414999961853031 -27.760000228881832 0.41999912261962896 39.694999694824226 263.30000305175787 -0.49999998509883875 96.505001068115249 96.884998321533217 59.764999389648445 2.2649999856948857 29.180000305175785 35.465000152587898 1.9550000429153445 5.3350000381469735 0.04999996721744538 -2.5499999523162837 1.2250000238418581 0.21499999612569812 -0.060000006109476083 -14.880000114440916 0.49499893188476568 -6.0450000762939444 -0.080000996589660631 65.134998321533217 0.05000004172325135 22.82499980926514 28.035000801086429 14.59500026702881 38.635000228881843 -27.079999923706051 38.004999160766609 58.539999008178718 0.085000000894069686 19.765000343322757 0.43500000238418585 32.635000228881843
decision_type=2 2 2 2 2 2 2 2 2 2 2 2 2 2 2 2 2 2 2 2 2 2 2 2 2 2 2 2 2 2 2 2 2 2 2 10 2 2 2 2 2 2 2 2 2 2 2 2 2 2 10 2 2 2 2 2 2 2 10 2 2 2 2
left_child=2 3 4 9 26 6 17 16 14 13 12 33 31 25 24 -7 27 29 -10 53 -19 28 48 -13 -5 57 36 -3 -12 -4 43 39 -23 60 49 -16 -1 -17 -35 42 -33 56 -6 -27 45 -14 -38 -29 -8 -28 -48 58 -18 -11 -55 -21 -30 -2 -36 -60 -9 -52 -25
right_child=1 7 5 8 10 15 22 11 18 19 21 23 44 -15 35 37 52 20 -20 55 -22 32 -24 62 -26 30 34 47 41 -31 -32 40 -34 38 51 -37 46 -39 -40 -41 -42 -43 -44 -45 -46 -47 50 -49 -50 -51 61 -53 -54 54 -56 -57 -58 -59 59 -61 -62 -63 -64
leaf_value=-1.3948808270831441 -0.032164011161838625 0.42874154152889404 -0.53406220357865097 -0.59420962844576153 -0.89758331470000441 -0.59812227348758751 -0.24698503512162262 0.65695965430315806 -0.043670610538652156 0.25656967396671709 -1.0222935267857143 0.63304837089014288 -0.50466805001099901 -0.049645302408633935 -0.069610940013080838 -0.79478330516815188 0.25152318757305397 -0.52686414914826551 0.17643934514145465 0.085498168366029859 -0.31799892020746345 -1.1706043519973754 -0.034198025571133356 0.65784332197006445 -0.2850851604448898 0.084134672621489867 -1.3170873215324002 0.58707316259699549 -0.97902665138244638 -0.74523133478666614 0.24459761152232906 -0.92209404936203598 -0.98213562686164113 0.4157855025837931 -1.1182930985012571 -0.26555406768863971 -1.1204985556395159 -1.0462836850773205 0.55730072026667388 -0.61618490397930148 -0.7767075398138592 -0.64357226170875415 -0.71185188531875621 0.17213511714982876 -0.45296886554786142 -0.72270561390452925 -1.4122076251290061 0.45728313787928165 -0.13724880662691372 -1.1377075011913593 -1.1239677725167112 -1.1607795500287823 0.36223695639643694 0.27543777977080314 0.39446791275687842 0.20256542880934747 -0.77098864648077226 0.088167765813000926 -1.0979283913322118 -0.84675175239299905 0.56844063011139478 -1.3256400522978411 0.7521863496664799
leaf_weight=43 58 248 64 49 39 146 82 85 147 185 35 422 24 133 40 50 67 120 98 68 103 50 152 73 28 174 38 127 21 57 138 104 111 89 37 113 46 22 92 40 56 27 50 213 35 36 22 53 143 39 29 51 182 129 115 110 36 124 23 29 382 23 264
leaf_count=43 58 248 64 49 39 146 82 85 147 185 35 422 24 133 40 50 67 120 98 68 103 50 152 73 28 174 38 127 21 57 138 104 111 89 37 113 46 22 92 40 56 27 50 213 35 36 22 53 143 39 29 51 182 129 115 110 36 124 23 29 382 23 264
internal_value=-0.00468329 0.336463 -0.693857 0.0962334 -0.965635 -0.39169 -0.30196 0.558018 -0.124251 0.168611 -0.839822 0.621897 -0.751621 0.104194 -0.303873 -0.688455 0.425261 -0.501848 0.0443734 0.257754 -0.430393 -0.960783 -0.119569 0.676872 -0.481801 0.133134 -1.18548 0.479257 -0.852705 -0.633539 0.162017 -0.8119 -1.04067 0.557504 -1.12813 -0.214327 -1.26182 -0.871631 0.487716 -0.738339 -0.871209 -0.782043 -0.79324 0.132569 -0.568246 -0.635491 -1.21414 0.548857 -0.177242 -1.22623 -1.27234 -1.07418 0.332447 0.299209 0.331538 0.157843 -0.847634 0.0498203 -1.02455 -0.957849 0.584552 -1.21317 0.73175
internal_weight=5989 4006 1983 1922 1044 939 721 2084 475 1447 664 1407 384 840 230 218 677 344 245 607 223 280 377 759 77 707 380 428 119 121 525 289 161 648 217 153 163 72 181 129 160 84 89 387 95 60 120 180 225 77 74 140 249 429 244 178 57 182 89 52 467 52 337
internal_count=5989 4006 1983 1922 1044 939 721 2084 475 1447 664 1407 384 840 230 218 677 344 245 607 223 280 377 759 77 707 380 428 119 121 525 289 161 648 217 153 163 72 181 129 160 84 89 387 95 60 120 180 225 77 74 140 249 429 244 178 57 182 89 52 467 52 337
is_linear=0
shrinkage=0.05


Tree=13
num_leaves=64
num_cat=0
split_feature=1 20 19 163 6 162 0 2 20 20 182 118 0 139 6 166 1 163 4 182 19 162 132 1 2 8 11 67 13 165 145 11 15 137 163 175 2 80 69 57 7 7 52 168 35 141 179 160 153 105 37 37 103 55 130 6 0 84 90 19 19 26 110
split_gain=499868 83672.4 55430.9 11839.7 9169.38 7761.9 9089.16 6508.34 4806.75 3217.9 2207.61 1901.49 1311.3 1306.31 1213.86 1208.76 1152.64 1071.36 1082.04 1010.98 933.191 925.16 890.594 743.083 648.232 626.434 603.55 563.7 542.133 519.676 472.132 439.713 388.969 378.789 370.823 355.517 343.881 343.29 330.437 327.873 335.429 355.567 326.267 323.814 304.979 300.715 295.335 287.046 276.852 272.865 272.413 268.986 268.181 264.127 258.786 252.981 250.935 246.13 261.502 241.451 236.175 235.253 235.063
threshold=17.244999885559086 21.214999198913578 12.675000190734865 38.114999771118171 3.0149999856948857 31.964999198913578 -8.8249998092651349 15.704999923706056 9.3449997901916522 15.204999923706056 54.640390500000009 16.394999504089359 -14.449999809265135 98.895000457763686 14.425000190734865 28.974999427795414 -3.8499999046325679 35.065000534057624 1.5249999761581423 36.62369300000001 21.069999694824222 35.239999771118171 0.91500002145767223 11.045000076293947 -5.0650000572204581 23.719999313354496 96.825000762939467 7.6999979019165048 2.6350001096725468 14.22499990463257 2.2849999666213994 90.135002136230483 257.65000915527349 96.74499893188478 42.954999923706062 0.21499999612569812 23.144999504089359 -0.47000014781951899 0.12500000000000003 0.039999995380640037 74.055000305175795 78.36999893188478 -0.51000010967254628 6.7449998855590829 0.089999943971633925 0.16499999910593036 0.35500000417232519 9.2150001525878924 0.55500000715255748 3.8349999189376835 -0.38500213623046869 0.77500152587890636 0.11499999463558198 0.024999618530273441 98.064998626708999 25.365000724792484 33.094999313354499 0.059999704360961921 -1.0000000180025095e-35 39.114999771118171 36.295000076293952 0.89999979734420787 -38.645000457763665
decision_type=2 2 2 2 2 2 2 2 2 2 2 2 2 2 2 2 2 2 2 2 2 2 2 2 2 2 2 2 2 2 2 2 2 2 2 2 2 2 10 2 10 10 2 2 2 2 2 2 2 2 2 2 2 2 2 2 2 2 2 2 2 2 2
left_child=2 3 4 9 30 6 16 15 14 17 13 56 -7 28 47 25 42 18 -2 -10 54 -11 27 55 44 60 48 38 57 -16 33 -20 39 -1 50 37 -28 -15 -12 40 -32 -42 -4 -24 -14 -23 -43 -5 -13 -25 -27 -19 -35 -50 62 -8 -9 58 -6 -33 -3 -61 -18
right_child=1 7 5 8 10 12 23 11 19 21 22 26 24 35 29 -17 20 51 31 -21 -22 45 43 49 -26 34 36 -29 -30 -31 32 59 -34 52 -36 -37 -38 -39 -40 -41 41 46 -44 -45 -46 -47 -48 -49 53 -51 -52 -53 -54 -55 -56 -57 -58 -59 -60 61 -62 -63 -64
leaf_value=-1.0165820453477943 -0.034573134638207118 0.48587228538560084 -0.75572647586945563 -0.28034421971866064 -0.71812933898833864 -0.94434487588943983 -0.20854073964570077 0.6417282649590268 0.11551327694150555 0.27555105526832974 -0.81051526950753261 0.59444753717987131 -0.59524521241037875 -0.48711321977051825 -0.065906258424123135 0.2797737890289676 -0.65530296478952677 -0.023174739229963513 0.055004414863569641 -0.08859556264458307 -0.31504884560632967 -0.035039931833744049 -0.9372692117170125 -0.010434463587355057 -0.34431392615256101 0.55514537841081624 0.40148253722683247 -0.96992460559396187 -0.84602818284461745 -0.26787182986736296 -1.1745101159079032 0.13281450869137609 -0.89455765944260834 -1.1861531459923949 0.22037984006679975 -0.39860658090690088 0.63023952960968022 -0.76974026135035922 -0.59931229006859565 -0.90622299432754516 -0.88018013338247936 -1.2536853443492544 -0.56000490153537086 -1.0878549173766492 -0.77495289259943467 0.16812152720293871 -1.0234882204156175 -0.49219996021754708 0.55338126429761658 -0.17670636092623077 0.40189303567687285 -0.22529856294393538 -1.3664494355519614 0.44181379607466403 -0.39620948949375667 -0.019588533192873001 0.71738626351997037 -0.63704096701607782 -0.90865663445514189 0.26575160916940671 0.6258743786811829 0.13247273107990623 -0.49369196276816113
leaf_weight=23 115 122 31 21 83 31 155 241 131 425 46 429 127 22 45 155 35 93 142 113 115 20 119 139 23 32 92 34 134 109 114 345 26 66 26 29 20 21 31 20 24 22 68 51 29 204 38 67 407 30 309 20 30 61 37 20 201 67 23 81 40 56 63
leaf_count=23 115 122 31 21 83 31 155 241 131 425 46 429 127 22 45 155 35 93 142 113 115 20 119 139 23 32 92 34 134 109 114 345 26 66 26 29 20 21 31 20 24 22 68 51 29 204 38 67 407 30 309 20 30 61 37 20 201 67 23 81 40 56 63
internal_value=0.00167439 0.312392 -0.663319 0.078881 -0.915333 -0.377815 -0.297119 0.529716 -0.135612 0.14833 -0.804317 0.589653 -0.644113 -0.725578 -0.293506 0.402567 -0.476895 0.0844353 0.10636 0.0209875 -0.419714 0.232211 -0.910518 -0.11473 -0.592117 0.438546 0.55177 -0.800359 -0.770532 -0.208856 -1.11718 0.132333 -1.07736 -1.19883 0.402396 -0.533898 0.442332 -0.62514 -0.725485 -1.09916 -1.11865 -1.04283 -0.621291 -0.982445 -0.628652 0.149982 -1.10789 -0.441643 0.565435 -0.0399502 0.416274 -0.0589489 -1.2425 0.538839 -0.508874 -0.186946 0.676134 -0.712055 -0.75947 0.155115 0.520441 0.211273 -0.55141
internal_weight=6048 4122 1926 1987 1023 903 693 2135 486 1501 660 1451 210 379 242 684 349 852 739 244 250 649 281 344 179 529 1009 111 307 154 363 624 244 119 367 72 112 43 77 218 198 84 99 170 156 224 60 88 897 169 341 113 96 468 135 175 442 173 106 482 162 137 98
internal_count=6048 4122 1926 1987 1023 903 693 2135 486 1501 660 1451 210 379 242 684 349 852 739 244 250 649 281 344 179 529 1009 111 307 154 363 624 244 119 367 72 112 43 77 218 198 84 99 170 156 224 60 88 897 169 341 113 96 468 135 175 442 173 106 482 162 137 98
is_linear=0
shrinkage=0.05


Tree=14
num_leaves=64
num_cat=0
split_feature=20 0 19 124 19 123 20 2 20 182 20 118 138 163 0 124 82 0 166 130 0 140 8 5 74 161 19 82 38 69 37 32 2 173 159 19 145 1 25 183 19 124 19 7 51 145 21 2 89 151 170 102 0 86 10 105 50 164 73 120 181 127 2
split_gain=459704 70954.6 49896.3 10539.2 9014.78 7335.14 8514.8 7064.92 4892.14 1799.48 1667.41 1486.58 1343.68 1204.3 1185.67 1040.07 972.154 931.897 930.14 901.589 822.161 679.478 646.164 499.592 483.233 452.6 432.051 430.132 398.4 387.112 365.186 360.14 356.861 343.564 337.195 328.074 332.435 319.311 356.924 317.684 396.017 315.936 296.949 280.256 277.302 256.859 251.938 251.247 246.835 245.647 242.606 236.45 231.716 227.909 223.69 220.771 218.893 210.338 243.808 203.866 203.297 201.847 196.878
threshold=2.0799999237060551 20.025000572204593 12.675000190734865 25.634999275207523 4.6099998950958261 20.644999504089359 -10.559999942779539 17.030000686645511 9.3449997901916522 54.640390500000009 13.875000000000002 17.760000228881839 94.075000762939467 37.555000305175788 -18.195000648498532 29.69999980926514 -0.67000004649162281 -5.1249999999999991 23.664999961853031 97.465000152587905 23.32499980926514 1.2849999666213991 89.694999694824233 0.41499999165534979 0.1000000834465027 11.515000343322756 14.394999980926515 -0.82999897003173817 -0.08000000566244124 0.12500000000000003 0.50499725341796886 0.30999994277954107 -10.65499973297119 0.18500000238418582 4.8750000000000009 35.065000534057624 2.554999947547913 -5.2850000858306876 0.25499999523162847 86.962233000000012 28.255000114440922 17.085000038146976 40.045000076293952 63.565000534057624 1.0000000180025095e-35 3.1049998998641972 4.9349999427795419 14.050000190734865 0.72499847412109386 88.750000000000014 10.00500011444092 -0.050000131130218499 27.57499980926514 -0.42999935150146479 3.0649999380111699 15.015000343322756 -0.17000001668930051 -16.414999961853024 -0.020000010728836056 15.494999885559084 0.19500000029802325 81.159999847412124 -29.095000267028805
decision_type=2 2 2 2 2 2 2 2 2 2 2 2 2 2 2 2 2 2 2 2 2 2 2 2 2 2 2 2 2 10 2 2 2 2 2 2 2 2 2 2 2 2 2 10 2 2 2 2 2 2 2 2 2 2 2 2 2 2 2 2 2 10 2
left_child=2 3 4 10 23 6 14 13 16 12 27 49 24 20 31 28 -5 46 39 29 55 41 54 43 -6 57 -19 59 -7 -11 52 -4 -30 44 37 36 -13 38 45 -10 -41 -12 48 51 -21 -25 -8 -15 -29 -9 -27 -1 -22 -31 -18 -3 -14 58 -16 -2 -45 -40 -26
right_child=1 7 5 8 9 15 17 11 18 19 21 35 56 47 25 -17 22 26 -20 33 30 -23 -24 34 62 50 -28 42 32 53 -32 -33 -34 -35 -36 -37 -38 -39 61 40 -42 -43 -44 60 -46 -47 -48 -49 -50 -51 -52 -53 -54 -55 -56 -57 -58 -59 -60 -61 -62 -63 -64
leaf_value=-1.1358295582710429 -0.017934280012347058 0.24169148675552232 -0.50676389357139329 -0.093414931519723993 -0.69489060500834854 -0.68986934743276462 -0.39862554995786575 0.65822962931032936 0.030996054188913796 -0.96479564774781468 0.23266919789552365 0.51635647548569574 -0.42388324189398974 0.27689025124182576 -0.37732105206698185 -0.8096332944356478 -0.30061714747484697 -0.24405642123345067 0.1633944393025451 -0.73426214147497104 0.47618652694133107 0.2621982554879978 -0.55652560740709311 -0.88921494532604606 -0.86823000938077532 -0.30204260977109276 -0.053099241444142534 0.12664811720796934 -0.55473259557591814 -0.73590465093913837 0.39781895422302521 -0.72667507254160368 -0.35300072293196405 -0.85996845165888469 -1.1869068164091845 0.54782098907848886 0.39046729609772968 -0.86141637265682225 -1.1880470652329294 -0.27040492310410452 -0.036394979131336401 0.11764168220900875 0.21785129953127402 -1.1799848858515423 -0.49200548245793296 -1.1018470668792726 -0.21003479872772524 0.38023828171193602 0.0012785588219032988 0.58298541528339953 -0.45850065463298084 -1.3137217690867764 0.58331284829548424 -0.90396560208742016 -0.12193473156541586 0.37252253165702948 -0.58441079973622612 -0.35466706561190742 -0.57591493340099553 0.097536598529611065 -1.0181757458773528 -1.0051153030395508 -0.71183394326104066
leaf_weight=47 89 41 29 68 188 41 21 356 168 128 92 180 35 222 20 52 141 34 93 27 181 389 24 49 79 75 230 268 101 38 113 52 28 24 26 580 74 36 38 21 130 170 77 30 21 20 113 80 46 156 37 31 70 43 20 151 54 21 68 67 55 25 27
leaf_count=47 89 41 29 68 188 41 21 356 168 128 92 180 35 222 20 52 141 34 93 27 181 389 24 49 79 75 230 268 101 38 113 52 28 24 26 580 74 36 38 21 130 170 77 30 21 20 113 80 46 156 37 31 70 43 20 151 54 21 68 67 55 25 27
internal_value=0.00250351 0.304757 -0.63016 0.0776019 -0.87094 -0.363526 -0.284105 0.496767 -0.0820171 -0.762001 0.166205 0.56824 -0.691497 0.384644 -0.484297 -0.613953 -0.255077 -0.132201 0.0242553 -0.858097 0.428301 0.220276 -0.314499 -1.07356 -0.743024 -0.424318 -0.0776922 0.101853 -0.554098 -0.910664 0.472459 -0.647941 -0.510946 -0.705506 -1.01934 0.527068 0.47968 -0.993412 -1.02941 -0.0163088 -0.0689394 0.158033 0.129859 -1.13809 -0.628275 -0.950847 -0.23959 0.304267 0.108282 0.635304 -0.35373 -1.20653 0.506062 -0.825122 -0.278421 0.344585 -0.521282 -0.49685 -0.53078 0.031659 -1.07528 -1.11546 -0.828393
internal_weight=6010 4067 1943 1863 1021 922 700 2204 665 664 1198 1346 383 858 302 222 253 398 412 281 556 651 185 357 294 221 264 547 170 209 364 81 129 72 194 834 254 168 132 319 151 262 391 163 48 69 134 302 314 512 112 78 251 81 161 192 89 109 88 156 85 63 106
internal_count=6010 4067 1943 1863 1021 922 700 2204 665 664 1198 1346 383 858 302 222 253 398 412 281 556 651 185 357 294 221 264 547 170 209 364 81 129 72 194 834 254 168 132 319 151 262 391 163 48 69 134 302 314 512 112 78 251 81 161 192 89 109 88 156 85 63 106
is_linear=0
shrinkage=0.05


Tree=15
num_leaves=64
num_cat=0
split_feature=1 0 6 1 182 124 162 2 20 4 0 6 117 0 106 169 139 123 162 123 20 183 12 0 6 30 20 121 80 132 4 178 124 51 54 13 4 142 8 5 114 81 135 112 135 124 149 9 39 156 136 14 56 27 100 76 62 76 121 125 98 86 108
split_gain=411775 59678.5 47098.1 11273.5 8304.52 7492.4 5797.12 4921.49 4358.56 2662.01 2070.6 1749.66 1445.71 1268.55 1260.61 1090.33 1045.65 950.035 927.807 817.93 695.829 633.942 623.995 568.551 564.048 458.091 442.884 440.904 425.416 410.394 366.947 361.48 353.015 351.906 346.105 328.221 325.701 315.623 314.378 309.21 304.721 301.592 294.329 281.72 270.079 265.104 262.427 257.177 251.888 250.961 245.683 240.38 226.316 225.741 224.935 228.742 223.913 223.408 223.339 217.202 205.46 198.399 194.696
threshold=19.045000076293949 21.219999313354496 8.1649999618530291 1.0000000180025095e-35 54.640390500000009 25.685000419616703 31.964999198913578 17.204999923706058 10.429999828338625 -6.0450000762939444 10.960000038146974 2.9250000715255742 18.835000038146976 -19.64000034332275 22.364999771118168 10.394999980926515 92.365001678466811 26.164999961853031 38.114999771118171 26.564999580383304 -10.880000114440916 106.56525350000001 1.3049999475479128 25.525000572204593 14.125000000000002 0.42000004649162298 15.525000095367433 2.0949999094009404 -1.1300005912780759 5.5950000286102304 0.95500001311302196 5.4849998950958261 17.085000038146976 0.019999988377094272 1.0549993515014651 5.8750000000000009 20.039999961853031 0.39499999582767492 83.784999847412124 22.335000038146976 -23.454999923706051 -0.47500038146972651 1.9249999523162844 -40.745000839233391 1.6649999618530276 21.615000724792484 251.79999542236331 3.0149999856948857 -0.19499993324279782 0.82499998807907116 0.45499999821186071 241.44999694824222 -0.84000009298324574 0.73999881744384777 0.030000448226928714 -0.39499998092651362 0.060000000521540649 0.60000014305114757 11.984999656677248 79.680000305175795 -0.6999993324279784 -1.0000000180025095e-35 25.865000724792484
decision_type=2 2 2 2 2 2 2 2 2 2 2 2 2 2 2 2 2 2 2 2 2 2 2 2 2 2 2 2 2 2 2 2 2 2 2 2 2 2 2 2 2 2 2 2 2 2 2 2 2 10 2 2 2 2 2 2 2 2 2 10 2 2 2
left_child=2 5 4 13 16 10 9 15 17 20 30 33 61 35 -10 23 38 42 40 25 56 -19 32 31 -11 46 -24 43 -18 58 -2 -3 -12 34 49 -4 -14 -35 -1 -17 -15 53 -7 -13 -38 -28 -8 -26 -22 54 -40 -42 -39 -29 55 -6 60 -48 -30 -54 -5 -9 -43
right_child=1 7 3 6 11 8 19 12 14 24 22 27 36 18 -16 39 28 21 -20 -21 48 -23 26 -25 47 -27 45 41 29 -31 -32 -33 -34 37 -36 -37 44 52 50 -41 51 62 -44 -45 -46 -47 57 -49 -50 -51 -52 -53 59 -55 -56 -57 -58 -59 -60 -61 -62 -63 -64
leaf_value=-0.56652483940124509 -0.058174350680941248 0.49325159766457305 -0.65767652015576417 -0.2076358393765986 -1.0684213470010195 -0.2745701479060309 -0.37112486329025185 0.64880999455720323 -0.010233008079625693 -0.17798791133527514 0.21016803197562695 -0.82042303681373596 0.40359281064712837 -0.39023609874953685 0.17319834593151298 0.24367828767185343 -0.65868051115955628 -0.086926994889124656 -0.77041129748026538 -0.22001661096734032 -0.28848298173397779 -0.27802465793987119 0.16602723323349691 0.48442377664556552 -0.089204495113914498 -0.71385610198974614 0.298817086681328 -1.1093487566167659 -0.48598405992498206 -0.30100763031969902 0.079994239035216672 0.35216054403724578 0.11050898680728305 -1.184756242985628 -0.8126336680518258 -0.81947156312514324 0.55956507376555742 -1.1501176516215006 -0.59282807906468704 0.36698800753324462 -0.44766684391281819 -0.86984337925910948 -0.52219587245157795 -0.56633469462394714 0.49606759960073177 0.21748711557437975 -0.4723764717780255 0.020493743974742865 -0.15221620849691905 -0.84884398146109152 -0.76347957931715871 -0.61390022233475094 -1.046635661125183 -0.87724951744079593 -1.0987021453563983 -0.89396533341634843 -0.49771129051844282 -0.62423831423123677 -0.68087602569943384 -0.87347632690712251 -0.38940282666458276 0.57823070853097103 -0.70182289302349099
leaf_weight=29 59 55 87 22 34 21 39 231 283 79 150 24 73 71 140 146 56 103 30 27 60 75 167 201 88 25 226 22 49 23 259 260 218 49 27 49 232 30 24 78 44 125 28 20 602 180 74 136 78 22 174 43 55 20 65 42 30 36 21 27 53 175 20
leaf_count=29 59 55 87 22 34 21 39 231 283 79 150 24 73 71 140 146 56 103 30 27 60 75 167 201 88 25 226 22 49 23 259 260 218 49 27 49 232 30 24 78 44 125 28 20 602 180 74 136 78 22 174 43 55 20 65 42 30 36 21 27 53 175 20
internal_value=-0.00191561 0.294727 -0.581166 -0.353332 -0.835874 0.0934879 -0.246496 0.481852 -0.0443707 -0.161984 0.164662 -0.954199 0.539969 -0.599649 0.0504771 0.378732 -0.652722 -0.221114 -0.515501 -0.476065 -0.285266 -0.167446 0.201937 0.41872 -0.0631152 -0.515797 0.234567 -0.847335 -0.549805 -0.484245 0.0543592 0.376795 0.151131 -1.02453 -0.978443 -0.71597 0.504867 -1.07892 -0.720276 0.286616 -0.4671 -0.880842 -0.416071 -0.704928 0.513731 0.262759 -0.482566 -0.022602 -0.211463 -1.00591 -0.742795 -0.529828 -1.03261 -0.998825 -1.03041 -0.972011 -0.382264 -0.522077 -0.544452 -0.98962 -0.336085 0.618388 -0.846668
internal_weight=5991 3962 2029 1071 958 1909 747 2053 650 546 1259 582 1313 324 423 740 376 227 188 201 243 178 941 516 303 174 573 231 149 93 318 315 368 351 190 136 907 161 227 224 158 187 49 44 834 406 149 224 138 163 198 87 112 42 141 76 105 110 70 82 75 406 145
internal_count=5991 3962 2029 1071 958 1909 747 2053 650 546 1259 582 1313 324 423 740 376 227 188 201 243 178 941 516 303 174 573 231 149 93 318 315 368 351 190 136 907 161 227 224 158 187 49 44 834 406 149 224 138 163 198 87 112 42 141 76 105 110 70 82 75 406 145
is_linear=0
shrinkage=0.05


Tree=16
num_leaves=64
num_cat=0
split_feature=20 0 19 124 6 20 162 2 20 20 95 183 162 19 163 105 117 4 0 140 173 6 31 132 129 6 19 142 145 106 80 36 0 137 132 70 158 163 183 143 146 176 170 162 19 62 53 131 28 127 158 163 135 134 19 19 8 158 124 29 121 18 179
split_gain=368900 56561.8 42514.4 8536.62 7747.24 6659.14 7157.37 4276.38 3984.97 1851.25 1552.24 1715.23 1486.34 1317.43 990.323 978.568 928.226 874.341 771.887 613.604 590.941 553.535 623.836 547.12 522.917 403.843 399.766 384.997 381.974 371.132 363.218 358.026 355.785 350.177 405.433 343.134 333.315 311.615 303.733 298.677 294.311 292.966 351.036 281.585 275.206 326.902 261.769 260.34 247.558 259.131 244.556 241.958 240.296 236.259 231.404 231.359 225.938 200.988 198.065 189.784 195.578 188.299 188.022
